{
  "layers": [
    {
      "name": "image",
      "type": "LAYER_INPUT",
      "width": 100,
      "height": 100,
      "depth": 1
    },
    {
      "name": "conv1",
      "type": "LAYER_CONV",
      "units": 10,
      "weight": {
        "0": -0.563395619392395,
        "1": -0.10697557777166367,
        "2": -0.04705783724784851,
        "3": 0.12483037263154984,
        "4": -0.023063955828547478,
        "5": -0.33258917927742004,
        "6": -0.06127467751502991,
        "7": -0.2603347897529602,
        "8": -0.09548729658126831,
        "9": 0.011381370015442371,
        "10": -0.1462569236755371,
        "11": 0.2980656921863556,
        "12": 0.02984180673956871,
        "13": -0.2745310962200165,
        "14": -0.1959846168756485,
        "15": 0.032244253903627396,
        "16": -0.08746997267007828,
        "17": -0.033611442893743515,
        "18": -0.10362254083156586,
        "19": 0.09738035500049591,
        "20": -0.6168684363365173,
        "21": 0.049147143959999084,
        "22": -0.48184889554977417,
        "23": -0.22608128190040588,
        "24": -0.32902389764785767
      },
      "kernel_width": 5,
      "kernel_height": 5,
      "kernel_stride_x": 1,
      "kernel_stride_y": 1,
      "pad_x": 0,
      "pad_y": 0,
      "biases": {
        "0": -0.046703409403562546,
        "1": 0.020843613892793655,
        "2": -0.08574732393026352,
        "3": 0.0038398189935833216,
        "4": -0.006775449495762587,
        "5": -0.0488247312605381,
        "6": 0.010355344042181969,
        "7": 0.006039939355105162,
        "8": 0.013046352192759514,
        "9": 0.0009944956982508302
      }
    },
    {
      "name": "pool1",
      "type": "LAYER_MAXPOOL",
      "pool_width": 2,
      "pool_height": 2,
      "pool_stride_x": 2,
      "pool_stride_y": 2
    },
    {
      "name": "conv2",
      "type": "LAYER_CONV",
      "units": 20,
      "weight": {
        "0": -0.034408196806907654,
        "1": 0.0298239067196846,
        "2": -0.043482955545186996,
        "3": 0.025290509685873985,
        "4": -0.09847152978181839,
        "5": -0.022414110600948334,
        "6": 0.17916861176490784,
        "7": 0.12199500948190689,
        "8": -0.060371287167072296,
        "9": 0.02612556889653206,
        "10": 0.03464197367429733,
        "11": 0.05079182982444763,
        "12": -0.03185652568936348,
        "13": -0.06272929161787033,
        "14": -0.011229321360588074,
        "15": 0.001572665642015636,
        "16": 0.06980860233306885,
        "17": -0.011256873607635498,
        "18": -0.07692273706197739,
        "19": 0.034547772258520126,
        "20": 0.020885372534394264,
        "21": 0.11458282917737961,
        "22": 0.07086607813835144,
        "23": -0.024483507499098778,
        "24": -0.01502053439617157,
        "25": -0.02195535972714424,
        "26": 0.040230780839920044,
        "27": -0.013759773224592209,
        "28": 0.0345829539000988,
        "29": 0.0598965547978878,
        "30": 0.05422091856598854,
        "31": -0.0921635702252388,
        "32": 0.0254055205732584,
        "33": -0.009363895282149315,
        "34": -0.08857113867998123,
        "35": 0.08848638087511063,
        "36": -0.014987293630838394,
        "37": 0.0683460384607315,
        "38": 0.0034924002829939127,
        "39": 0.08070315420627594,
        "40": 0.05459343269467354,
        "41": 0.012184100225567818,
        "42": 0.04481832683086395,
        "43": -0.039757922291755676,
        "44": 0.08195962756872177,
        "45": 0.001523986691609025,
        "46": 0.006426233798265457,
        "47": -0.006003079004585743,
        "48": -0.01537280809134245,
        "49": -0.065951868891716,
        "50": -0.06795179098844528,
        "51": 0.07459156960248947,
        "52": 0.03346751257777214,
        "53": 0.08652450144290924,
        "54": -0.12349317967891693,
        "55": -0.10129521042108536,
        "56": -0.042846668511629105,
        "57": 0.08599456399679184,
        "58": 0.0435064472258091,
        "59": 0.04833170771598816,
        "60": 0.0597471222281456,
        "61": -0.03623926639556885,
        "62": 0.0890490785241127,
        "63": -0.04851048067212105,
        "64": -0.06686503440141678,
        "65": 0.01615026593208313,
        "66": -0.007613259833306074,
        "67": -0.011563963256776333,
        "68": 0.04818617179989815,
        "69": 0.03209156543016434,
        "70": -0.06975327432155609,
        "71": -0.060436323285102844,
        "72": 0.017703283578157425,
        "73": -0.14071141183376312,
        "74": 0.028863202780485153,
        "75": -0.06352797895669937,
        "76": 0.048200298100709915,
        "77": 0.04413159564137459,
        "78": -0.033237434923648834,
        "79": -0.02513817697763443,
        "80": -0.05376575142145157,
        "81": -0.0118651632219553,
        "82": -0.029983913525938988,
        "83": -0.07790674269199371,
        "84": -0.03334511071443558,
        "85": -0.03534993901848793,
        "86": 0.01342336181551218,
        "87": -0.026668651029467583,
        "88": -0.07915730029344559,
        "89": -0.0803690180182457,
        "90": 0.021127764135599136,
        "91": -0.07069748640060425,
        "92": -0.025310026481747627,
        "93": 0.03787091001868248,
        "94": -0.046661682426929474,
        "95": -0.015300656668841839,
        "96": -0.037530653178691864,
        "97": 0.06756004691123962,
        "98": 0.045028362423181534,
        "99": 0.04040919244289398,
        "100": 0.04563388600945473,
        "101": -0.09757906198501587,
        "102": 0.08734620362520218,
        "103": 0.0704372301697731,
        "104": -0.029763424769043922,
        "105": 0.0037122932262718678,
        "106": 0.10706777125597,
        "107": -0.031064927577972412,
        "108": 0.05416770279407501,
        "109": -0.10120681673288345,
        "110": -0.02692471817135811,
        "111": -0.05242486298084259,
        "112": -0.030973125249147415,
        "113": 0.05472473055124283,
        "114": 0.11193792521953583,
        "115": 0.16059954464435577,
        "116": 0.08042430877685547,
        "117": 0.012990493327379227,
        "118": -0.04054738208651543,
        "119": -0.0936434268951416,
        "120": 0.0880236104130745,
        "121": 0.06939484179019928,
        "122": -0.04400196298956871,
        "123": -0.1329067200422287,
        "124": -0.010608501732349396,
        "125": 0.10019880533218384,
        "126": -0.1014988049864769,
        "127": -0.06518112123012543,
        "128": -0.04456493631005287,
        "129": 0.03168156370520592,
        "130": 0.08931159973144531,
        "131": 0.13208915293216705,
        "132": -0.06933905184268951,
        "133": 0.035627253353595734,
        "134": 0.010977075435221195,
        "135": -0.033060573041439056,
        "136": -0.06677395105361938,
        "137": -0.0025611298624426126,
        "138": -0.0413137711584568,
        "139": -0.052378568798303604,
        "140": 0.06685439497232437,
        "141": -0.08443596959114075,
        "142": 0.05035998672246933,
        "143": -0.01729096844792366,
        "144": 0.07578558474779129,
        "145": -0.0331895686686039,
        "146": 0.04063129425048828,
        "147": -0.11769203096628189,
        "148": 0.07251891493797302,
        "149": 0.06522791087627411,
        "150": -0.03146761283278465,
        "151": -0.13396447896957397,
        "152": 0.06378072500228882,
        "153": 0.10676981508731842,
        "154": 0.076298289000988,
        "155": 0.041769810020923615,
        "156": 0.011898458003997803,
        "157": -0.03229905664920807,
        "158": 0.006328885443508625,
        "159": 0.07787442207336426,
        "160": 0.012414531782269478,
        "161": 0.006554354447871447,
        "162": -0.040885813534259796,
        "163": -0.09275121986865997,
        "164": -0.039536554366350174,
        "165": -0.020098865032196045,
        "166": 0.1170061007142067,
        "167": -0.08596314489841461,
        "168": -0.027477482333779335,
        "169": -0.05602629482746124,
        "170": 0.0803821012377739,
        "171": 0.028398821130394936,
        "172": 0.03794204443693161,
        "173": 0.053201474249362946,
        "174": -0.07446429133415222,
        "175": -0.02228320576250553,
        "176": -0.04497487097978592,
        "177": 0.018995661288499832,
        "178": 0.10525777190923691,
        "179": 0.053019504994153976,
        "180": -0.045561060309410095,
        "181": -0.05412185564637184,
        "182": -0.05178409069776535,
        "183": 0.034252893179655075,
        "184": -0.0072992597706615925,
        "185": 0.0058633009903132915,
        "186": 0.10904800891876221,
        "187": 0.03854669630527496,
        "188": 0.08345853537321091,
        "189": 0.08992593735456467,
        "190": 0.0014480745885521173,
        "191": -0.002641565166413784,
        "192": -0.0008701594197191298,
        "193": -0.018796365708112717,
        "194": 0.03662741556763649,
        "195": 0.004746145103126764,
        "196": 0.04536475986242294,
        "197": 0.040836434811353683,
        "198": -0.07465299218893051,
        "199": 0.010148664936423302,
        "200": 0.083043672144413,
        "201": 0.020990662276744843,
        "202": 0.10782284289598465,
        "203": 0.027229655534029007,
        "204": 0.056329067796468735,
        "205": -0.07217103987932205,
        "206": -0.1206718310713768,
        "207": 0.011427443474531174,
        "208": -0.025163814425468445,
        "209": 0.11396346986293793,
        "210": 0.060294296592473984,
        "211": -0.015136837027966976,
        "212": 0.06692858040332794,
        "213": 0.027831437066197395,
        "214": -0.12300587445497513,
        "215": 0.02697916515171528,
        "216": -0.08279188722372055,
        "217": -0.048955485224723816,
        "218": -0.1416528970003128,
        "219": 0.015325604937970638,
        "220": 0.037612613290548325,
        "221": -0.09800942987203598,
        "222": 0.04894975200295448,
        "223": -0.02113657258450985,
        "224": 0.04906550049781799,
        "225": -0.09982222318649292,
        "226": 0.0847766324877739,
        "227": -0.1199556291103363,
        "228": -0.07913025468587875,
        "229": 0.007865608669817448,
        "230": -0.11766352504491806,
        "231": -0.19310256838798523,
        "232": -0.08499842137098312,
        "233": -0.05096779018640518,
        "234": 0.06629578769207001,
        "235": 0.009501074440777302,
        "236": 0.019513417035341263,
        "237": -0.0566459558904171,
        "238": 0.07950436323881149,
        "239": 0.012984736822545528,
        "240": 0.06105067580938339,
        "241": -0.13477778434753418,
        "242": 0.005461404100060463,
        "243": -0.0074246651493012905,
        "244": -0.055021293461322784,
        "245": 0.02767624519765377,
        "246": 0.0762404203414917,
        "247": -0.017653262242674828,
        "248": 0.09064172208309174,
        "249": 0.03186151385307312
      },
      "kernel_width": 5,
      "kernel_height": 5,
      "kernel_stride_x": 1,
      "kernel_stride_y": 1,
      "pad_x": 0,
      "pad_y": 0,
      "biases": {
        "0": -0.0034358850680291653,
        "1": -0.0242470633238554,
        "2": -0.004679371602833271,
        "3": 0.005366199649870396,
        "4": -0.02183852158486843,
        "5": 0.017625099048018456,
        "6": 0.020574280992150307,
        "7": 0.012704024091362953,
        "8": 0.0010377895087003708,
        "9": 0.0008707329398021102,
        "10": 0.010564485564827919,
        "11": -0.04468642175197601,
        "12": -0.0111198415979743,
        "13": -0.0009858696721494198,
        "14": 0.01122420933097601,
        "15": -0.046901870518922806,
        "16": -0.006571838166564703,
        "17": 0.013520668260753155,
        "18": 0.0021385634317994118,
        "19": -0.00040414329851046205
      }
    },
    {
      "name": "pool2",
      "type": "LAYER_MAXPOOL",
      "pool_width": 2,
      "pool_height": 2,
      "pool_stride_x": 2,
      "pool_stride_y": 2
    },
    {
      "name": "out",
      "type": "LAYER_FULLY_CONNECTED",
      "units": 10,
      "weight": {
        "0": -0.007470465265214443,
        "1": 0.016309572383761406,
        "2": -0.010811231099069118,
        "3": -0.006360779050737619,
        "4": 0.01680086925625801,
        "5": -0.010394612327218056,
        "6": -0.013038257136940956,
        "7": -0.005645164754241705,
        "8": -0.014805068261921406,
        "9": -0.002934388117864728,
        "10": 0.015667714178562164,
        "11": -0.003863424062728882,
        "12": 0.025289207696914673,
        "13": 0.006749582011252642,
        "14": 0.011502460576593876,
        "15": -0.0016834206180647016,
        "16": -0.012817314825952053,
        "17": 0.005341571755707264,
        "18": -0.00824224203824997,
        "19": 0.008787207305431366,
        "20": 0.009406337514519691,
        "21": -0.0022343178279697895,
        "22": 0.0066235363483428955,
        "23": 0.0010538435308262706,
        "24": -0.015927456319332123,
        "25": 0.0070136915892362595,
        "26": 0.0020030741579830647,
        "27": 0.016842996701598167,
        "28": 0.018761074170470238,
        "29": -0.004116863012313843,
        "30": 0.013290157541632652,
        "31": 0.011080330237746239,
        "32": -0.0033193621784448624,
        "33": 0.016902144998311996,
        "34": 0.0038683589082211256,
        "35": -0.004557769745588303,
        "36": 0.007064555771648884,
        "37": 0.010198966600000858,
        "38": -0.002907751826569438,
        "39": -0.0015826203161850572,
        "40": -0.000900160288438201,
        "41": 0.00833373237401247,
        "42": 0.011573824100196362,
        "43": 0.006483586970716715,
        "44": 0.0010486113606020808,
        "45": 0.0011731130070984364,
        "46": -0.007773899473249912,
        "47": -0.006527186371386051,
        "48": 0.004656247328966856,
        "49": -0.014967487193644047,
        "50": -0.01544694323092699,
        "51": -0.02016170136630535,
        "52": -0.013122164644300938,
        "53": -0.0002151205117115751,
        "54": 0.016642393544316292,
        "55": 0.005272997543215752,
        "56": 0.002623351290822029,
        "57": 0.007953628897666931,
        "58": 0.0028122938238084316,
        "59": -0.0016705809393897653,
        "60": 0.0021888345945626497,
        "61": 0.007976408116519451,
        "62": -0.005834509618580341,
        "63": 0.008418763987720013,
        "64": 0.011074318550527096,
        "65": 0.002644396387040615,
        "66": 0.005009359214454889,
        "67": 0.005958852358162403,
        "68": -0.01378222368657589,
        "69": 0.011736211366951466,
        "70": 0.0013521785149350762,
        "71": 0.001315011060796678,
        "72": 0.001431655022315681,
        "73": -0.00013710363418795168,
        "74": -0.024249453097581863,
        "75": 0.0009187580435536802,
        "76": -0.01836979202926159,
        "77": -0.005493630655109882,
        "78": 0.005864407867193222,
        "79": 0.008337737992405891,
        "80": 0.008133905939757824,
        "81": -0.013362045399844646,
        "82": 0.011066210456192493,
        "83": -0.000525604875292629,
        "84": 0.0021417641546577215,
        "85": -0.019567366689443588,
        "86": -0.010324683971703053,
        "87": 0.006875719875097275,
        "88": 0.010166393592953682,
        "89": -0.0006227877456694841,
        "90": -0.0053736502304673195,
        "91": -0.016700556501746178,
        "92": 0.011826202273368835,
        "93": -0.0036498981062322855,
        "94": 0.01193222962319851,
        "95": -0.0036648514214903116,
        "96": 0.0036325016990303993,
        "97": 0.014075116254389286,
        "98": -0.0005301492055878043,
        "99": -0.012122174724936485,
        "100": 0.009732122533023357,
        "101": 0.001983391121029854,
        "102": 0.008188535459339619,
        "103": -0.006577545776963234,
        "104": 0.006958711892366409,
        "105": 0.003991324454545975,
        "106": -0.005333494860678911,
        "107": -0.006358406972140074,
        "108": 0.02137698046863079,
        "109": -0.006918149068951607,
        "110": -0.0034972664434462786,
        "111": 0.0049006640911102295,
        "112": -0.018186941742897034,
        "113": -0.004914689343422651,
        "114": 0.005189231596887112,
        "115": -0.009941927157342434,
        "116": -0.004137316718697548,
        "117": -0.010587194003164768,
        "118": 0.007266277447342873,
        "119": -0.009476860985159874,
        "120": -0.004488051403313875,
        "121": -0.002390091074630618,
        "122": -0.0033602153416723013,
        "123": 0.0011656103888526559,
        "124": -0.005665602628141642,
        "125": 0.002309540519490838,
        "126": -0.0008223230252042413,
        "127": 0.0022121346555650234,
        "128": 0.0006646445253863931,
        "129": -0.00867416337132454,
        "130": 0.007130906451493502,
        "131": 0.01962469145655632,
        "132": 0.004497419111430645,
        "133": 0.008497405797243118,
        "134": -0.008441017009317875,
        "135": 0.015029969625175,
        "136": 0.005132317077368498,
        "137": 0.003936873748898506,
        "138": 0.0017617620760574937,
        "139": 0.012118750251829624,
        "140": 0.021690554916858673,
        "141": -0.003014224348589778,
        "142": -0.0021770771127194166,
        "143": -0.008278599008917809,
        "144": -0.011041630059480667,
        "145": 0.01880781166255474,
        "146": 0.01632816530764103,
        "147": -0.012943889014422894,
        "148": 0.007814290933310986,
        "149": -0.004755822941660881,
        "150": -0.0021658544428646564,
        "151": -0.00444745784625411,
        "152": -0.006325200200080872,
        "153": -0.00035344919888302684,
        "154": 0.017128195613622665,
        "155": -0.003194092307239771,
        "156": -0.02449568547308445,
        "157": 0.010548751801252365,
        "158": 0.002933409996330738,
        "159": -0.005799288395792246,
        "160": -0.0020499457605183125,
        "161": 0.0027362992987036705,
        "162": -0.023134468123316765,
        "163": 0.010765261948108673,
        "164": -0.001721622422337532,
        "165": 0.0026228611823171377,
        "166": -0.017614290118217468,
        "167": -0.0036872937344014645,
        "168": 0.0002507368626538664,
        "169": 0.00859110802412033,
        "170": -0.001686094212345779,
        "171": -0.003665018593892455,
        "172": -0.004736901726573706,
        "173": 0.0036585619673132896,
        "174": 0.0076030101627111435,
        "175": -0.006364071741700172,
        "176": 0.005873376503586769,
        "177": -0.006174543406814337,
        "178": -0.007208493538200855,
        "179": 0.01791815273463726,
        "180": -0.005992264486849308,
        "181": 0.013302234001457691,
        "182": 0.0002019666862906888,
        "183": 0.008706166408956051,
        "184": -0.004483919125050306,
        "185": 0.004232918843626976,
        "186": -0.008947726339101791,
        "187": 0.0019927227403968573,
        "188": -0.01218639500439167,
        "189": 0.007474816404283047,
        "190": -0.0016760984435677528,
        "191": -0.004269457887858152,
        "192": -0.007396654225885868,
        "193": -0.005204934161156416,
        "194": 0.005263014230877161,
        "195": -0.0062159206718206406,
        "196": -0.010585620999336243,
        "197": 0.016450513154268265,
        "198": 0.006628405302762985,
        "199": -0.03057998977601528,
        "200": -0.014033151790499687,
        "201": 0.005371113307774067,
        "202": -0.004980430472642183,
        "203": 0.02996589057147503,
        "204": 0.005807976704090834,
        "205": -0.000987141509540379,
        "206": 0.007391736842691898,
        "207": -0.004912387579679489,
        "208": 0.013989340513944626,
        "209": 0.0298004150390625,
        "210": -0.008452316746115685,
        "211": -0.005332552827894688,
        "212": 0.0028090327978134155,
        "213": 0.013884193263947964,
        "214": 0.005759445019066334,
        "215": 0.031741417944431305,
        "216": 0.013245212845504284,
        "217": -0.016362009570002556,
        "218": -0.0031894578132778406,
        "219": 0.015312334522604942,
        "220": 0.0032356418669223785,
        "221": 0.007953227497637272,
        "222": 0.003618955845013261,
        "223": 0.011044087819755077,
        "224": -0.004129669163376093,
        "225": 0.0003820487472694367,
        "226": -0.0022298404946923256,
        "227": 0.004520620219409466,
        "228": -0.00030523090390488505,
        "229": 0.002309371717274189,
        "230": 0.0028648991137742996,
        "231": 0.003523504361510277,
        "232": -0.005289382766932249,
        "233": -0.014994685538113117,
        "234": -0.008909471333026886,
        "235": -0.006301448680460453,
        "236": -0.002608188893646002,
        "237": 0.004990436136722565,
        "238": -0.008816161192953587,
        "239": -0.02172675170004368,
        "240": -0.009347167797386646,
        "241": 0.0034278107341378927,
        "242": 0.0035097827203571796,
        "243": -0.0061012511141598225,
        "244": -0.002242404967546463,
        "245": 0.009175868704915047,
        "246": -0.006595367565751076,
        "247": -0.0018858648836612701,
        "248": -0.00786175113171339,
        "249": -0.012444465421140194,
        "250": -0.004715389106422663,
        "251": -0.011812331154942513,
        "252": 0.028110384941101074,
        "253": 0.017568150535225868,
        "254": 0.004021516069769859,
        "255": 0.012057305313646793,
        "256": 0.01188642531633377,
        "257": -0.019669251516461372,
        "258": 0.011410742066800594,
        "259": 0.01905103027820587,
        "260": -0.0208682082593441,
        "261": -0.015210435725748539,
        "262": 0.002296946244314313,
        "263": -0.020165052264928818,
        "264": 0.016316303983330727,
        "265": 0.01272906456142664,
        "266": -0.01053498312830925,
        "267": -0.006704416591674089,
        "268": 0.011215342208743095,
        "269": -0.006625967565923929,
        "270": 0.010176630690693855,
        "271": 0.006669182330369949,
        "272": 0.01838025078177452,
        "273": -0.011497911997139454,
        "274": 0.016746453940868378,
        "275": -0.008074327372014523,
        "276": -0.0005289916298352182,
        "277": -0.008315196260809898,
        "278": 0.00927317701280117,
        "279": -0.005488811060786247,
        "280": 0.006210056133568287,
        "281": -0.01998724229633808,
        "282": -0.0004405502986628562,
        "283": 0.008770438842475414,
        "284": 0.0076649850234389305,
        "285": -0.0012706482084468007,
        "286": 0.0031010403763502836,
        "287": 0.014115988276898861,
        "288": 0.005312199704349041,
        "289": 0.0014367385301738977,
        "290": -0.0001356879365630448,
        "291": -0.0011062684934586287,
        "292": 0.0086857033893466,
        "293": -0.01763511449098587,
        "294": -0.003499972401186824,
        "295": 0.008764843456447124,
        "296": 0.0029823847580701113,
        "297": -0.007102842442691326,
        "298": 0.007037695962935686,
        "299": -0.011019054800271988,
        "300": -0.005352280102670193,
        "301": -0.007649320177733898,
        "302": -0.0037591152358800173,
        "303": -0.0010560541413724422,
        "304": -0.010416232980787754,
        "305": -0.0018002820434048772,
        "306": -0.0026092794723808765,
        "307": -0.009241223335266113,
        "308": 0.0065891980193555355,
        "309": 0.005624331068247557,
        "310": -0.005602892953902483,
        "311": -0.005297535099089146,
        "312": -0.01713559217751026,
        "313": 0.007136443164199591,
        "314": -0.009993675164878368,
        "315": 0.017628250643610954,
        "316": -0.001212557777762413,
        "317": -0.005349324084818363,
        "318": -0.007779930718243122,
        "319": 0.01528432872146368,
        "320": -0.0087583614513278,
        "321": -0.0008555507520213723,
        "322": -0.0021909738425165415,
        "323": -0.013444259762763977,
        "324": -0.00235229404643178,
        "325": 0.001067141885869205,
        "326": 0.002778251888230443,
        "327": -0.00827884767204523,
        "328": -0.008136175572872162,
        "329": -0.02003893442451954,
        "330": -0.0056677209213376045,
        "331": -0.019808141514658928,
        "332": -0.005321456119418144,
        "333": -0.002129304688423872,
        "334": 0.0038020515348762274,
        "335": 0.0004744133329950273,
        "336": -0.016840066760778427,
        "337": 0.0017793847946450114,
        "338": -0.015727996826171875,
        "339": 0.0059380303137004375,
        "340": -0.0008506228914484382,
        "341": -0.01125855091959238,
        "342": -0.0005837632925249636,
        "343": 0.0019487437093630433,
        "344": 0.015385723672807217,
        "345": -0.019519373774528503,
        "346": -0.004441606812179089,
        "347": -0.005575955845415592,
        "348": 0.005198036320507526,
        "349": 0.009584133513271809,
        "350": -0.005298967938870192,
        "351": -0.0013502506772056222,
        "352": -0.0062068672850728035,
        "353": 0.0064783766865730286,
        "354": -0.015427832491695881,
        "355": -0.015448872931301594,
        "356": 0.011989491060376167,
        "357": 0.012341054156422615,
        "358": 0.011411841958761215,
        "359": 0.008285708725452423,
        "360": 0.00975645799189806,
        "361": -0.013751774094998837,
        "362": 0.010080039501190186,
        "363": -0.009446623735129833,
        "364": 0.0013393319677561522,
        "365": 0.030274108052253723,
        "366": -0.007498719729483128,
        "367": -0.016913704574108124,
        "368": 0.004028916358947754,
        "369": -0.009389309212565422,
        "370": -0.012828787788748741,
        "371": 0.004978606943041086,
        "372": 0.008984752930700779,
        "373": 0.010555488057434559,
        "374": 0.018133079633116722,
        "375": -0.00010612636833684519,
        "376": -0.0028844301123172045,
        "377": -0.0048304153606295586,
        "378": 0.005874290596693754,
        "379": 0.002592610428109765,
        "380": -0.00022094152518548071,
        "381": 0.01435063686221838,
        "382": 0.0009477827115915716,
        "383": 0.011507799848914146,
        "384": 0.014769251458346844,
        "385": -0.016227615997195244,
        "386": -0.010372349061071873,
        "387": 0.025726808235049248,
        "388": -0.014438292942941189,
        "389": -0.002720800694078207,
        "390": 0.012752209790050983,
        "391": 0.021447356790304184,
        "392": 0.020515361800789833,
        "393": 0.007142264861613512,
        "394": -0.010215003043413162,
        "395": 0.0072272648103535175,
        "396": 0.0016068018740043044,
        "397": 0.00861462764441967,
        "398": -0.006643680389970541,
        "399": 0.018381528556346893,
        "400": 0.009824026376008987,
        "401": 0.010320943780243397,
        "402": 0.010277737863361835,
        "403": -0.006116905249655247,
        "404": -0.01118037011474371,
        "405": 0.026156283915042877,
        "406": 0.0051728421822190285,
        "407": -0.003148159943521023,
        "408": 0.02074345387518406,
        "409": 0.008211931213736534,
        "410": -0.012894850224256516,
        "411": -0.020198049023747444,
        "412": -0.01879270374774933,
        "413": 0.014127342030405998,
        "414": 0.0019605406560003757,
        "415": 0.0056874738074839115,
        "416": -0.01427654828876257,
        "417": 0.011403786018490791,
        "418": -0.0012487994972616434,
        "419": 0.0025891868863254786,
        "420": 0.004244746640324593,
        "421": -0.007698479574173689,
        "422": -0.00042004475835710764,
        "423": 0.007493057753890753,
        "424": 0.004895870573818684,
        "425": -0.0010054206941276789,
        "426": -0.0002671610563993454,
        "427": -0.006166584324091673,
        "428": -0.0038776311557739973,
        "429": 0.006954527460038662,
        "430": 0.011091058142483234,
        "431": 0.007811653893440962,
        "432": -0.00302683818154037,
        "433": -0.006100072525441647,
        "434": 0.0008214068366214633,
        "435": 0.006597165483981371,
        "436": 0.0020215692929923534,
        "437": 0.003938456531614065,
        "438": -0.01792200468480587,
        "439": 0.0022480434272438288,
        "440": 0.00925194751471281,
        "441": -0.003230293747037649,
        "442": 0.009497745893895626,
        "443": 0.006123621482402086,
        "444": 0.002646674634888768,
        "445": 0.003512556664645672,
        "446": -0.002138442127034068,
        "447": -0.014529857784509659,
        "448": 0.006022196263074875,
        "449": 0.013771861791610718,
        "450": -0.0007820454193279147,
        "451": -0.0005879945238120854,
        "452": -0.016566341742873192,
        "453": -0.0008267408702522516,
        "454": 0.021594548597931862,
        "455": -0.0017152715008705854,
        "456": 0.004625407047569752,
        "457": -0.015491840429604053,
        "458": -0.004312006291002035,
        "459": -0.007304590195417404,
        "460": -0.003520192578434944,
        "461": -0.009487203322350979,
        "462": 0.014386489056050777,
        "463": 0.01195365097373724,
        "464": 0.003655653679743409,
        "465": 0.007389674428850412,
        "466": -0.00601581297814846,
        "467": 0.020892029628157616,
        "468": -0.009839764796197414,
        "469": 0.002778048859909177,
        "470": 0.0037145528476685286,
        "471": -0.0012577400775626302,
        "472": 0.03109140321612358,
        "473": -0.00872665923088789,
        "474": 0.021207023411989212,
        "475": 0.0122319795191288,
        "476": -0.001732732867822051,
        "477": -0.009445694275200367,
        "478": -0.005641784984618425,
        "479": 0.011628562584519386,
        "480": 0.012300824746489525,
        "481": -0.009389657527208328,
        "482": -0.003553131129592657,
        "483": 0.007895817048847675,
        "484": 0.00618921360000968,
        "485": 0.02069261483848095,
        "486": -0.02951141819357872,
        "487": 0.006398928817361593,
        "488": -0.007183843292295933,
        "489": 0.014054549857974052,
        "490": 0.0030548814684152603,
        "491": 0.0060575297102332115,
        "492": 0.004182572476565838,
        "493": 0.011766936630010605,
        "494": 0.01152997836470604,
        "495": -0.0027349512092769146,
        "496": 0.009643588215112686,
        "497": 0.012288923375308514,
        "498": 0.007179860025644302,
        "499": 0.007227596361190081,
        "500": 0.024737102910876274,
        "501": 0.0202302485704422,
        "502": 0.015038004145026207,
        "503": 0.013415515422821045,
        "504": -0.00017398095224052668,
        "505": 0.008780501782894135,
        "506": 0.011842425912618637,
        "507": -0.00012591505947057158,
        "508": -0.015292112715542316,
        "509": 0.010000389069318771,
        "510": -0.007685637101531029,
        "511": -0.01803770661354065,
        "512": 0.0011251503601670265,
        "513": 0.006403220351785421,
        "514": 0.0031307232566177845,
        "515": -0.012975001707673073,
        "516": 0.009850678965449333,
        "517": 0.008432663977146149,
        "518": 0.000772955478169024,
        "519": 0.009448423981666565,
        "520": -0.0115641625598073,
        "521": -0.0007601121324114501,
        "522": 0.005715665873140097,
        "523": 0.010049423202872276,
        "524": 0.0006555053405463696,
        "525": 0.004393181763589382,
        "526": -0.01595946215093136,
        "527": 0.01188406441360712,
        "528": -0.0034729214385151863,
        "529": 0.005168863572180271,
        "530": 0.0022709195036441088,
        "531": -0.005947632249444723,
        "532": 0.0006632579024881124,
        "533": -0.01580914482474327,
        "534": -0.011029447428882122,
        "535": -0.019982049241662025,
        "536": -0.02363266982138157,
        "537": -0.02216179110109806,
        "538": 0.011874247342348099,
        "539": 0.0093492167070508,
        "540": -0.004665585234761238,
        "541": 0.013628448359668255,
        "542": -0.00908438116312027,
        "543": -0.023209571838378906,
        "544": -0.022114798426628113,
        "545": -0.002908291295170784,
        "546": 0.006991621572524309,
        "547": -0.007486499845981598,
        "548": -0.007499112747609615,
        "549": 0.002843551803380251,
        "550": 0.004661852959543467,
        "551": 0.011963685974478722,
        "552": 0.0055062491446733475,
        "553": 0.007492153439670801,
        "554": 0.016457943245768547,
        "555": 0.007901599630713463,
        "556": -0.007444664370268583,
        "557": -0.009110171347856522,
        "558": 0.016344469040632248,
        "559": 0.0016646406147629023,
        "560": 0.01879204995930195,
        "561": 0.001605803961865604,
        "562": -0.02124020643532276,
        "563": -0.0024140975438058376,
        "564": -0.012567641213536263,
        "565": 0.00512358034029603,
        "566": -0.006441127974539995,
        "567": -0.0035253982059657574,
        "568": -0.007180693559348583,
        "569": -0.016380472108721733,
        "570": 0.0018774212803691626,
        "571": 0.000626307912170887,
        "572": 0.003630725434049964,
        "573": 0.015286999754607677,
        "574": -0.011737965047359467,
        "575": -0.010827014222741127,
        "576": -0.0004099594953004271,
        "577": -0.000013012031558901072,
        "578": 0.01819349266588688,
        "579": 0.00784591119736433,
        "580": -0.00010157868382520974,
        "581": -0.009204408153891563,
        "582": -0.012697524391114712,
        "583": 0.0017687884392216802,
        "584": 0.018973875790834427,
        "585": -0.019387761130928993,
        "586": -0.018675683066248894,
        "587": -0.004479879979044199,
        "588": -0.017646951600909233,
        "589": -0.015637371689081192,
        "590": 0.004328818526118994,
        "591": -0.005859191995114088,
        "592": 0.010387720540165901,
        "593": -0.003919112961739302,
        "594": -0.010026922449469566,
        "595": 0.0131458081305027,
        "596": 0.0004976377822458744,
        "597": -0.018307775259017944,
        "598": 0.010484898462891579,
        "599": -0.011604380793869495,
        "600": 0.004080461338162422,
        "601": 0.005489391274750233,
        "602": 0.026602601632475853,
        "603": -0.006141815334558487,
        "604": -0.010074830614030361,
        "605": 0.00708817271515727,
        "606": 0.0067589618265628815,
        "607": 0.009706802666187286,
        "608": -0.00501311244443059,
        "609": 0.006647162605077028,
        "610": -0.0093586640432477,
        "611": 0.013140573166310787,
        "612": 0.02988896518945694,
        "613": 0.02663394808769226,
        "614": 0.009442124515771866,
        "615": -0.009030143730342388,
        "616": 0.02936401218175888,
        "617": -0.007446506060659885,
        "618": 0.003671197220683098,
        "619": -0.01350602600723505,
        "620": 0.021595893427729607,
        "621": 0.0093077402561903,
        "622": -0.0014580190181732178,
        "623": 0.011380072683095932,
        "624": -0.01879889704287052,
        "625": -0.0110238678753376,
        "626": -0.00009921524178935215,
        "627": -0.002313828095793724,
        "628": -0.020603543147444725,
        "629": 0.013025716878473759,
        "630": 0.020553989335894585,
        "631": -0.0026946745347231627,
        "632": 0.0040174806490540504,
        "633": -0.0043759956024587154,
        "634": 0.009734136052429676,
        "635": 0.013493579812347889,
        "636": 0.003502537962049246,
        "637": -0.006232293788343668,
        "638": 0.024620501324534416,
        "639": -0.007656226400285959,
        "640": 0.015592848882079124,
        "641": -0.014346583746373653,
        "642": 0.0012844097800552845,
        "643": 0.005429542623460293,
        "644": 0.038015320897102356,
        "645": -0.0028786445036530495,
        "646": 0.005593824200332165,
        "647": 0.021968550980091095,
        "648": 0.008226168341934681,
        "649": 0.031777869910001755,
        "650": -0.017116880044341087,
        "651": -0.0007001537014730275,
        "652": 0.015306473709642887,
        "653": -0.0022544751409441233,
        "654": -0.008337968029081821,
        "655": -0.020138783380389214,
        "656": -0.0012424032902345061,
        "657": 0.0023130180779844522,
        "658": 0.01315012015402317,
        "659": -0.02057459019124508,
        "660": 0.02167504094541073,
        "661": -0.0067355032078921795,
        "662": -0.010828342288732529,
        "663": -0.0045271748676896095,
        "664": -0.0015875495737418532,
        "665": -0.0031526009552180767,
        "666": 0.012543183751404285,
        "667": -0.013190750032663345,
        "668": 0.03179670497775078,
        "669": 0.033707454800605774,
        "670": -0.001147436792962253,
        "671": -0.009829740971326828,
        "672": 0.015227364376187325,
        "673": 0.016270196065306664,
        "674": 0.005626704543828964,
        "675": -0.007518998347222805,
        "676": 0.007936517708003521,
        "677": -0.027964115142822266,
        "678": -0.018446439877152443,
        "679": -0.006726957391947508,
        "680": 0.0008402427192777395,
        "681": 0.0006408517365343869,
        "682": 0.014695758000016212,
        "683": -0.006688863970339298,
        "684": -0.007101499475538731,
        "685": -0.01960790902376175,
        "686": 0.0073439255356788635,
        "687": 0.013367596082389355,
        "688": -0.003551929257810116,
        "689": -0.01954261213541031,
        "690": -0.004846840165555477,
        "691": 0.011523974128067493,
        "692": -0.009964034892618656,
        "693": 0.008182791993021965,
        "694": -0.008657931350171566,
        "695": -0.012982681393623352,
        "696": -0.00007841546175768599,
        "697": -0.01152236107736826,
        "698": 0.002940618898719549,
        "699": -0.0007017219322733581,
        "700": 0.0038789999671280384,
        "701": -0.008747982792556286,
        "702": 0.0027129037771373987,
        "703": 0.0008204413461498916,
        "704": 0.01660127192735672,
        "705": -0.0022865780629217625,
        "706": 0.0011600253637880087,
        "707": -0.000003348483005538583,
        "708": 0.013813568279147148,
        "709": 0.006012442521750927,
        "710": 0.007316881790757179,
        "711": -0.010689561255276203,
        "712": -0.002014600206166506,
        "713": -0.009606121107935905,
        "714": 0.009588285349309444,
        "715": 0.008751208893954754,
        "716": -0.013517828658223152,
        "717": 0.0014275331050157547,
        "718": 0.008283669129014015,
        "719": 0.008618535473942757,
        "720": 0.0006516528083011508,
        "721": -0.0036932078655809164,
        "722": -0.008224823512136936,
        "723": 0.014762882143259048,
        "724": -0.019881412386894226,
        "725": -0.006642290856689215,
        "726": -0.0027889448683708906,
        "727": 0.003682694397866726,
        "728": -0.005133968777954578,
        "729": -0.007483181543648243,
        "730": 0.018908385187387466,
        "731": 0.01321567501872778,
        "732": 0.007271419744938612,
        "733": -0.007127485238015652,
        "734": 0.005126703530550003,
        "735": 0.00045862357364967465,
        "736": 0.025185946375131607,
        "737": 0.023044636473059654,
        "738": 0.01883373036980629,
        "739": -0.000761848408728838,
        "740": -0.0022865119390189648,
        "741": -0.0016551269218325615,
        "742": 0.002442591590806842,
        "743": 0.0022131996229290962,
        "744": 0.0030458855908364058,
        "745": -0.0039035233203321695,
        "746": 0.006494143977761269,
        "747": -0.017051486298441887,
        "748": 0.028672559186816216,
        "749": 0.009642602875828743,
        "750": 0.0007060579373501241,
        "751": -0.0020389326382428408,
        "752": 0.009070135653018951,
        "753": -0.009131199680268764,
        "754": 0.008488400839269161,
        "755": 0.027051132172346115,
        "756": -0.00006659716018475592,
        "757": 0.018368955701589584,
        "758": 0.0035876096226274967,
        "759": -0.01392818707972765,
        "760": 0.005197522696107626,
        "761": 0.009052511304616928,
        "762": -0.001267039100639522,
        "763": 0.0043623195961117744,
        "764": -0.021526183933019638,
        "765": -0.007335301022976637,
        "766": 0.005248814821243286,
        "767": 0.00221913936547935,
        "768": 0.004524916876107454,
        "769": 0.004930495284497738,
        "770": 0.006968201138079166,
        "771": 0.003387307748198509,
        "772": 0.008346335962414742,
        "773": 0.013967604376375675,
        "774": 0.013306588865816593,
        "775": 0.0045904009602963924,
        "776": 0.012442117556929588,
        "777": 0.0038403943181037903,
        "778": -0.007537659257650375,
        "779": 0.009845968335866928,
        "780": 0.014435823075473309,
        "781": -0.008837264031171799,
        "782": -0.008467518724501133,
        "783": 0.001023305463604629,
        "784": -0.027454111725091934,
        "785": -0.00008545509626856074,
        "786": -0.008094660937786102,
        "787": -0.0023718797601759434,
        "788": -0.005513450130820274,
        "789": -0.007115536369383335,
        "790": 0.001632712665013969,
        "791": 0.008668557740747929,
        "792": 0.02227451279759407,
        "793": 0.004807223100215197,
        "794": 0.021809613332152367,
        "795": 0.007775546982884407,
        "796": 0.022609509527683258,
        "797": -0.0011662852484732866,
        "798": 0.002606592606753111,
        "799": -0.007675234228372574,
        "800": 0.006710652261972427,
        "801": -0.0018517745193094015,
        "802": -0.005002505611628294,
        "803": -0.007808955851942301,
        "804": 0.002203805837780237,
        "805": -0.007661202922463417,
        "806": 0.0031589881982654333,
        "807": -0.007413874380290508,
        "808": -0.005328927654772997,
        "809": 0.0027807767037302256,
        "810": 0.016697345301508904,
        "811": 0.005033527966588736,
        "812": 0.002515566535294056,
        "813": -0.022539686411619186,
        "814": 0.0063951448537409306,
        "815": -0.0013771380763500929,
        "816": 0.011708367615938187,
        "817": -0.0027549900114536285,
        "818": 0.00990996789187193,
        "819": 0.00101133668795228,
        "820": 0.004918426740914583,
        "821": -0.0073766582645475864,
        "822": 0.00525177177041769,
        "823": -0.012515380047261715,
        "824": -0.011514177545905113,
        "825": -0.0046028816141188145,
        "826": 0.008071483112871647,
        "827": -0.0008507355232723057,
        "828": 0.013446936383843422,
        "829": -0.018392225727438927,
        "830": 0.00034040832542814314,
        "831": -0.003483728040009737,
        "832": -0.011998624540865421,
        "833": -0.0011225793277844787,
        "834": -0.007214111741632223,
        "835": -0.007296275347471237,
        "836": 0.0040704780258238316,
        "837": 0.00001683662412688136,
        "838": 0.004567528143525124,
        "839": 0.011310913600027561,
        "840": -0.008005250245332718,
        "841": 0.001090062316507101,
        "842": -0.0020232703536748886,
        "843": 0.0005228637019172311,
        "844": 0.014291281811892986,
        "845": -0.005526239983737469,
        "846": 0.01134322676807642,
        "847": 0.0059159789234399796,
        "848": 0.008331424556672573,
        "849": 0.01959376409649849,
        "850": 0.016077224165201187,
        "851": 0.0008089891052804887,
        "852": 0.002730501350015402,
        "853": 0.0018693966558203101,
        "854": 0.011048450134694576,
        "855": 0.010930859483778477,
        "856": 0.0005174089455977082,
        "857": 0.00004743919998873025,
        "858": 0.0007326018530875444,
        "859": -0.0004911541473120451,
        "860": 0.005170274525880814,
        "861": -0.012316412292420864,
        "862": -0.001093355705961585,
        "863": 0.0054334853775799274,
        "864": 0.020080506801605225,
        "865": -0.00910764466971159,
        "866": -0.007272669579833746,
        "867": 0.004336311016231775,
        "868": -0.004982131998986006,
        "869": 0.0014058456290513277,
        "870": 0.005007924512028694,
        "871": 0.009643425233662128,
        "872": 0.0019965192768722773,
        "873": -0.014258099719882011,
        "874": 0.01328411977738142,
        "875": 0.0015423937002196908,
        "876": 0.018496578559279442,
        "877": -0.0017420966178178787,
        "878": 0.01860336773097515,
        "879": 0.015669411048293114,
        "880": 0.00994421448558569,
        "881": 0.004559533670544624,
        "882": -0.020328715443611145,
        "883": 0.0016889139078557491,
        "884": 0.009173222817480564,
        "885": 0.0012659395579248667,
        "886": 0.013111118227243423,
        "887": 0.007723728194832802,
        "888": 0.023476336151361465,
        "889": -0.0028479357715696096,
        "890": -0.010673324577510357,
        "891": 0.013568739406764507,
        "892": 0.00639074994251132,
        "893": 0.008477036841213703,
        "894": -0.00588582968339324,
        "895": 0.009569529443979263,
        "896": 0.014672686345875263,
        "897": 0.00829840637743473,
        "898": 0.004780244547873735,
        "899": -0.005815709475427866,
        "900": -0.009779463522136211,
        "901": 0.0045628673397004604,
        "902": 0.010918837040662766,
        "903": -0.011349167674779892,
        "904": -0.014188218861818314,
        "905": -0.012025658041238785,
        "906": -0.01134312804788351,
        "907": -0.0060297176241874695,
        "908": 0.009150366298854351,
        "909": -0.0017442479729652405,
        "910": -0.021185824647545815,
        "911": 0.008857956156134605,
        "912": 0.00019041728228330612,
        "913": 0.0032188398763537407,
        "914": 0.004536099266260862,
        "915": 0.011954973451793194,
        "916": 0.02753494866192341,
        "917": 0.011686533689498901,
        "918": 0.02801397815346718,
        "919": 0.008671940304338932,
        "920": 0.015013962052762508,
        "921": -0.003143010661005974,
        "922": -0.013579216785728931,
        "923": -0.007555369287729263,
        "924": -0.001206615474075079,
        "925": 0.013138029724359512,
        "926": -0.011263231746852398,
        "927": -0.013442655093967915,
        "928": -0.006290631368756294,
        "929": 0.0025289845652878284,
        "930": -0.0027692224830389023,
        "931": -0.002173356246203184,
        "932": 0.005499820224940777,
        "933": 0.00017248935182578862,
        "934": -0.005910859908908606,
        "935": -0.004922870080918074,
        "936": -0.010747706517577171,
        "937": -0.001877334900200367,
        "938": 0.010884124785661697,
        "939": 0.011436501517891884,
        "940": 0.030613724142313004,
        "941": 0.02272820472717285,
        "942": 0.00767510524019599,
        "943": 0.01576513610780239,
        "944": -0.025162067264318466,
        "945": -0.011928134597837925,
        "946": 0.011879519559442997,
        "947": -0.0019110532011836767,
        "948": 0.01257921103388071,
        "949": 0.005381917580962181,
        "950": 0.01612985134124756,
        "951": 0.0038174819201231003,
        "952": 0.006162762641906738,
        "953": 0.010652274824678898,
        "954": -0.004671244882047176,
        "955": 0.012074743397533894,
        "956": 0.00265472661703825,
        "957": 0.011729434132575989,
        "958": 0.025361420586705208,
        "959": 0.005302296485751867,
        "960": 0.0017595187528058887,
        "961": -0.0008627662318758667,
        "962": 0.011997770518064499,
        "963": 0.027603279799222946,
        "964": 0.004094457719475031,
        "965": 0.0005740862106904387,
        "966": -0.009619961492717266,
        "967": -0.008639799430966377,
        "968": -0.017349345609545708,
        "969": -0.016148285940289497,
        "970": -0.009016997180879116,
        "971": -0.012505611404776573,
        "972": -0.01698135770857334,
        "973": -0.025034276768565178,
        "974": -0.024226002395153046,
        "975": -0.006739603355526924,
        "976": 0.009022767655551434,
        "977": 0.03243807330727577,
        "978": -0.00516860606148839,
        "979": 0.006182542070746422,
        "980": 0.008986549451947212,
        "981": 0.005391261540353298,
        "982": -0.004092921502888203,
        "983": 0.012815245427191257,
        "984": 0.004949196241796017,
        "985": -0.0032731553073972464,
        "986": 0.0029200410936027765,
        "987": -0.011229761876165867,
        "988": -0.004597995430231094,
        "989": 0.004960500635206699,
        "990": -0.03425464406609535,
        "991": -0.0067595504224300385,
        "992": -0.003698282642289996,
        "993": -0.02595984749495983,
        "994": -0.013903324492275715,
        "995": -0.017191698774695396,
        "996": -0.01988067477941513,
        "997": -0.020317038521170616,
        "998": -0.01752547174692154,
        "999": -0.025886574760079384,
        "1000": 0.01646215096116066,
        "1001": 0.0046991389244794846,
        "1002": -0.0033669390249997377,
        "1003": -0.015699097886681557,
        "1004": -0.009430012665688992,
        "1005": -0.007876708172261715,
        "1006": -0.006737268529832363,
        "1007": -0.008996870368719101,
        "1008": 0.005460432264953852,
        "1009": -0.016500620171427727,
        "1010": -0.0011068758321925998,
        "1011": 0.00695739034563303,
        "1012": -0.0005882003461010754,
        "1013": 0.019555119797587395,
        "1014": -0.01781628467142582,
        "1015": 0.028400953859090805,
        "1016": 0.022860301658511162,
        "1017": -0.005991213954985142,
        "1018": -0.009777209721505642,
        "1019": -0.0046929181553423405,
        "1020": -0.00849815085530281,
        "1021": -0.009754996746778488,
        "1022": 0.0012651789002120495,
        "1023": -0.02476631850004196,
        "1024": -0.02062733843922615,
        "1025": 0.00313684344291687,
        "1026": -0.016131451353430748,
        "1027": -0.010580901056528091,
        "1028": 0.0006842134753242135,
        "1029": 0.009250489994883537,
        "1030": -0.013529902324080467,
        "1031": -0.013014748692512512,
        "1032": -0.0038241385482251644,
        "1033": 0.0021536084823310375,
        "1034": 0.007413272745907307,
        "1035": -0.007732301950454712,
        "1036": -0.012807680293917656,
        "1037": 0.008966976776719093,
        "1038": -0.011618953198194504,
        "1039": 0.024695683270692825,
        "1040": 0.0051427483558654785,
        "1041": -0.02147763781249523,
        "1042": -0.013937861658632755,
        "1043": 0.0004637023084796965,
        "1044": 0.007435847073793411,
        "1045": -0.005861567799001932,
        "1046": -0.0030906277243047953,
        "1047": 0.011011465452611446,
        "1048": 0.0007637476664967835,
        "1049": 0.01377805694937706,
        "1050": -0.016216395422816277,
        "1051": -0.013816296122968197,
        "1052": 0.0028357768896967173,
        "1053": 0.010170395486056805,
        "1054": 0.0018538228468969464,
        "1055": -0.0035496572963893414,
        "1056": 0.01747218891978264,
        "1057": 0.016712309792637825,
        "1058": 0.01797531358897686,
        "1059": -0.010832885280251503,
        "1060": -0.011298658326268196,
        "1061": 0.013207525946199894,
        "1062": 0.0021649193949997425,
        "1063": -0.011525899171829224,
        "1064": -0.0054037016816437244,
        "1065": 0.017212385311722755,
        "1066": -0.004768994636833668,
        "1067": 0.005511102732270956,
        "1068": 0.003965466283261776,
        "1069": -0.006635779980570078,
        "1070": -0.00830932054668665,
        "1071": 0.00717307860031724,
        "1072": -0.007833532057702541,
        "1073": 0.005050777457654476,
        "1074": 0.006742605473846197,
        "1075": -0.013090329244732857,
        "1076": -0.015283158980309963,
        "1077": 0.008847297169268131,
        "1078": 0.0015857010148465633,
        "1079": 0.01288513746112585,
        "1080": 0.005858379881829023,
        "1081": 0.005949580110609531,
        "1082": 0.0204570684581995,
        "1083": 0.027705948799848557,
        "1084": -0.001865579979494214,
        "1085": -0.007333177141845226,
        "1086": 0.00819984171539545,
        "1087": -0.005276201758533716,
        "1088": -0.01604282855987549,
        "1089": 0.0037075087893754244,
        "1090": 0.004220963455736637,
        "1091": 0.0048879338428378105,
        "1092": 0.012430138885974884,
        "1093": -0.0009839751292020082,
        "1094": -0.009157463908195496,
        "1095": 0.015069504268467426,
        "1096": 0.01078731007874012,
        "1097": -0.010461635887622833,
        "1098": -0.004429826512932777,
        "1099": -0.009707914665341377,
        "1100": 0.002876472193747759,
        "1101": 0.011057080700993538,
        "1102": 0.0038607814349234104,
        "1103": -0.00016223419515881687,
        "1104": 0.00010420817125122994,
        "1105": 0.0071295639500021935,
        "1106": 0.028734788298606873,
        "1107": -0.00524460943415761,
        "1108": 0.02110927179455757,
        "1109": 0.0045896004885435104,
        "1110": -0.025572260841727257,
        "1111": 0.006763983052223921,
        "1112": -0.014753785915672779,
        "1113": 0.008556238375604153,
        "1114": -0.0031342003494501114,
        "1115": -0.013539322651922703,
        "1116": -0.0109560526907444,
        "1117": 0.007177571766078472,
        "1118": -0.006160121411085129,
        "1119": 0.007222488056868315,
        "1120": -0.009430005215108395,
        "1121": 0.006988014560192823,
        "1122": -0.00972859188914299,
        "1123": 0.0035099664237350225,
        "1124": 0.010609167627990246,
        "1125": -0.015275743789970875,
        "1126": -0.009743199683725834,
        "1127": -0.01134611014276743,
        "1128": -0.002455003559589386,
        "1129": 0.010552216321229935,
        "1130": 0.01475223246961832,
        "1131": 0.004281363449990749,
        "1132": 0.016841277480125427,
        "1133": 0.01736631616950035,
        "1134": 0.015981310978531837,
        "1135": 0.003361943643540144,
        "1136": -0.01606713980436325,
        "1137": 0.007013601716607809,
        "1138": -0.0015638015465810895,
        "1139": -0.008645185269415379,
        "1140": 0.00819685123860836,
        "1141": -0.011237883009016514,
        "1142": -0.00007945423567434773,
        "1143": -0.017648890614509583,
        "1144": 0.007258751895278692,
        "1145": 0.004759177565574646,
        "1146": -0.014531907625496387,
        "1147": 0.01694810949265957,
        "1148": -0.012488705106079578,
        "1149": 0.007679388392716646,
        "1150": -0.002005054382607341,
        "1151": -0.029096974059939384,
        "1152": 0.010096859186887741,
        "1153": -0.005927500315010548,
        "1154": 0.003001817734912038,
        "1155": 0.003048071637749672,
        "1156": 0.02338111400604248,
        "1157": 0.008734200149774551,
        "1158": -0.019361188635230064,
        "1159": -0.012846352532505989,
        "1160": 0.0036734461318701506,
        "1161": -0.014881826937198639,
        "1162": -0.008691083639860153,
        "1163": -0.00728948786854744,
        "1164": -0.0026617273688316345,
        "1165": 0.0042812032625079155,
        "1166": -0.022460147738456726,
        "1167": -0.02035100944340229,
        "1168": 0.019108951091766357,
        "1169": 0.0115230493247509,
        "1170": -0.007958171889185905,
        "1171": -0.01548109482973814,
        "1172": -0.0008005148265510798,
        "1173": 0.007064849603921175,
        "1174": 0.007463105022907257,
        "1175": 0.002805643482133746,
        "1176": 0.004155562724918127,
        "1177": -0.0014478989178314805,
        "1178": 0.00255411583930254,
        "1179": 0.004742289427667856,
        "1180": -0.011724560521543026,
        "1181": -0.014285952784121037,
        "1182": -0.007482558023184538,
        "1183": 0.018282731994986534,
        "1184": -0.0015851681819185615,
        "1185": -0.01671752892434597,
        "1186": -0.025268685072660446,
        "1187": -0.01539183035492897,
        "1188": -0.0042850119061768055,
        "1189": -0.00394864147529006,
        "1190": 0.008663608692586422,
        "1191": 0.021055907011032104,
        "1192": 0.00836622528731823,
        "1193": -0.004879693500697613,
        "1194": 0.011231738142669201,
        "1195": 0.008230715058743954,
        "1196": 0.0034669863525778055,
        "1197": -0.005680205300450325,
        "1198": -0.004504909738898277,
        "1199": 0.0003649691352620721,
        "1200": 0.009569373913109303,
        "1201": -0.013090607710182667,
        "1202": 0.019911015406250954,
        "1203": -0.004520924296230078,
        "1204": -0.001315664267167449,
        "1205": -0.0021319007501006126,
        "1206": -0.012141360901296139,
        "1207": 0.015863560140132904,
        "1208": -0.003239084966480732,
        "1209": -0.006989835295826197,
        "1210": -0.0028603882528841496,
        "1211": 0.01563064195215702,
        "1212": -0.0001770281232893467,
        "1213": -0.0038588172756135464,
        "1214": 0.0038919260259717703,
        "1215": 0.004754180088639259,
        "1216": 0.008279801346361637,
        "1217": -0.0019480913178995252,
        "1218": -0.0022422531619668007,
        "1219": 0.01573074422776699,
        "1220": -0.025974085554480553,
        "1221": -0.0037362873554229736,
        "1222": -0.01873209699988365,
        "1223": -0.007054778281599283,
        "1224": -0.004383153282105923,
        "1225": 0.01233834307640791,
        "1226": -0.006896836217492819,
        "1227": 0.002161446027457714,
        "1228": -0.011859655380249023,
        "1229": -0.002743154764175415,
        "1230": 0.0006524075288325548,
        "1231": 0.003398929024115205,
        "1232": -0.005096700042486191,
        "1233": 0.012699777260422707,
        "1234": -0.00035275466507300735,
        "1235": -0.01961125247180462,
        "1236": 0.010544911026954651,
        "1237": 0.005618718918412924,
        "1238": 0.0022984007373452187,
        "1239": 0.0047352672554552555,
        "1240": -0.0045754872262477875,
        "1241": 0.002196222310885787,
        "1242": 0.013890142552554607,
        "1243": 0.009098745882511139,
        "1244": 0.0021585263311862946,
        "1245": 0.004884967114776373,
        "1246": 0.005080128088593483,
        "1247": -0.0025236017536371946,
        "1248": 0.003483286825940013,
        "1249": -0.011170880869030952,
        "1250": -0.017565440386533737,
        "1251": 0.0028828533831983805,
        "1252": -0.006808435544371605,
        "1253": 0.00929458998143673,
        "1254": 0.001564166508615017,
        "1255": 0.012352780438959599,
        "1256": -0.003522340441122651,
        "1257": 0.0033815051428973675,
        "1258": -0.01108553260564804,
        "1259": 0.0017743927892297506,
        "1260": -0.005834519397467375,
        "1261": 0.00765752699226141,
        "1262": 0.001281701261177659,
        "1263": 0.004407273139804602,
        "1264": -0.009455353021621704,
        "1265": 0.0019487683894112706,
        "1266": -0.010614522732794285,
        "1267": 0.007122619077563286,
        "1268": 0.006246551405638456,
        "1269": -0.005222155712544918,
        "1270": 0.0048991357907652855,
        "1271": -0.019660010933876038,
        "1272": -0.007882177829742432,
        "1273": -0.01433896366506815,
        "1274": -0.014236471615731716,
        "1275": -0.02396381087601185,
        "1276": -0.008202916942536831,
        "1277": -0.010019617155194283,
        "1278": 0.02357538603246212,
        "1279": -0.022525761276483536,
        "1280": -0.0076752398163080215,
        "1281": 0.019652532413601875,
        "1282": 0.010738151147961617,
        "1283": -0.003156900405883789,
        "1284": -0.003409435972571373,
        "1285": 0.009577034041285515,
        "1286": -0.0054823365062475204,
        "1287": -0.0063978563994169235,
        "1288": -0.003666442818939686,
        "1289": 0.019572101533412933,
        "1290": 0.007364664226770401,
        "1291": -0.018689852207899094,
        "1292": 0.0005127137992531061,
        "1293": 0.012095675803720951,
        "1294": 0.0007343676406890154,
        "1295": 0.0077844723127782345,
        "1296": 0.011213337071239948,
        "1297": 0.003993666730821133,
        "1298": 0.009375509805977345,
        "1299": -0.021543003618717194,
        "1300": -0.008415071293711662,
        "1301": 0.0023562361020594835,
        "1302": 0.007522360887378454,
        "1303": -0.0036869391333311796,
        "1304": 0.015496468171477318,
        "1305": 0.016473598778247833,
        "1306": 0.012024294584989548,
        "1307": 0.0049459729343652725,
        "1308": 0.0045186597853899,
        "1309": 0.010300498455762863,
        "1310": -0.002000636886805296,
        "1311": -0.0074136145412921906,
        "1312": 0.017297586426138878,
        "1313": -0.0033615422435104847,
        "1314": 0.021211698651313782,
        "1315": -0.009749344550073147,
        "1316": 0.009292982518672943,
        "1317": -0.0020292801782488823,
        "1318": 0.0009675309993326664,
        "1319": -0.011822443455457687,
        "1320": 0.006156973075121641,
        "1321": 0.003037952119484544,
        "1322": -0.0018612616695463657,
        "1323": -0.024248020723462105,
        "1324": 0.004727187100797892,
        "1325": 0.0028293307404965162,
        "1326": 0.009644798934459686,
        "1327": 0.016634369269013405,
        "1328": 0.010371641255915165,
        "1329": 0.006197996903210878,
        "1330": 0.0008527844911441207,
        "1331": 0.009734995663166046,
        "1332": -0.003927423618733883,
        "1333": 0.011136310175061226,
        "1334": 0.022874992340803146,
        "1335": 0.02335667610168457,
        "1336": -0.002716127783060074,
        "1337": -0.0055490643717348576,
        "1338": 0.009124837815761566,
        "1339": -0.010916518047451973,
        "1340": 0.0026872840244323015,
        "1341": 0.004881448112428188,
        "1342": -0.009629705920815468,
        "1343": -0.015463979914784431,
        "1344": -0.02499333955347538,
        "1345": -0.02214038372039795,
        "1346": 0.0009006471373140812,
        "1347": 0.0066696288995444775,
        "1348": 0.005074505228549242,
        "1349": -0.009185956791043282,
        "1350": 0.013761035166680813,
        "1351": 0.0037726000882685184,
        "1352": 0.006829345133155584,
        "1353": 0.014267504215240479,
        "1354": 0.0010987025452777743,
        "1355": 0.00626714900135994,
        "1356": 0.031734514981508255,
        "1357": 0.018227456137537956,
        "1358": 0.013366001658141613,
        "1359": 0.012696418911218643,
        "1360": -0.0006555409636348486,
        "1361": 0.0029961916152387857,
        "1362": -0.009378413669764996,
        "1363": -0.024103205651044846,
        "1364": -0.004846661351621151,
        "1365": -0.02353311888873577,
        "1366": -0.0037592959124594927,
        "1367": 0.0017307065427303314,
        "1368": 0.003622143529355526,
        "1369": 0.0006330800242722034,
        "1370": 0.013998813927173615,
        "1371": 0.005030130967497826,
        "1372": 0.0024487951304763556,
        "1373": -0.020720545202493668,
        "1374": -0.015889646485447884,
        "1375": -0.011831619776785374,
        "1376": -0.003823017468675971,
        "1377": 0.02147034928202629,
        "1378": 0.00731856282800436,
        "1379": 0.020137347280979156,
        "1380": -0.0016943052178248763,
        "1381": -0.007259002886712551,
        "1382": -0.017356116324663162,
        "1383": 0.00042824531556107104,
        "1384": -0.015241635031998158,
        "1385": 0.0033605850767344236,
        "1386": -0.007794368080794811,
        "1387": 0.0015636448515579104,
        "1388": -0.00977425929158926,
        "1389": -0.007426287513226271,
        "1390": 0.0019135570619255304,
        "1391": 0.012006523087620735,
        "1392": -0.0049625965766608715,
        "1393": -0.0032511388417333364,
        "1394": -0.006874800194054842,
        "1395": -0.021764151751995087,
        "1396": -0.0056171175092458725,
        "1397": -0.007031823508441448,
        "1398": -0.013414457440376282,
        "1399": 0.01740375906229019,
        "1400": 0.01607365533709526,
        "1401": 0.014942904002964497,
        "1402": -0.0002573801903054118,
        "1403": 0.006974490359425545,
        "1404": -0.007266940549015999,
        "1405": -0.0030642198398709297,
        "1406": -0.004061530344188213,
        "1407": -0.009492755867540836,
        "1408": -0.004056810867041349,
        "1409": -0.002413820708170533,
        "1410": -0.01378864236176014,
        "1411": -0.004105295054614544,
        "1412": -0.016611363738775253,
        "1413": 0.004366239067167044,
        "1414": 0.01646445319056511,
        "1415": -0.007988899946212769,
        "1416": 0.020872294902801514,
        "1417": 0.01678445376455784,
        "1418": -0.010431637987494469,
        "1419": 0.00765053927898407,
        "1420": -0.0022059485781937838,
        "1421": -0.006659454666078091,
        "1422": 0.006814655382186174,
        "1423": 0.019308999180793762,
        "1424": 0.01486576534807682,
        "1425": -0.004888623952865601,
        "1426": 0.006965243257582188,
        "1427": -0.0029560981784015894,
        "1428": -0.010205244645476341,
        "1429": -0.0054131015203893185,
        "1430": -0.00641981977969408,
        "1431": 0.014061808586120605,
        "1432": 0.014752723276615143,
        "1433": -0.009905108250677586,
        "1434": -0.0064160474576056,
        "1435": 0.004259197972714901,
        "1436": -0.0091794328764081,
        "1437": -0.003353480249643326,
        "1438": -0.0020842452067881823,
        "1439": 0.004278012551367283,
        "1440": -0.009680931456387043,
        "1441": 0.012111994437873363,
        "1442": -0.01788155362010002,
        "1443": 0.0018503451719880104,
        "1444": -0.006649399176239967,
        "1445": -0.002509781625121832,
        "1446": -0.003616043832153082,
        "1447": -0.0017316811718046665,
        "1448": -0.0017026797868311405,
        "1449": -0.007273293565958738,
        "1450": 0.0057671889662742615,
        "1451": 0.010883874259889126,
        "1452": 0.020121650770306587,
        "1453": 0.004994941875338554,
        "1454": 0.013925272971391678,
        "1455": -0.0036619780585169792,
        "1456": -0.0037691546604037285,
        "1457": -0.005457505118101835,
        "1458": 0.0017101564444601536,
        "1459": 0.016506189480423927,
        "1460": 0.004914114251732826,
        "1461": -0.0032438766211271286,
        "1462": 0.013342400081455708,
        "1463": 0.021216776221990585,
        "1464": 0.000502119364682585,
        "1465": 0.016471626237034798,
        "1466": 0.00733307795599103,
        "1467": 0.012845762073993683,
        "1468": -0.0022563678212463856,
        "1469": -0.012013614177703857,
        "1470": -0.0009573674760758877,
        "1471": 0.019279608502984047,
        "1472": 0.022062895819544792,
        "1473": 0.00801550317555666,
        "1474": 0.005832534749060869,
        "1475": -0.004286132752895355,
        "1476": 0.0005457545048557222,
        "1477": 0.004059622064232826,
        "1478": 0.00428280932828784,
        "1479": -0.005588490515947342,
        "1480": -0.007452104240655899,
        "1481": -0.0064536468125879765,
        "1482": -0.006504068151116371,
        "1483": 0.005419718101620674,
        "1484": -0.0011696929577738047,
        "1485": -0.00646959338337183,
        "1486": 0.027051884680986404,
        "1487": -0.005187553819268942,
        "1488": 0.005088228266686201,
        "1489": 0.005985247436910868,
        "1490": 0.01744667999446392,
        "1491": -0.007203762885183096,
        "1492": -0.011782374233007431,
        "1493": -0.006374319549649954,
        "1494": -0.004908653441816568,
        "1495": -0.00840877927839756,
        "1496": 0.0033331350423395634,
        "1497": -0.00012751162284985185,
        "1498": 0.015890002250671387,
        "1499": -0.016834598034620285,
        "1500": -0.011652786284685135,
        "1501": -0.007171541918069124,
        "1502": -0.01977006532251835,
        "1503": 0.00742116617038846,
        "1504": 0.002134386682882905,
        "1505": -0.0021328565198928118,
        "1506": -0.009126088581979275,
        "1507": -0.01667027920484543,
        "1508": -0.006967655848711729,
        "1509": -0.015233386307954788,
        "1510": -0.027686454355716705,
        "1511": -0.003022061660885811,
        "1512": -0.0001987104187719524,
        "1513": -0.007124640047550201,
        "1514": -0.0009309196611866355,
        "1515": -0.025625595822930336,
        "1516": 0.007113640196621418,
        "1517": -0.01387634128332138,
        "1518": -0.0036397352814674377,
        "1519": 0.013869835995137691,
        "1520": -0.014490805566310883,
        "1521": -0.025627771392464638,
        "1522": 0.0018645627424120903,
        "1523": -0.0058398498222231865,
        "1524": -0.0038130530156195164,
        "1525": -0.006298519670963287,
        "1526": 0.000025465880753472447,
        "1527": 0.006746408063918352,
        "1528": 0.013993868604302406,
        "1529": 0.010597490705549717,
        "1530": -0.015589781105518341,
        "1531": -0.00603116862475872,
        "1532": -0.012376976199448109,
        "1533": -0.011399365030229092,
        "1534": 0.00237059174105525,
        "1535": 0.01462798472493887,
        "1536": -0.011996307410299778,
        "1537": 0.0024891411885619164,
        "1538": 0.008531761355698109,
        "1539": 0.008942446671426296,
        "1540": 0.003487692214548588,
        "1541": 0.0009808932663872838,
        "1542": 0.004043252673000097,
        "1543": -0.013764449395239353,
        "1544": 0.004611424636095762,
        "1545": -0.010838469490408897,
        "1546": 0.007471360266208649,
        "1547": 0.006183850113302469,
        "1548": 0.0006848454941064119,
        "1549": -0.0015500672161579132,
        "1550": 0.0034868125803768635,
        "1551": 0.013577507808804512,
        "1552": 0.009102893061935902,
        "1553": -0.008349155075848103,
        "1554": -0.021764691919088364,
        "1555": -0.007684103213250637,
        "1556": 0.011501841247081757,
        "1557": -0.0030915401875972748,
        "1558": 0.008846568875014782,
        "1559": -0.0018972723046317697,
        "1560": 0.009858131408691406,
        "1561": 0.0005070696352049708,
        "1562": 0.018746305257081985,
        "1563": 0.030285747721791267,
        "1564": -0.006789872422814369,
        "1565": 0.010928608477115631,
        "1566": 0.006674152798950672,
        "1567": -0.003159088548272848,
        "1568": 0.003338440554216504,
        "1569": -0.0068945749662816525,
        "1570": 0.022123748436570168,
        "1571": 0.006019271910190582,
        "1572": 0.010535229928791523,
        "1573": 0.007195856422185898,
        "1574": -0.01889069750905037,
        "1575": 0.006189505569636822,
        "1576": 0.00900164432823658,
        "1577": 0.0029652598313987255,
        "1578": -0.014019482769072056,
        "1579": -0.0010404237546026707,
        "1580": 0.01555564720183611,
        "1581": 0.010394241660833359,
        "1582": -0.007732711732387543,
        "1583": 0.01460770983248949,
        "1584": 0.002850307384505868,
        "1585": 0.017422065138816833,
        "1586": 0.002154907211661339,
        "1587": 0.020293066278100014,
        "1588": 0.007481367327272892,
        "1589": 0.017731860280036926,
        "1590": 0.012650982476770878,
        "1591": -0.010150960646569729,
        "1592": 0.003287733532488346,
        "1593": -0.006933136843144894,
        "1594": 0.011279656551778316,
        "1595": 0.008956003934144974,
        "1596": 0.008147543296217918,
        "1597": -0.016260182484984398,
        "1598": -0.01578441448509693,
        "1599": -0.01467656809836626,
        "1600": 0.018771685659885406,
        "1601": 0.0030365546699613333,
        "1602": -0.006044697016477585,
        "1603": 0.015372686088085175,
        "1604": 0.0002167289494536817,
        "1605": 0.012690652161836624,
        "1606": 0.003970608115196228,
        "1607": 0.0045921155251562595,
        "1608": -0.015436588786542416,
        "1609": -0.0031581830698996782,
        "1610": -0.004384033381938934,
        "1611": 0.026502855122089386,
        "1612": 0.012623350135982037,
        "1613": 0.0062121241353452206,
        "1614": -0.003451729891821742,
        "1615": 0.010760749690234661,
        "1616": 0.02152649313211441,
        "1617": 0.002864360110834241,
        "1618": -0.0007853669812902808,
        "1619": 0.014594534412026405,
        "1620": 0.0067445700988173485,
        "1621": 0.012567891739308834,
        "1622": 0.02526763454079628,
        "1623": 0.0012817390961572528,
        "1624": 0.0012723233085125685,
        "1625": 0.009052936919033527,
        "1626": 0.013919121585786343,
        "1627": 0.010896602645516396,
        "1628": 0.026377340778708458,
        "1629": -0.011383980512619019,
        "1630": -0.013332757167518139,
        "1631": -0.019558539614081383,
        "1632": -0.00014156859833747149,
        "1633": 0.01273574959486723,
        "1634": -0.004674219060689211,
        "1635": 0.031904496252536774,
        "1636": 0.021560415625572205,
        "1637": 0.02047795243561268,
        "1638": -0.004518220666795969,
        "1639": -0.01627240888774395,
        "1640": 0.012917006388306618,
        "1641": 0.010477309115231037,
        "1642": 0.0018500605365261436,
        "1643": -0.004328506998717785,
        "1644": -0.019429530948400497,
        "1645": -0.010738152079284191,
        "1646": 0.008214236237108707,
        "1647": -0.008275477215647697,
        "1648": -0.00859895907342434,
        "1649": -0.022593429312109947,
        "1650": 0.014875519089400768,
        "1651": -0.0059552183374762535,
        "1652": -0.0034534840378910303,
        "1653": -0.016300028190016747,
        "1654": -0.013629501685500145,
        "1655": 0.01339010614901781,
        "1656": 0.008889857679605484,
        "1657": -0.008937123231589794,
        "1658": 0.006867943797260523,
        "1659": 0.004837782122194767,
        "1660": 0.007959389127790928,
        "1661": 0.008351477794349194,
        "1662": -0.0010995259508490562,
        "1663": 0.02632712572813034,
        "1664": -0.0005219807499088347,
        "1665": -0.0009741174289956689,
        "1666": -0.004084213636815548,
        "1667": -0.009185589849948883,
        "1668": -0.019108617678284645,
        "1669": 0.001104082097299397,
        "1670": 0.003690691664814949,
        "1671": -0.01022874191403389,
        "1672": 0.019638877362012863,
        "1673": 0.003431797493249178,
        "1674": -0.0012740675592795014,
        "1675": 0.0005508172907866538,
        "1676": 0.0012058248976245522,
        "1677": 0.007888959720730782,
        "1678": 0.014062297530472279,
        "1679": 0.0029220785945653915,
        "1680": -0.0080572459846735,
        "1681": 0.004643307998776436,
        "1682": 0.006865780800580978,
        "1683": -0.0003866274782922119,
        "1684": -0.004099191632121801,
        "1685": 0.0023510504979640245,
        "1686": 0.0030018186662346125,
        "1687": 0.0058855111710727215,
        "1688": -0.008147813379764557,
        "1689": 0.017471447587013245,
        "1690": -0.0013814958510920405,
        "1691": 0.009002219885587692,
        "1692": 0.011008410714566708,
        "1693": -0.0031333258375525475,
        "1694": 0.004712230525910854,
        "1695": 0.01979687251150608,
        "1696": -0.0009654214954935014,
        "1697": -0.01076511014252901,
        "1698": 0.005341346375644207,
        "1699": -0.0023308845702558756,
        "1700": 0.01955540105700493,
        "1701": 0.010586835443973541,
        "1702": 0.005009701941162348,
        "1703": 0.02373293973505497,
        "1704": -0.004579679574817419,
        "1705": 0.011588318273425102,
        "1706": 0.005397322122007608,
        "1707": 0.01611192710697651,
        "1708": 0.014892312698066235,
        "1709": 0.004857326857745647,
        "1710": -0.0014229028020054102,
        "1711": -0.020559798926115036,
        "1712": 0.010974080301821232,
        "1713": 0.006386905908584595,
        "1714": -0.004817909095436335,
        "1715": -0.0012433233205229044,
        "1716": 0.005016737151890993,
        "1717": -0.027300918474793434,
        "1718": -0.0026910773012787104,
        "1719": -0.00234310538507998,
        "1720": -0.00990784727036953,
        "1721": -0.020727306604385376,
        "1722": -0.0007121145608834922,
        "1723": 0.018830733373761177,
        "1724": -0.0006559263565577567,
        "1725": -0.013760226778686047,
        "1726": -0.0020641619339585304,
        "1727": -0.020563732832670212,
        "1728": -0.014382578432559967,
        "1729": 0.010793494060635567,
        "1730": -0.0010455935262143612,
        "1731": 0.007040084805339575,
        "1732": 0.014609117992222309,
        "1733": -0.014386186376214027,
        "1734": 0.009618918411433697,
        "1735": 0.013026682659983635,
        "1736": -0.0049408115446567535,
        "1737": 0.0017206817865371704,
        "1738": 0.02432362549006939,
        "1739": -0.002209891565144062,
        "1740": 0.0053569781593978405,
        "1741": -0.0014926212606951594,
        "1742": 0.01911172643303871,
        "1743": 0.005384726915508509,
        "1744": 0.006602653302252293,
        "1745": 0.004872696474194527,
        "1746": -0.008019796572625637,
        "1747": -0.009937778115272522,
        "1748": 0.006249312311410904,
        "1749": 0.009291662834584713,
        "1750": -0.004277998581528664,
        "1751": -0.003805691609159112,
        "1752": 0.019063636660575867,
        "1753": -0.013578114099800587,
        "1754": 0.0011777837062254548,
        "1755": -0.01085212454199791,
        "1756": -0.011814204044640064,
        "1757": 0.012309645302593708,
        "1758": -0.011111810803413391,
        "1759": -0.0047369664534926414,
        "1760": 0.014605879783630371,
        "1761": 0.01307642925530672,
        "1762": 0.008172977715730667,
        "1763": -0.014063529670238495,
        "1764": -0.0022805805783718824,
        "1765": 0.024949872866272926,
        "1766": -0.0027668369002640247,
        "1767": 0.0007078541675582528,
        "1768": -0.0015431849751621485,
        "1769": -0.005597877316176891,
        "1770": 0.017220284789800644,
        "1771": -0.0020777161698788404,
        "1772": -0.012966199778020382,
        "1773": -0.0200821440666914,
        "1774": 0.004891964141279459,
        "1775": 0.0042761946097016335,
        "1776": -0.0017976697999984026,
        "1777": 0.011173034086823463,
        "1778": 0.015184739604592323,
        "1779": 0.007515253033488989,
        "1780": -0.0068207127042114735,
        "1781": -0.010383587330579758,
        "1782": 0.021794544532895088,
        "1783": 0.033138249069452286,
        "1784": 0.007556197699159384,
        "1785": 0.029879314824938774,
        "1786": 0.011180012486875057,
        "1787": -0.005771314259618521,
        "1788": 0.005983036942780018,
        "1789": -0.014362126588821411,
        "1790": -0.0034645749256014824,
        "1791": 0.010109661146998405,
        "1792": 0.0052145980298519135,
        "1793": 0.005609511863440275,
        "1794": 0.028711048886179924,
        "1795": -0.0014700391329824924,
        "1796": -0.011302920989692211,
        "1797": -0.012238460592925549,
        "1798": -0.01752403937280178,
        "1799": -0.023704329505562782,
        "1800": -0.0038641716819256544,
        "1801": -0.01395704597234726,
        "1802": -0.00397945661097765,
        "1803": 0.007178806699812412,
        "1804": 0.01744730956852436,
        "1805": 0.011875907890498638,
        "1806": 0.009471756406128407,
        "1807": 0.038467537611722946,
        "1808": 0.006658908911049366,
        "1809": 0.0028358735144138336,
        "1810": 0.005575946532189846,
        "1811": 0.008656279183924198,
        "1812": 0.007086246274411678,
        "1813": 0.01984424702823162,
        "1814": -0.0073736985214054585,
        "1815": -0.004569364711642265,
        "1816": 0.013975142501294613,
        "1817": 0.00038676848635077477,
        "1818": -0.003470773110166192,
        "1819": 0.017675304785370827,
        "1820": 0.008527248166501522,
        "1821": 0.010597743093967438,
        "1822": 0.009975491091609001,
        "1823": -0.007570807356387377,
        "1824": 0.004625305067747831,
        "1825": -0.021844137459993362,
        "1826": 0.008966976776719093,
        "1827": -0.007781906519085169,
        "1828": -0.001785813830792904,
        "1829": -0.0006992875714786351,
        "1830": -0.012789340689778328,
        "1831": 0.006004159804433584,
        "1832": 0.01595201902091503,
        "1833": -0.0038466984406113625,
        "1834": 0.011037913151085377,
        "1835": 0.0010478595504537225,
        "1836": -0.003290207125246525,
        "1837": 0.005474841687828302,
        "1838": 0.021426429972052574,
        "1839": -0.010607810690999031,
        "1840": 0.0010417583398520947,
        "1841": -0.010126509703695774,
        "1842": 0.007700711954385042,
        "1843": 0.020206471905112267,
        "1844": 0.014678054489195347,
        "1845": 0.010509351268410683,
        "1846": -0.02193821780383587,
        "1847": -0.003904365235939622,
        "1848": 0.023625392466783524,
        "1849": -0.009638326242566109,
        "1850": 0.00018583415658213198,
        "1851": 0.017764007672667503,
        "1852": -0.00294897030107677,
        "1853": 0.017516328021883965,
        "1854": 0.005154681857675314,
        "1855": 0.026317382231354713,
        "1856": -0.0022008465602993965,
        "1857": -0.0064196037128567696,
        "1858": 0.0034221394453197718,
        "1859": 0.003578953677788377,
        "1860": 0.0005444976850412786,
        "1861": 0.0011400949442759156,
        "1862": 0.003039265749976039,
        "1863": 0.008423256687819958,
        "1864": 0.01056832168251276,
        "1865": 0.009175176732242107,
        "1866": 0.009827863425016403,
        "1867": 0.007863053120672703,
        "1868": -0.016973184421658516,
        "1869": -0.006792520638555288,
        "1870": 0.01620679907500744,
        "1871": 0.024333802983164787,
        "1872": 0.01863432489335537,
        "1873": -0.005316823720932007,
        "1874": 0.001986969728022814,
        "1875": 0.007975593209266663,
        "1876": 0.026939168572425842,
        "1877": 0.0007430353434756398,
        "1878": -0.007088003680109978,
        "1879": -0.007551991380751133,
        "1880": -0.0001981035020435229,
        "1881": 0.0018740282393991947,
        "1882": -0.0024514407850801945,
        "1883": -0.009224354289472103,
        "1884": 0.009634009562432766,
        "1885": 0.004949714057147503,
        "1886": 0.004534446634352207,
        "1887": 0.021254349499940872,
        "1888": 0.019969575107097626,
        "1889": 0.008041054010391235,
        "1890": 0.007260536774992943,
        "1891": -0.01586746610701084,
        "1892": 0.005323621444404125,
        "1893": 0.017942985519766808,
        "1894": 0.015088316984474659,
        "1895": 0.0017713913694024086,
        "1896": -0.004834330175071955,
        "1897": 0.001363359740935266,
        "1898": 0.003408390562981367,
        "1899": 0.024086588993668556,
        "1900": 0.006042588502168655,
        "1901": 0.0022412778344005346,
        "1902": -0.011416800320148468,
        "1903": 0.0009403863805346191,
        "1904": 0.01953662931919098,
        "1905": -0.004713678732514381,
        "1906": -0.007453534752130508,
        "1907": -0.002046667505055666,
        "1908": 0.023961301892995834,
        "1909": 0.003314722329378128,
        "1910": 0.022245531901717186,
        "1911": 0.010329080745577812,
        "1912": -0.0038334005512297153,
        "1913": 0.004785450641065836,
        "1914": 0.009128998965024948,
        "1915": 0.007335781119763851,
        "1916": 0.004229834768921137,
        "1917": -0.002073003211989999,
        "1918": 0.004597397055476904,
        "1919": 0.01114305667579174,
        "1920": 0.01439199224114418,
        "1921": -0.004087979905307293,
        "1922": 0.008020451292395592,
        "1923": -0.009555887430906296,
        "1924": -0.0015963171608746052,
        "1925": -0.0067472499795258045,
        "1926": -0.008893061429262161,
        "1927": 0.021202394738793373,
        "1928": 0.0049405451864004135,
        "1929": 0.005726817063987255,
        "1930": 0.025129027664661407,
        "1931": 0.006271082442253828,
        "1932": 0.016727397218346596,
        "1933": -0.00975907314568758,
        "1934": -0.012252997606992722,
        "1935": 0.0010028885444626212,
        "1936": -0.015320251695811749,
        "1937": -0.006247746758162975,
        "1938": -0.005154079291969538,
        "1939": 0.022649528458714485,
        "1940": 0.013333072885870934,
        "1941": 0.0007459241314791143,
        "1942": -0.016048841178417206,
        "1943": 0.00315859355032444,
        "1944": 0.009596799500286579,
        "1945": 0.0070664724335074425,
        "1946": 0.007292369846254587,
        "1947": 0.015166823752224445,
        "1948": 0.02073913812637329,
        "1949": -0.004126739222556353,
        "1950": 0.004440068267285824,
        "1951": -0.0024783951230347157,
        "1952": -0.0008387909620068967,
        "1953": 0.002329079667106271,
        "1954": 0.0036019901745021343,
        "1955": -0.006390020251274109,
        "1956": 0.008171451278030872,
        "1957": 0.01261652447283268,
        "1958": -0.008822535164654255,
        "1959": -0.009425321593880653,
        "1960": -0.0011536107631400228,
        "1961": 0.018582290038466454,
        "1962": 0.02348950132727623,
        "1963": -0.000604393077082932,
        "1964": -0.019792810082435608,
        "1965": -0.011853912845253944,
        "1966": -0.01365215890109539,
        "1967": -0.025362597778439522,
        "1968": -0.001591109437867999,
        "1969": 0.0166127011179924,
        "1970": -0.00927161704748869,
        "1971": 0.0096838204190135,
        "1972": -0.00010837931768037379,
        "1973": 0.010859020985662937,
        "1974": 0.007116544060409069,
        "1975": 0.01229002047330141,
        "1976": -0.000363980041584,
        "1977": 0.002258292632177472,
        "1978": -0.0053033772855997086,
        "1979": 0.0027111961971968412,
        "1980": -0.0162454042583704,
        "1981": -0.006931418552994728,
        "1982": 0.012233754619956017,
        "1983": 0.005475414916872978,
        "1984": 0.00799079891294241,
        "1985": -0.023439966142177582,
        "1986": -0.010246123187243938,
        "1987": -0.00583902932703495,
        "1988": -0.00011988823825959116,
        "1989": -0.009512439370155334,
        "1990": -0.012223618105053902,
        "1991": -0.0016368911601603031,
        "1992": 0.00848651584237814,
        "1993": 0.003156267572194338,
        "1994": -0.008972451090812683,
        "1995": -0.007774774916470051,
        "1996": -0.017692871391773224,
        "1997": 0.0009300751844421029,
        "1998": 0.00047295220429077744,
        "1999": -0.03701356053352356,
        "2000": -0.02517993003129959,
        "2001": 0.004380074329674244,
        "2002": 0.002552620368078351,
        "2003": 0.001781863160431385,
        "2004": -0.00790343340486288,
        "2005": -0.007560336962342262,
        "2006": 0.009744245558977127,
        "2007": 0.009440644644200802,
        "2008": -0.005008735693991184,
        "2009": -0.015621456317603588,
        "2010": 0.001089052646420896,
        "2011": 0.005715740844607353,
        "2012": -0.003595308167859912,
        "2013": 0.001862708362750709,
        "2014": -0.00746482890099287,
        "2015": -0.022086240351200104,
        "2016": -0.01469635684043169,
        "2017": -0.017266497015953064,
        "2018": 0.009090584702789783,
        "2019": 0.0015699893701821566,
        "2020": 0.0035738167352974415,
        "2021": -0.008724024519324303,
        "2022": -0.022656241431832314,
        "2023": -0.026128673925995827,
        "2024": -0.017016828060150146,
        "2025": 0.0015258744824677706,
        "2026": 0.0038125189021229744,
        "2027": 0.019168555736541748,
        "2028": 0.009404366835951805,
        "2029": -0.01862967386841774,
        "2030": -0.005426884163171053,
        "2031": -0.01236739195883274,
        "2032": -0.014067082665860653,
        "2033": 0.004352830350399017,
        "2034": -0.0028606364503502846,
        "2035": -0.016327720135450363,
        "2036": -0.010132919065654278,
        "2037": -0.01677023060619831,
        "2038": 0.009571000933647156,
        "2039": 0.0012543154880404472,
        "2040": -0.019091304391622543,
        "2041": 0.022823331877589226,
        "2042": 0.016884813085198402,
        "2043": 0.009718718007206917,
        "2044": -0.011188149452209473,
        "2045": -0.0047324830666184425,
        "2046": -0.004707613959908485,
        "2047": -0.0011614777613431215,
        "2048": -0.0037840879522264004,
        "2049": 0.01224667951464653,
        "2050": -0.002627955749630928,
        "2051": -0.0007926335092633963,
        "2052": -0.00366936344653368,
        "2053": 0.007785179652273655,
        "2054": 0.007395249325782061,
        "2055": 0.006245675031095743,
        "2056": 0.013833575882017612,
        "2057": -0.006572674959897995,
        "2058": 0.004038538783788681,
        "2059": -0.00933967623859644,
        "2060": 0.008705902844667435,
        "2061": -0.006453025620430708,
        "2062": 0.014598703943192959,
        "2063": 0.0069378395564854145,
        "2064": 0.006195141468197107,
        "2065": -0.038259107619524,
        "2066": -0.00287818256765604,
        "2067": -0.002958073280751705,
        "2068": -0.019888566806912422,
        "2069": 0.006677386816591024,
        "2070": 0.00110391597263515,
        "2071": -0.017011195421218872,
        "2072": 0.0009125659125857055,
        "2073": 0.00637406948953867,
        "2074": 0.025493962690234184,
        "2075": -0.001746444497257471,
        "2076": 0.0075296154245734215,
        "2077": 0.012007428333163261,
        "2078": -0.005331200547516346,
        "2079": -0.0016085668466985226,
        "2080": -0.003155684331431985,
        "2081": -0.0010133330943062901,
        "2082": 0.010890234261751175,
        "2083": 0.0036852979101240635,
        "2084": 0.021624235436320305,
        "2085": 0.009937205351889133,
        "2086": 0.011057857424020767,
        "2087": 0.004305987153202295,
        "2088": -0.010850662365555763,
        "2089": 0.005986923351883888,
        "2090": 0.0018178027821704745,
        "2091": 0.023886289447546005,
        "2092": -0.0007041777134872973,
        "2093": 0.012241171672940254,
        "2094": 0.022374894469976425,
        "2095": 0.024328691884875298,
        "2096": 0.008810327388346195,
        "2097": 0.005127060227096081,
        "2098": -0.009261668659746647,
        "2099": -0.007112954743206501,
        "2100": -0.0070843156427145,
        "2101": 0.006660517305135727,
        "2102": -0.015609805472195148,
        "2103": 0.013082543388009071,
        "2104": -0.014284874312579632,
        "2105": -0.015878206118941307,
        "2106": 0.00022771248768549412,
        "2107": 0.014789990149438381,
        "2108": 0.0001329309307038784,
        "2109": -0.017194924876093864,
        "2110": -0.004944676999002695,
        "2111": -0.0064020114950835705,
        "2112": 0.01642688363790512,
        "2113": 0.0015766569413244724,
        "2114": 0.008111247792840004,
        "2115": 0.0006888220086693764,
        "2116": -0.0013915490126237273,
        "2117": -0.010833201929926872,
        "2118": 0.009524218738079071,
        "2119": 0.004260477609932423,
        "2120": 0.0012218175688758492,
        "2121": 0.01077963411808014,
        "2122": 0.0027996557764708996,
        "2123": 0.00351047795265913,
        "2124": -0.008288012817502022,
        "2125": 0.0032386810053139925,
        "2126": -0.0027358881197869778,
        "2127": -0.016637016087770462,
        "2128": -0.00004791279206983745,
        "2129": 0.018923239782452583,
        "2130": -0.005216905381530523,
        "2131": 0.0035485911648720503,
        "2132": -0.015730803832411766,
        "2133": -0.00527192372828722,
        "2134": -0.016793327406048775,
        "2135": -0.006846230942755938,
        "2136": 0.01530071347951889,
        "2137": 0.010026797652244568,
        "2138": 0.0010874634608626366,
        "2139": -0.008194251917302608,
        "2140": -0.013096318580210209,
        "2141": 0.020441854372620583,
        "2142": 0.014935831539332867,
        "2143": -0.007861444726586342,
        "2144": -0.012352395802736282,
        "2145": 0.002602495951578021,
        "2146": -0.011831720359623432,
        "2147": 0.004624963738024235,
        "2148": 0.016038911417126656,
        "2149": 0.014364988543093204,
        "2150": -0.004681553225964308,
        "2151": -0.018625052645802498,
        "2152": 0.005075172055512667,
        "2153": -0.011886700056493282,
        "2154": 0.0009785089641809464,
        "2155": 0.005492023658007383,
        "2156": 0.0052969553507864475,
        "2157": -0.009718821384012699,
        "2158": 0.0030934521928429604,
        "2159": 0.013723328709602356,
        "2160": -0.016546117141842842,
        "2161": -0.012416011653840542,
        "2162": 0.003294955939054489,
        "2163": 0.02307179383933544,
        "2164": 0.009455899707973003,
        "2165": -0.007645940873771906,
        "2166": -0.004675880540162325,
        "2167": -0.00040386157343164086,
        "2168": -0.0010105081601068377,
        "2169": -0.009020562283694744,
        "2170": -0.00522243557497859,
        "2171": -0.0016766941407695413,
        "2172": 0.005704926326870918,
        "2173": 0.0004151576431468129,
        "2174": -0.006755273789167404,
        "2175": -0.020404919981956482,
        "2176": -0.0038464723620563745,
        "2177": -0.0026646617334336042,
        "2178": -0.010745679028332233,
        "2179": 0.00037653272738680243,
        "2180": 0.012314490973949432,
        "2181": 0.014140891842544079,
        "2182": 0.0008464541751891375,
        "2183": -0.009203863330185413,
        "2184": -0.010607692413032055,
        "2185": 0.006441476754844189,
        "2186": 0.0069755869917571545,
        "2187": 0.001556434785015881,
        "2188": 0.008916951715946198,
        "2189": 0.007028140127658844,
        "2190": -0.01392928883433342,
        "2191": 0.004471959546208382,
        "2192": -0.03131364658474922,
        "2193": 0.007268902845680714,
        "2194": -0.012840766459703445,
        "2195": 0.0015011695213615894,
        "2196": -0.01568279042840004,
        "2197": -0.000748204707633704,
        "2198": -0.01618855819106102,
        "2199": 0.0007352655520662665,
        "2200": -0.013618090189993382,
        "2201": -0.005764178466051817,
        "2202": 0.012390714138746262,
        "2203": 0.017160987481474876,
        "2204": 0.005880839191377163,
        "2205": -0.003286384977400303,
        "2206": 0.0008586564799770713,
        "2207": 0.023209810256958008,
        "2208": 0.00634101964533329,
        "2209": -0.002583617577329278,
        "2210": -0.0011818265775218606,
        "2211": 0.0016641318798065186,
        "2212": 0.012382129207253456,
        "2213": 0.0019910363480448723,
        "2214": 0.016380472108721733,
        "2215": -0.00618505897000432,
        "2216": 0.0023230528458952904,
        "2217": -0.013323933817446232,
        "2218": -0.013963003642857075,
        "2219": -0.010342564433813095,
        "2220": -0.005715444218367338,
        "2221": -0.013004922308027744,
        "2222": -0.008522629737854004,
        "2223": 0.0024499776773154736,
        "2224": 0.0018960591405630112,
        "2225": 0.01694922149181366,
        "2226": -0.0008068863535299897,
        "2227": -0.0014323894865810871,
        "2228": -0.015769170597195625,
        "2229": 0.012604104354977608,
        "2230": 0.007831971161067486,
        "2231": 0.012901636771857738,
        "2232": 0.0018858646508306265,
        "2233": 0.012267415411770344,
        "2234": -0.0031367430929094553,
        "2235": -0.010867204517126083,
        "2236": -0.0195609163492918,
        "2237": 0.010088039562106133,
        "2238": 0.004151478409767151,
        "2239": -0.018093768507242203,
        "2240": -0.0008523232536390424,
        "2241": -0.0020383079536259174,
        "2242": -0.005447243805974722,
        "2243": -0.013052769936621189,
        "2244": -0.015711050480604172,
        "2245": 0.019592992961406708,
        "2246": 0.010776625946164131,
        "2247": 0.012641990557312965,
        "2248": 0.006845267489552498,
        "2249": 0.006160687655210495,
        "2250": 0.003653674153611064,
        "2251": -0.020758390426635742,
        "2252": 0.0069245039485394955,
        "2253": 0.020930446684360504,
        "2254": -0.005251269321888685,
        "2255": 0.017212042585015297,
        "2256": 0.001194596174173057,
        "2257": -0.00023925943241920322,
        "2258": -0.007650913670659065,
        "2259": -0.014859901741147041,
        "2260": -0.017825864255428314,
        "2261": -0.010497510433197021,
        "2262": -0.02618173323571682,
        "2263": -0.013086218386888504,
        "2264": -0.02953389659523964,
        "2265": 0.0006270368467085063,
        "2266": -0.03148715943098068,
        "2267": -0.015005389228463173,
        "2268": 0.014574541710317135,
        "2269": 0.003553082002326846,
        "2270": 0.01756046526134014,
        "2271": -0.0006647654226981103,
        "2272": 0.0016753723612055182,
        "2273": 0.013311861082911491,
        "2274": -0.015368982218205929,
        "2275": -0.009715227410197258,
        "2276": -0.0037647634744644165,
        "2277": 0.01082762610167265,
        "2278": -0.0000996100134216249,
        "2279": -0.012426217086613178,
        "2280": -0.00995791144669056,
        "2281": 0.0036968498025089502,
        "2282": -0.0002894388744607568,
        "2283": -0.003395820502191782,
        "2284": 0.007078354712575674,
        "2285": 0.0006306282593868673,
        "2286": -0.008678033016622066,
        "2287": 0.0002337507758056745,
        "2288": -0.00020555654191412032,
        "2289": 0.010274935513734818,
        "2290": 0.01788407750427723,
        "2291": 0.026330387219786644,
        "2292": -0.00301776803098619,
        "2293": 0.003625499317422509,
        "2294": -0.003130367025732994,
        "2295": -0.013907340355217457,
        "2296": -0.006467148661613464,
        "2297": 0.004246009513735771,
        "2298": -0.010848288424313068,
        "2299": 0.006391569972038269,
        "2300": 0.011594604700803757,
        "2301": 0.01382081676274538,
        "2302": -0.012852361425757408,
        "2303": 0.009019143879413605,
        "2304": -0.011316696181893349,
        "2305": 0.0030105416662991047,
