{
    "labels": [
        "teh hijau",
        "tapak dewa",
        "sirsak",
        "semanggi",
        "mengkudu",
        "mahoni",
        "kumis kucing",
        "jambu biji",
        "blimbing wuluh",
        "bayam"
    ],
    "layers": [
        {
            "name": "image",
            "type": "LAYER_INPUT",
            "width": 64,
            "height": 64,
            "depth": 3
        },
        {
            "name": "conv1",
            "type": "LAYER_CONV",
            "units": 10,
            "weight": [
                [
                    -0.3407169282436371,
                    -0.14063850045204163,
                    -0.277832567691803,
                    -0.2036811113357544,
                    0.16150550544261932,
                    -0.5945555567741394,
                    -0.612095832824707,
                    -0.17084291577339172,
                    -0.48971736431121826,
                    -0.17522796988487244,
                    -0.04110366851091385,
                    0.06544947624206543,
                    0.10607556998729706,
                    0.13709402084350586,
                    -0.05440434068441391,
                    -0.08389392495155334,
                    0.05255066230893135,
                    -0.2852335572242737,
                    0.7844381928443909,
                    0.4679368734359741,
                    0.46329399943351746,
                    0.1921166628599167,
                    0.2473987340927124,
                    0.15023508667945862,
                    0.5862957239151001,
                    0.38470831513404846,
                    0.057953208684921265
                ],
                [
                    0.5771721005439758,
                    0.13601073622703552,
                    0.45222359895706177,
                    -0.059965234249830246,
                    -0.06992608308792114,
                    0.22680485248565674,
                    0.2198484092950821,
                    -0.06361085921525955,
                    0.2879537045955658,
                    0.10252011567354202,
                    -0.10305188596248627,
                    -0.11699867993593216,
                    -0.07732302695512772,
                    -0.4672800302505493,
                    -0.1398511677980423,
                    0.36848747730255127,
                    -0.286224365234375,
                    0.5324170589447021,
                    -0.1491697132587433,
                    -0.32759010791778564,
                    -0.008184603415429592,
                    0.11852708458900452,
                    0.025900568813085556,
                    0.1076156347990036,
                    0.09801612794399261,
                    -0.1287304013967514,
                    -0.430507093667984
                ],
                [
                    0.20581822097301483,
                    -0.16600054502487183,
                    -0.11282526701688766,
                    -0.05305125564336777,
                    0.16510820388793945,
                    0.3942284882068634,
                    -0.308215856552124,
                    0.1606658697128296,
                    -0.008878539316356182,
                    -0.24716506898403168,
                    -0.017008109018206596,
                    -0.26971468329429626,
                    0.05531907454133034,
                    -0.03554921597242355,
                    -0.07142474502325058,
                    -0.5719634294509888,
                    -0.20470282435417175,
                    -0.15096502006053925,
                    0.09764571487903595,
                    -0.015998227521777153,
                    -0.3729320466518402,
                    0.32844510674476624,
                    0.5139964818954468,
                    0.7141228914260864,
                    0.07180915027856827,
                    0.6907524466514587,
                    0.6335143446922302
                ],
                [
                    0.21173889935016632,
                    0.17086398601531982,
                    -0.3273387849330902,
                    -0.23477794229984283,
                    0.031740862876176834,
                    -0.04422777146100998,
                    0.22992023825645447,
                    -0.13057711720466614,
                    -0.03888212516903877,
                    -0.09879741072654724,
                    -0.26928892731666565,
                    -0.15553900599479675,
                    0.02416043169796467,
                    0.05495797097682953,
                    -0.24788030982017517,
                    -0.0461471825838089,
                    0.2834358513355255,
                    0.2695986330509186,
                    -0.0062040966004133224,
                    -0.1594550609588623,
                    -0.1161649152636528,
                    0.1945093870162964,
                    0.01531411986798048,
                    -0.2564525306224823,
                    0.13318879902362823,
                    -0.07627291977405548,
                    0.09233295917510986
                ],
                [
                    0.16325464844703674,
                    0.2710203230381012,
                    -0.10231895744800568,
                    -0.26921331882476807,
                    0.015063808299601078,
                    0.19667649269104004,
                    0.27536964416503906,
                    -0.023477504029870033,
                    0.18956121802330017,
                    0.2699947953224182,
                    -0.3153722882270813,
                    -0.02999453991651535,
                    -0.09250196814537048,
                    -0.1742003858089447,
                    0.5346838235855103,
                    0.0669839009642601,
                    0.15176016092300415,
                    0.23685938119888306,
                    0.463847279548645,
                    0.16629087924957275,
                    0.09072884917259216,
                    0.438728392124176,
                    0.21806064248085022,
                    0.4049496054649353,
                    0.08640701323747635,
                    0.0061020320281386375,
                    0.38789504766464233
                ],
                [
                    0.11366523802280426,
                    0.03208177909255028,
                    -0.013952981680631638,
                    0.44786348938941956,
                    0.5801270604133606,
                    0.6738764643669128,
                    0.3584165573120117,
                    0.3258909583091736,
                    0.3421171009540558,
                    0.008650858886539936,
                    -0.04684390127658844,
                    -0.44192609190940857,
                    0.2571360766887665,
                    -0.13058744370937347,
                    -0.028108268976211548,
                    -0.03352578356862068,
                    0.23053336143493652,
                    0.37648019194602966,
                    0.084101103246212,
                    0.047072578221559525,
                    -0.1652103215456009,
                    0.054890964180231094,
                    0.05135597661137581,
                    0.15143448114395142,
                    -0.39814576506614685,
                    -0.3522156774997711,
                    -0.19738450646400452
                ],
                [
                    -0.15016931295394897,
                    -0.1704503446817398,
                    0.105018749833107,
                    0.12260103970766068,
                    0.02352818101644516,
                    0.7003009915351868,
                    0.25810950994491577,
                    0.47609713673591614,
                    -0.07615894079208374,
                    -0.021259469911456108,
                    -0.02849598228931427,
                    0.0944681465625763,
                    0.43030983209609985,
                    0.1870049238204956,
                    0.006896553561091423,
                    0.5394302010536194,
                    0.22289909422397614,
                    0.395077645778656,
                    0.39110928773880005,
                    0.24066513776779175,
                    0.3679901361465454,
                    0.31846654415130615,
                    0.3939383625984192,
                    0.31777113676071167,
                    0.7101775407791138,
                    0.3934456408023834,
                    0.1709965169429779
                ],
                [
                    0.047418564558029175,
                    -0.03470192477107048,
                    -0.13244099915027618,
                    -0.19534911215305328,
                    -0.23841920495033264,
                    -0.11228112131357193,
                    -0.21658183634281158,
                    -0.11298725008964539,
                    -0.3186946213245392,
                    0.573032557964325,
                    0.45017191767692566,
                    0.5261296033859253,
                    0.43746012449264526,
                    0.6102886199951172,
                    0.3296133577823639,
                    0.4952501952648163,
                    0.808635950088501,
                    0.302389532327652,
                    -0.3252831697463989,
                    -0.19016927480697632,
                    0.04141736403107643,
                    -0.1793241798877716,
                    -0.4278486967086792,
                    -0.4758204519748688,
                    -0.6334850788116455,
                    -0.3655714690685272,
                    -0.23209239542484283
                ],
                [
                    0.009715958498418331,
                    0.3283192813396454,
                    0.41620102524757385,
                    -0.17623460292816162,
                    0.07505618035793304,
                    0.11546780914068222,
                    0.10490591824054718,
                    0.12622231245040894,
                    0.3070138096809387,
                    0.08879262953996658,
                    0.02118007279932499,
                    0.4256322383880615,
                    0.011507774703204632,
                    -0.3107024133205414,
                    0.40814724564552307,
                    -0.15648840367794037,
                    -0.3570624887943268,
                    0.10236410051584244,
                    -0.5455811023712158,
                    0.015422520227730274,
                    -0.25672829151153564,
                    -0.30848559737205505,
                    -0.5016261339187622,
                    -0.23471005260944366,
                    -0.30181822180747986,
                    0.15061001479625702,
                    -0.36293214559555054
                ],
                [
                    -0.09003839641809464,
                    -0.1376897245645523,
                    0.030375728383660316,
                    0.31514787673950195,
                    0.3797697126865387,
                    -0.1553676575422287,
                    0.2592187821865082,
                    -0.12217241525650024,
                    0.019733721390366554,
                    -0.019689980894327164,
                    0.0465918630361557,
                    0.005700323265045881,
                    0.15040360391139984,
                    -0.22842077910900116,
                    0.08200258761644363,
                    0.45443195104599,
                    -0.18767592310905457,
                    -0.0011004756670445204,
                    0.1778516322374344,
                    -0.6279757618904114,
                    -0.19640234112739563,
                    -0.23077711462974548,
                    -0.2425103485584259,
                    -0.27202102541923523,
                    -0.05267076566815376,
                    -0.25263306498527527,
                    0.013650545850396156
                ]
            ],
            "kernel_width": 3,
            "kernel_height": 3,
            "kernel_stride_x": 1,
            "kernel_stride_y": 1,
            "pad_x": 0,
            "pad_y": 0,
            "biases": [
                0.0010256189852952957,
                -0.02788509428501129,
                -0.058389704674482346,
                -0.11703535169363022,
                -0.5471795201301575,
                -0.629500687122345,
                -1.2777453660964966,
                -0.5186384916305542,
                -0.07519586384296417,
                0.026286832988262177
            ]
        },
        {
            "name": "pool1",
            "type": "LAYER_MAXPOOL",
            "pool_width": 2,
            "pool_height": 2,
            "pool_stride_x": 2,
            "pool_stride_y": 2
        },
        {
            "name": "conv2",
            "type": "LAYER_CONV",
            "units": 20,
            "weight": [
                [
                    0.015200751833617687,
                    0.02641540952026844,
                    0.09898718446493149,
                    -0.05058072507381439,
                    -0.05087481811642647,
                    -0.07427775859832764,
                    -0.13541671633720398,
                    -0.13382206857204437,
                    0.16278620064258575,
                    -0.02335399016737938,
                    0.09543550759553909,
                    0.1799255609512329,
                    -0.21545661985874176,
                    0.18760959804058075,
                    0.03706667199730873,
                    -0.16542036831378937,
                    0.18976424634456635,
                    0.0946887731552124,
                    -0.05323401466012001,
                    0.16120955348014832,
                    0.12945407629013062,
                    -0.37538743019104004,
                    0.03278694301843643,
                    0.30158036947250366,
                    -0.08648835867643356,
                    -0.1301402598619461,
                    0.12413176894187927,
                    -0.07284005731344223,
                    0.05887620896100998,
                    0.02456628903746605,
                    -0.08536873757839203,
                    0.17077329754829407,
                    0.11406136304140091,
                    -0.11306064575910568,
                    0.040033385157585144,
                    0.06257905066013336,
                    -0.10973802953958511,
                    0.2593810260295868,
                    0.12899959087371826,
                    -0.049903612583875656,
                    0.058358725160360336,
                    0.12133129686117172,
                    -0.15137627720832825,
                    -0.04282334819436073,
                    0.11746326088905334,
                    0.16017675399780273,
                    0.08801968395709991,
                    0.2684691548347473,
                    -0.24545222520828247,
                    0.015167303383350372,
                    0.12210077792406082,
                    -0.2583772838115692,
                    -0.22305437922477722,
                    -0.06284262239933014,
                    -0.2686465382575989,
                    0.1857653558254242,
                    0.31913572549819946,
                    -0.206388458609581,
                    -0.1416582614183426,
                    0.2644098401069641,
                    -0.20139852166175842,
                    -0.1945543736219406,
                    -0.09886523336172104,
                    -0.04089374467730522,
                    0.2548569142818451,
                    0.37098032236099243,
                    -0.19592583179473877,
                    -0.2691599130630493,
                    -0.04527932405471802,
                    -0.10328320413827896,
                    -0.2070121467113495,
                    -0.07810229808092117,
                    -0.016372619196772575,
                    0.25657960772514343,
                    -0.012392455711960793,
                    0.014842347241938114,
                    0.23341171443462372,
                    0.04498177766799927,
                    -0.15388233959674835,
                    0.11121148616075516,
                    -0.017852814868092537,
                    -0.06384894996881485,
                    0.21499763429164886,
                    -0.2912439703941345,
                    0.00984375923871994,
                    -0.061809226870536804,
                    0.12961715459823608,
                    0.18680880963802338,
                    -0.17243579030036926,
                    -0.03528667986392975
                ],
                [
                    -0.005971723236143589,
                    0.021296435967087746,
                    -0.10264502465724945,
                    -0.14916753768920898,
                    0.00598759762942791,
                    -0.2557198703289032,
                    -0.171255424618721,
                    -0.027078459039330482,
                    -0.0070665800012648106,
                    -0.07425174862146378,
                    0.04553011432290077,
                    -0.00907700601965189,
                    0.024756427854299545,
                    0.0985647514462471,
                    -0.0179985910654068,
                    0.127637580037117,
                    -0.048317357897758484,
                    0.10417453199625015,
                    -0.28161224722862244,
                    -0.0613861158490181,
                    -0.1409304141998291,
                    -0.04869398847222328,
                    0.05139576643705368,
                    -0.05027811601758003,
                    -0.17171835899353027,
                    0.021395882591605186,
                    0.1430615335702896,
                    -0.009058901108801365,
                    0.021258296445012093,
                    0.09971582144498825,
                    0.15379959344863892,
                    -0.039496421813964844,
                    0.07979129254817963,
                    -0.1861356496810913,
                    -0.16460801661014557,
                    -0.02022273652255535,
                    0.16123858094215393,
                    -0.07645922899246216,
                    -0.17902515828609467,
                    0.0019345389446243644,
                    0.021251335740089417,
                    -0.020225491374731064,
                    0.2341136634349823,
                    0.015434077940881252,
                    0.15098847448825836,
                    0.025659337639808655,
                    -0.1066850796341896,
                    -0.10263770073652267,
                    0.29996681213378906,
                    0.10160346329212189,
                    0.13943950831890106,
                    0.007858389057219028,
                    -0.17159827053546906,
                    0.180146262049675,
                    -0.0935356467962265,
                    -0.2111460417509079,
                    -0.2021702080965042,
                    -0.2417101413011551,
                    -0.09673207998275757,
                    0.15250208973884583,
                    -0.05747625231742859,
                    0.21303312480449677,
                    0.20748171210289001,
                    -0.08418656885623932,
                    -0.30952978134155273,
                    -0.06352261453866959,
                    -0.1530274897813797,
                    -0.19481739401817322,
                    -0.10676142573356628,
                    0.06741047650575638,
                    -0.050939008593559265,
                    0.18948157131671906,
                    0.10521835833787918,
                    -0.05129751190543175,
                    0.08017801493406296,
                    0.00871424749493599,
                    -0.010591479018330574,
                    0.014322500675916672,
                    0.055099181830883026,
                    -0.003342935349792242,
                    0.08536265045404434,
                    -0.07806023210287094,
                    -0.15378734469413757,
                    0.10237663984298706,
                    0.17228595912456512,
                    -0.06767356395721436,
                    0.19676664471626282,
                    -0.07900971919298172,
                    -0.16093282401561737,
                    0.1550113409757614
                ],
                [
                    0.06771159172058105,
                    0.10952694714069366,
                    0.13507893681526184,
                    0.13146865367889404,
                    0.06003827974200249,
                    -0.015797436237335205,
                    0.03162462264299393,
                    -0.16512255370616913,
                    -0.09737198054790497,
                    -0.009554725140333176,
                    -0.038879044353961945,
                    0.028674162924289703,
                    0.0014697201550006866,
                    -0.039779677987098694,
                    -0.08207809925079346,
                    0.057463232427835464,
                    0.04377283528447151,
                    -0.04246413707733154,
                    -0.06234224885702133,
                    0.14734646677970886,
                    0.01418763492256403,
                    -0.05498204380273819,
                    -0.030036592856049538,
                    0.003941591363400221,
                    -0.06418512761592865,
                    -0.2087906002998352,
                    -0.03728007152676582,
                    -0.06577504426240921,
                    -0.10134846717119217,
                    -0.0982733741402626,
                    0.11093894392251968,
                    -0.029240960255265236,
                    -0.09783165901899338,
                    -0.10662243515253067,
                    -0.06715057790279388,
                    -0.016294388100504875,
                    0.1231784000992775,
                    0.03899414837360382,
                    -0.005503478460013866,
                    -0.04668641835451126,
                    -0.01010136678814888,
                    -0.11502943187952042,
                    -0.1555030792951584,
                    -0.25898420810699463,
                    -0.09861444681882858,
                    0.09718979895114899,
                    -0.0139582809060812,
                    0.27801281213760376,
                    0.10888870060443878,
                    -0.15083113312721252,
                    -0.30153194069862366,
                    -0.014924022369086742,
                    -0.16679564118385315,
                    -0.010431095026433468,
                    0.22633680701255798,
                    0.3406484127044678,
                    0.05964997783303261,
                    -0.12547318637371063,
                    -0.18096435070037842,
                    -0.16435103118419647,
                    0.006964561529457569,
                    -0.17178307473659515,
                    -0.046859901398420334,
                    0.24707406759262085,
                    0.2444884330034256,
                    0.21392972767353058,
                    0.07562654465436935,
                    0.10426592826843262,
                    -0.09025689959526062,
                    0.02830878458917141,
                    -0.3191060721874237,
                    -0.262777715921402,
                    -0.04277070611715317,
                    0.10549531131982803,
                    0.10930044203996658,
                    0.0376364029943943,
                    0.03149206563830376,
                    0.1597314476966858,
                    -0.06761237233877182,
                    0.08236556500196457,
                    -0.265423059463501,
                    -0.12798631191253662,
                    -0.010226706974208355,
                    -0.18748359382152557,
                    -0.12746724486351013,
                    -0.10090014338493347,
                    -0.1275022178888321,
                    0.16550475358963013,
                    0.10432492196559906,
                    -0.07337594777345657
                ],
                [
                    0.028833070769906044,
                    -0.1534852534532547,
                    -0.3296232223510742,
                    0.11631691455841064,
                    -0.17024552822113037,
                    -0.2677007019519806,
                    -0.10233613848686218,
                    -0.08465010672807693,
                    0.0007161795510910451,
                    0.08864110708236694,
                    0.09214003384113312,
                    0.010185759514570236,
                    -0.07787050306797028,
                    -0.033030085265636444,
                    0.06699351966381073,
                    -0.10836319625377655,
                    -0.10937544703483582,
                    0.013174827210605145,
                    -0.02899172715842724,
                    -0.24211002886295319,
                    0.05729540437459946,
                    -0.00931074284017086,
                    -0.09949001669883728,
                    -0.09793738275766373,
                    0.023937981575727463,
                    -0.08036015927791595,
                    -0.03430365398526192,
                    -0.1724386215209961,
                    0.10063464194536209,
                    -0.020158587023615837,
                    -0.07567896693944931,
                    -0.04684372991323471,
                    -0.00760840717703104,
                    -0.0788065642118454,
                    0.14687731862068176,
                    0.1544671505689621,
                    -0.05044354125857353,
                    0.15100127458572388,
                    -0.05178689956665039,
                    0.12928207218647003,
                    -0.07807382196187973,
                    -0.03612244129180908,
                    -0.03813217952847481,
                    0.05682965740561485,
                    0.1562134474515915,
                    0.06083165854215622,
                    0.020289622247219086,
                    0.25054460763931274,
                    -0.07015256583690643,
                    -0.09277073293924332,
                    0.16593033075332642,
                    -0.06716356426477432,
                    -0.043545912951231,
                    0.0748518854379654,
                    -0.0020778034813702106,
                    0.12431861460208893,
                    0.25246113538742065,
                    0.11776971071958542,
                    0.019578322768211365,
                    0.16076864302158356,
                    0.011790900491178036,
                    -0.1410568207502365,
                    0.14490576088428497,
                    -0.08332104235887527,
                    0.06551942974328995,
                    0.36588984727859497,
                    0.12009665369987488,
                    0.2005106806755066,
                    0.2737613320350647,
                    -0.19514091312885284,
                    -0.22677253186702728,
                    0.45929884910583496,
                    0.018138432875275612,
                    0.1260502189397812,
                    0.153859943151474,
                    0.04182565212249756,
                    0.0771556943655014,
                    0.16899481415748596,
                    -0.24642731249332428,
                    -0.06529965251684189,
                    0.07431972771883011,
                    -0.11161032319068909,
                    0.15756891667842865,
                    0.005323884543031454,
                    0.1736512929201126,
                    -0.16863413155078888,
                    -0.08787720650434494,
                    -0.030668115243315697,
                    -0.13572019338607788,
                    -0.09417087584733963
                ],
                [
                    -0.24522684514522552,
                    -0.16817742586135864,
                    -0.09939826279878616,
                    0.015089110471308231,
                    -0.12190273404121399,
                    -0.1882534623146057,
                    -0.19251374900341034,
                    -0.15475454926490784,
                    -0.12018400430679321,
                    -0.0043225521221756935,
                    -0.034860409796237946,
                    0.17468082904815674,
                    0.05249299481511116,
                    -0.15456977486610413,
                    -0.07203783094882965,
                    0.040234003216028214,
                    0.1160106286406517,
                    0.07020168006420135,
                    -0.3538796901702881,
                    -0.1693730652332306,
                    -0.38904792070388794,
                    -0.024879425764083862,
                    0.02216295525431633,
                    -0.2129012644290924,
                    -0.20831948518753052,
                    -0.2781148850917816,
                    -0.08238652348518372,
                    -0.009340694174170494,
                    0.09088911861181259,
                    -0.2486952394247055,
                    -0.11934288591146469,
                    -0.03125542029738426,
                    -0.09983223676681519,
                    -0.09926489740610123,
                    0.04150770232081413,
                    -0.10610808432102203,
                    -0.055686239153146744,
                    -0.15536066889762878,
                    -0.24272166192531586,
                    -0.20771244168281555,
                    -0.23920020461082458,
                    -0.18353554606437683,
                    -0.23615218698978424,
                    -0.10386349260807037,
                    -0.1732087880373001,
                    0.008031477220356464,
                    0.028292270377278328,
                    -0.23251894116401672,
                    0.03468320518732071,
                    -0.01647736132144928,
                    -0.06629501283168793,
                    0.06276275962591171,
                    0.262296587228775,
                    -0.15217053890228271,
                    -0.2972085177898407,
                    -0.25101375579833984,
                    -0.38998648524284363,
                    0.01279209740459919,
                    -0.387779176235199,
                    -0.26116353273391724,
                    -0.09399419277906418,
                    -0.23014789819717407,
                    -0.31428059935569763,
                    0.16891178488731384,
                    0.12645159661769867,
                    -0.14668753743171692,
                    0.183415949344635,
                    0.15676376223564148,
                    0.09992291033267975,
                    0.3224659264087677,
                    0.3241414725780487,
                    0.2126748114824295,
                    0.09135179221630096,
                    -0.1443854570388794,
                    -0.10923150926828384,
                    0.06309477984905243,
                    0.22679771482944489,
                    0.13587923347949982,
                    0.1195601150393486,
                    0.14377805590629578,
                    -0.0046120877377688885,
                    0.06557146459817886,
                    0.062256455421447754,
                    0.007978342473506927,
                    0.06356015056371689,
                    0.210384801030159,
                    0.004501825198531151,
                    0.04455025866627693,
                    -0.033487606793642044,
                    0.23874607682228088
                ],
                [
                    -0.15678846836090088,
                    -0.13042189180850983,
                    -0.13786207139492035,
                    0.003397661028429866,
                    -0.008651426061987877,
                    -0.05835731700062752,
                    0.13650813698768616,
                    0.0848640576004982,
                    0.014757528901100159,
                    0.0561557412147522,
                    0.017751770094037056,
                    0.07687456905841827,
                    0.00280105066485703,
                    0.03343825042247772,
                    0.005172845907509327,
                    0.004368496593087912,
                    0.31131720542907715,
                    -0.03717963024973869,
                    0.05377575755119324,
                    0.002135226270183921,
                    0.19996649026870728,
                    0.09064972400665283,
                    -0.025393901392817497,
                    -0.006697152741253376,
                    -0.32508912682533264,
                    -0.029825890436768532,
                    -0.05135473981499672,
                    -0.1965593844652176,
                    0.010305330157279968,
                    -0.1642516851425171,
                    0.17122671008110046,
                    -0.1721852719783783,
                    0.020172420889139175,
                    0.014973104000091553,
                    -0.1537766307592392,
                    0.05591563507914543,
                    -0.17451466619968414,
                    -0.03703827038407326,
                    -0.08743082731962204,
                    -0.10763582587242126,
                    0.009304910898208618,
                    0.2118745744228363,
                    0.04395677521824837,
                    -0.024809841066598892,
                    0.13640254735946655,
                    -0.04201536998152733,
                    0.1742471307516098,
                    -0.3038783669471741,
                    -0.009010863490402699,
                    0.11275473237037659,
                    -0.08044619858264923,
                    -0.0029304868075996637,
                    0.03432660177350044,
                    -0.0683806985616684,
                    -0.04637499153614044,
                    -0.016339804977178574,
                    0.09800009429454803,
                    0.027211638167500496,
                    -0.08403687179088593,
                    0.03498426824808121,
                    -0.02719232067465782,
                    -0.07077693939208984,
                    -0.1486554592847824,
                    0.11820925772190094,
                    0.021582597866654396,
                    -0.051867786794900894,
                    0.09979046136140823,
                    0.07458438724279404,
                    0.07489141076803207,
                    0.0061039733700454235,
                    -0.14519807696342468,
                    -0.099944107234478,
                    -0.1311396211385727,
                    -0.04876703396439552,
                    -0.05048351362347603,
                    0.06532247364521027,
                    -0.062394607812166214,
                    -0.06579191237688065,
                    -0.10511095821857452,
                    -0.013363170437514782,
                    -0.04510319605469704,
                    -0.0257392767816782,
                    0.10077084600925446,
                    -0.01114165224134922,
                    -0.03254617005586624,
                    0.07790160179138184,
                    0.17720326781272888,
                    0.06409318745136261,
                    -0.15618233382701874,
                    -0.19021761417388916
                ],
                [
                    0.029796453192830086,
                    0.1252458095550537,
                    0.02282913215458393,
                    0.041139062494039536,
                    0.18433861434459686,
                    0.2247447818517685,
                    -0.10963495075702667,
                    0.046208932995796204,
                    0.22651180624961853,
                    0.05952497199177742,
                    -0.031665269285440445,
                    -0.05968386307358742,
                    -0.05747639760375023,
                    -0.09317975491285324,
                    -0.10617311298847198,
                    -0.10511300712823868,
                    -0.047246549278497696,
                    -0.11001154035329819,
                    0.13753539323806763,
                    0.00499494094401598,
                    0.13721752166748047,
                    0.10395903140306473,
                    0.08812451362609863,
                    -0.16259576380252838,
                    0.015285699628293514,
                    0.19856077432632446,
                    -0.25957658886909485,
                    -0.08646325021982193,
                    0.10187452286481857,
                    0.12119299918413162,
                    0.0010811190586537123,
                    0.07398631423711777,
                    0.05786740034818649,
                    0.1180177628993988,
                    -0.06459543108940125,
                    0.004758734721690416,
                    0.12445332109928131,
                    0.09210246801376343,
                    0.05037875473499298,
                    0.14690688252449036,
                    -0.10298199206590652,
                    0.16022975742816925,
                    0.0838765874505043,
                    -0.05942044034600258,
                    -0.14387910068035126,
                    -0.0627874881029129,
                    -0.004669153597205877,
                    0.05256723240017891,
                    -0.1904747188091278,
                    0.08253801614046097,
                    -0.2138599455356598,
                    -0.13270466029644012,
                    -0.0668639987707138,
                    -0.04674200713634491,
                    -0.2099023014307022,
                    0.07630304247140884,
                    0.20145949721336365,
                    0.10297472029924393,
                    0.07958898693323135,
                    0.05139581859111786,
                    -0.09770574420690536,
                    0.44106489419937134,
                    0.054877251386642456,
                    -0.07931788265705109,
                    -0.09138119965791702,
                    0.10801352560520172,
                    -0.036295272409915924,
                    0.03238244354724884,
                    0.0982050970196724,
                    0.11448705196380615,
                    0.02738204225897789,
                    -0.01916339248418808,
                    -0.04363551735877991,
                    -0.21379591524600983,
                    0.02185969054698944,
                    0.01940011978149414,
                    -0.17390315234661102,
                    -0.07405290007591248,
                    0.008163535967469215,
                    -0.03861479088664055,
                    -0.15863452851772308,
                    -0.07018038630485535,
                    -0.08573951572179794,
                    -0.041915420442819595,
                    -0.03733513876795769,
                    -0.1840440332889557,
                    0.046320751309394836,
                    0.1358405351638794,
                    -0.13700872659683228,
                    -0.035911574959754944
                ],
                [
                    0.13339027762413025,
                    -0.024889932945370674,
                    -0.07361713796854019,
                    0.030528293922543526,
                    0.039899345487356186,
                    -0.07446369528770447,
                    0.03731651231646538,
                    -0.22210855782032013,
                    -0.3298536241054535,
                    0.0802161693572998,
                    -0.06149217486381531,
                    -0.14406056702136993,
                    -0.10340370982885361,
                    0.049822937697172165,
                    -0.04478256031870842,
                    0.06668534874916077,
                    -0.08632267266511917,
                    0.01594139076769352,
                    -0.2387506514787674,
                    0.15587997436523438,
                    -0.13309435546398163,
                    0.031774502247571945,
                    0.08451329916715622,
                    -0.0936695858836174,
                    0.10852069407701492,
                    -0.13428284227848053,
                    0.03219394385814667,
                    0.2083836942911148,
                    -0.0800425335764885,
                    0.1694793403148651,
                    0.129222109913826,
                    0.027597853913903236,
                    0.12815077602863312,
                    -0.007590026129037142,
                    -0.07092414796352386,
                    0.07534443587064743,
                    -0.027529684826731682,
                    -0.08065705746412277,
                    0.06315460801124573,
                    0.012667380273342133,
                    -0.007588690146803856,
                    -0.036515865474939346,
                    -0.13387338817119598,
                    0.07966666668653488,
                    -0.14620260894298553,
                    -0.08256328850984573,
                    0.1713249683380127,
                    0.19062168896198273,
                    -0.2114003300666809,
                    0.1091662123799324,
                    -0.008227746933698654,
                    -0.038361527025699615,
                    0.19089609384536743,
                    0.145878866314888,
                    -0.10922914743423462,
                    0.1632796823978424,
                    -0.20772035419940948,
                    -0.22985433042049408,
                    -0.07207413762807846,
                    -0.030064214020967484,
                    -0.16359470784664154,
                    -0.00108230859041214,
                    -0.013769303448498249,
                    -0.23224177956581116,
                    -0.056157711893320084,
                    -0.1098836213350296,
                    -0.17745038866996765,
                    0.09407083690166473,
                    -0.11602974683046341,
                    0.13500644266605377,
                    0.04774867370724678,
                    -0.016890112310647964,
                    0.039865925908088684,
                    -0.20866659283638,
                    0.014900359325110912,
                    0.07027535140514374,
                    0.04074504226446152,
                    0.11953762173652649,
                    -0.18822725117206573,
                    0.07250992208719254,
                    -0.06970708072185516,
                    -0.10438574105501175,
                    0.041612230241298676,
                    -0.1617523431777954,
                    -0.058411478996276855,
                    -0.06139356642961502,
                    0.05860615149140358,
                    0.01398739218711853,
                    -0.04802572727203369,
                    0.10225360095500946
                ],
                [
                    -0.002338073216378689,
                    -0.11349304765462875,
                    -0.1988322138786316,
                    -0.0015648945700377226,
                    -0.11738802492618561,
                    -0.11006196588277817,
                    -0.02548806555569172,
                    -0.08933757245540619,
                    -0.0035317479632794857,
                    0.019366154447197914,
                    -0.20828354358673096,
                    -0.017429815605282784,
                    -0.057222191244363785,
                    0.03458549082279205,
                    -0.0600329227745533,
                    -0.1208435520529747,
                    -0.088219054043293,
                    0.08569834381341934,
                    -0.024921704083681107,
                    -0.11716792732477188,
                    -0.1268441528081894,
                    -0.08808183670043945,
                    -0.1384507119655609,
                    -0.015941696241497993,
                    0.06566888093948364,
                    0.1591912806034088,
                    -0.037817034870386124,
                    -0.052189238369464874,
                    0.12292616069316864,
                    0.16352559626102448,
                    -0.015303710475564003,
                    -0.07138385623693466,
                    0.1650175303220749,
                    -0.038666222244501114,
                    -0.06978174299001694,
                    -0.15349896252155304,
                    -0.11619337648153305,
                    -0.1242242231965065,
                    0.0735120177268982,
                    -0.15289728343486786,
                    0.0070866551250219345,
                    0.1386082023382187,
                    0.06040782853960991,
                    0.07028863579034805,
                    0.08314722031354904,
                    -0.21120622754096985,
                    -0.27567002177238464,
                    -0.0510135181248188,
                    -0.05301390960812569,
                    -0.20745889842510223,
                    -0.08185435086488724,
                    -0.12397921830415726,
                    -0.058016352355480194,
                    -0.08427606523036957,
                    0.003489166498184204,
                    -0.23742853105068207,
                    -0.17447412014007568,
                    -0.12371127307415009,
                    0.046850040555000305,
                    0.25250378251075745,
                    0.18669934570789337,
                    0.2553084194660187,
                    0.26119837164878845,
                    0.2679990231990814,
                    0.23412540555000305,
                    0.2994845509529114,
                    -0.0005778593476861715,
                    -0.1184263527393341,
                    0.12044814229011536,
                    0.011664420366287231,
                    0.2092953324317932,
                    0.24385063350200653,
                    -0.2541547417640686,
                    -0.11178591847419739,
                    -0.30431440472602844,
                    -0.18716570734977722,
                    -0.15355445444583893,
                    -0.3078118860721588,
                    0.014466853812336922,
                    -0.10236562788486481,
                    -0.208636075258255,
                    -0.004776461981236935,
                    -0.015566413290798664,
                    -0.12741464376449585,
                    -0.006504329852759838,
                    0.11200027167797089,
                    0.04925524815917015,
                    -0.005250792019069195,
                    -0.10732723027467728,
                    -0.06592149287462234
                ],
                [
                    0.06914594769477844,
                    -0.0643269419670105,
                    -0.029426557943224907,
                    0.04804547503590584,
                    -0.20491497218608856,
                    -0.10690376162528992,
                    0.0518147237598896,
                    0.024286605417728424,
                    0.019877705723047256,
                    -0.19651693105697632,
                    -0.006422701757401228,
                    0.0905909389257431,
                    -0.010723721235990524,
                    0.10503014922142029,
                    0.04050426185131073,
                    -0.03593878820538521,
                    -0.10215719044208527,
                    0.0009718520450405777,
                    -0.23834475874900818,
                    0.04226892441511154,
                    -0.21992869675159454,
                    -0.019263438880443573,
                    -0.0504429005086422,
                    0.09964297711849213,
                    -0.03479638323187828,
                    0.022748127579689026,
                    -0.25518903136253357,
                    -0.03304613381624222,
                    0.11635713279247284,
                    -0.0807032436132431,
                    -0.16539506614208221,
                    -0.028163760900497437,
                    0.05610876902937889,
                    -0.09038430452346802,
                    -0.00005426711868494749,
                    -0.1836695671081543,
                    -0.17372310161590576,
                    0.1727810800075531,
                    -0.18175655603408813,
                    -0.11051663011312485,
                    0.12340705841779709,
                    0.10317833721637726,
                    -0.10156623274087906,
                    0.14438281953334808,
                    0.016463732346892357,
                    -0.2334342747926712,
                    -0.07228200137615204,
                    -0.004505411721765995,
                    -0.10720647126436234,
                    0.014355400577187538,
                    -0.0606163814663887,
                    -0.04423099011182785,
                    -0.1274816244840622,
                    -0.09161363542079926,
                    0.018103014677762985,
                    0.17050983011722565,
                    -0.1323755532503128,
                    -0.07766660302877426,
                    -0.13468848168849945,
                    -0.029145758599042892,
                    -0.07527587562799454,
                    -0.1979527622461319,
                    -0.0022318209521472454,
                    0.01164488960057497,
                    -0.1303500086069107,
                    -0.0767657682299614,
                    -0.029131244868040085,
                    0.034005265682935715,
                    -0.11420020461082458,
                    -0.1034548208117485,
                    0.06443881243467331,
                    -0.10469234734773636,
                    -0.001069391262717545,
                    0.10597774386405945,
                    0.009658155031502247,
                    -0.005105362739413977,
                    0.06927312165498734,
                    0.10182666778564453,
                    -0.1456289291381836,
                    -0.05485014244914055,
                    -0.04836491122841835,
                    0.118262380361557,
                    0.0205504409968853,
                    0.06672508269548416,
                    -0.06549187749624252,
                    0.07200903445482254,
                    -0.053579896688461304,
                    0.055054377764463425,
                    -0.22440405189990997,
                    -0.03726683929562569
                ],
                [
                    0.01630924828350544,
                    -0.08927589654922485,
                    0.046566229313611984,
                    -0.05094504356384277,
                    -0.012714826501905918,
                    0.06794215738773346,
                    -0.027906788513064384,
                    0.08262284100055695,
                    -0.12940339744091034,
                    -0.044103436172008514,
                    -0.1260196417570114,
                    0.17679068446159363,
                    -0.027148718014359474,
                    0.2013927698135376,
                    -0.03525250777602196,
                    0.0637005940079689,
                    0.11635368317365646,
                    -0.04169497638940811,
                    0.08400718122720718,
                    -0.32096201181411743,
                    -0.12434686720371246,
                    0.1844513714313507,
                    0.08198221027851105,
                    -0.05348319560289383,
                    0.13501696288585663,
                    -0.05726301297545433,
                    -0.004479748662561178,
                    -0.03288295865058899,
                    0.027575643733143806,
                    0.06176786869764328,
                    0.09312420338392258,
                    0.12309418618679047,
                    -0.060251083225011826,
                    0.17057284712791443,
                    0.2160363644361496,
                    0.0786036029458046,
                    -0.12896037101745605,
                    -0.14698797464370728,
                    -0.03626487776637077,
                    0.19974155724048615,
                    -0.00663606496527791,
                    -0.024978941306471825,
                    0.15300516784191132,
                    0.25042134523391724,
                    0.09209383279085159,
                    -0.026531444862484932,
                    -0.04419193044304848,
                    -0.1805107146501541,
                    0.18730850517749786,
                    -0.16396062076091766,
                    -0.10141613334417343,
                    0.17392724752426147,
                    0.13791675865650177,
                    -0.008633668534457684,
                    -0.007425186689943075,
                    0.008732214570045471,
                    -0.05305106192827225,
                    0.2959032356739044,
                    -0.2179381251335144,
                    0.016769759356975555,
                    0.175764799118042,
                    0.19452230632305145,
                    0.05409945175051689,
                    -0.13053709268569946,
                    -0.148969829082489,
                    -0.39165258407592773,
                    -0.18417425453662872,
                    -0.15218065679073334,
                    -0.1786859780550003,
                    -0.06647715717554092,
                    0.059291064739227295,
                    -0.09951788187026978,
                    -0.12182039022445679,
                    -0.01763254590332508,
                    -0.10356556624174118,
                    -0.04750268533825874,
                    -0.025994695723056793,
                    -0.284882128238678,
                    0.032489173114299774,
                    -0.29976555705070496,
                    -0.026065686717629433,
                    -0.13730525970458984,
                    0.048307426273822784,
                    0.11125458776950836,
                    -0.0004397717129904777,
                    0.12056823819875717,
                    -0.12332141399383545,
                    0.027691496536135674,
                    0.2303098887205124,
                    0.1022244542837143
                ],
                [
                    -0.14527106285095215,
                    0.03331485763192177,
                    0.12115143984556198,
                    0.07008526474237442,
                    0.19941313564777374,
                    -0.12641166150569916,
                    0.0573175810277462,
                    -0.005570166744291782,
                    0.024251505732536316,
                    -0.05142267793416977,
                    0.01685451529920101,
                    0.02605726756155491,
                    0.03071328066289425,
                    0.002848878502845764,
                    -0.06707993894815445,
                    0.005705965682864189,
                    -0.07918521016836166,
                    0.04362201318144798,
                    -0.029240624979138374,
                    -0.00460434053093195,
                    -0.06908585876226425,
                    -0.21124593913555145,
                    -0.15813641250133514,
                    -0.17425313591957092,
                    0.0633818656206131,
                    -0.009116173721849918,
                    -0.13541454076766968,
                    0.01674536243081093,
                    0.08656283468008041,
                    -0.0486198365688324,
                    -0.06475275754928589,
                    -0.050797972828149796,
                    -0.036481961607933044,
                    -0.0020560198463499546,
                    0.06362123042345047,
                    -0.02647358551621437,
                    0.17896197736263275,
                    -0.11351557075977325,
                    0.2843347191810608,
                    -0.04777195677161217,
                    0.0396738164126873,
                    -0.08369113504886627,
                    -0.06938071548938751,
                    -0.293228417634964,
                    -0.14264099299907684,
                    0.04845939576625824,
                    0.0020218610297888517,
                    -0.1925801932811737,
                    -0.036940332502126694,
                    0.03427807614207268,
                    -0.2152191698551178,
                    -0.00807850994169712,
                    -0.16044965386390686,
                    0.025708680972456932,
                    0.11169834434986115,
                    0.1557050496339798,
                    0.2200549989938736,
                    -0.2759397625923157,
                    -0.2468806952238083,
                    -0.14263489842414856,
                    -0.12372928112745285,
                    0.11555489897727966,
                    -0.024901311844587326,
                    -0.06305283308029175,
                    -0.24411195516586304,
                    -0.1568421870470047,
                    -0.020627982914447784,
                    0.16320008039474487,
                    -0.06758083403110504,
                    0.05031546205282211,
                    -0.2384159415960312,
                    -0.29432010650634766,
                    0.026509905233979225,
                    0.09026231616735458,
                    0.010436173528432846,
                    0.02165473997592926,
                    0.013420171104371548,
                    -0.0784878134727478,
                    -0.013104218989610672,
                    0.05222367122769356,
                    0.07412901520729065,
                    -0.030937086790800095,
                    -0.19655869901180267,
                    0.025472719222307205,
                    0.15580028295516968,
                    -0.09557653218507767,
                    -0.026269767433404922,
                    0.052578479051589966,
                    0.08063066750764847,
                    0.050265055149793625
                ],
                [
                    0.020473621785640717,
                    0.10997264087200165,
                    -0.16744989156723022,
                    -0.272036612033844,
                    -0.13018174469470978,
                    -0.14002873003482819,
                    0.16710926592350006,
                    0.08676861226558685,
                    0.08900377154350281,
                    -0.16475248336791992,
                    -0.2024962604045868,
                    -0.06847229599952698,
                    -0.23367221653461456,
                    0.09990198165178299,
                    0.004716227762401104,
                    -0.03414413705468178,
                    0.2557130753993988,
                    -0.02311432734131813,
                    -0.07292813062667847,
                    0.04573580250144005,
                    -0.004224971868097782,
                    -0.03808026760816574,
                    -0.039445631206035614,
                    -0.1778230220079422,
                    -0.014587456360459328,
                    0.021335257217288017,
                    0.2203318178653717,
                    0.01761792041361332,
                    0.013714385218918324,
                    0.004744141362607479,
                    0.04932069778442383,
                    0.006064333952963352,
                    0.11316113919019699,
                    0.08547607064247131,
                    0.2427295297384262,
                    -0.08718833327293396,
                    -0.061571262776851654,
                    -0.008382494561374187,
                    0.0835978239774704,
                    -0.2077913135290146,
                    -0.07487666606903076,
                    -0.13478770852088928,
                    0.01122454833239317,
                    -0.038838863372802734,
                    -0.020251739770174026,
                    -0.018656622618436813,
                    0.1704176813364029,
                    -0.049599532037973404,
                    -0.17983658611774445,
                    -0.12737572193145752,
                    -0.17542041838169098,
                    -0.0923655778169632,
                    -0.11927717924118042,
                    -0.08386684954166412,
                    -0.37949812412261963,
                    -0.19001497328281403,
                    -0.13988003134727478,
                    -0.10185214877128601,
                    -0.10708487778902054,
                    -0.04408009350299835,
                    0.08652894198894501,
                    -0.0866529792547226,
                    -0.2558102011680603,
                    -0.06190996617078781,
                    -0.13757610321044922,
                    -0.10326550900936127,
                    -0.34825947880744934,
                    -0.05520253628492355,
                    -0.0030671602580696344,
                    -0.06654199212789536,
                    -0.06163596734404564,
                    -0.08381425589323044,
                    0.18189315497875214,
                    0.09039610624313354,
                    -0.13363799452781677,
                    0.06196719780564308,
                    -0.019592106342315674,
                    -0.13312767446041107,
                    -0.12580525875091553,
                    0.026333322748541832,
                    -0.018556348979473114,
                    -0.040506113320589066,
                    0.14809882640838623,
                    -0.1546608954668045,
                    0.01626187562942505,
                    0.06368883699178696,
                    0.1819794923067093,
                    0.05689976364374161,
                    -0.25273454189300537,
                    0.05971222370862961
                ],
                [
                    0.07275529205799103,
                    -0.21356956660747528,
                    -0.09766186028718948,
                    -0.08630132675170898,
                    -0.042893700301647186,
                    0.1442629098892212,
                    0.0034960578195750713,
                    0.05884335935115814,
                    -0.17297451198101044,
                    0.13328756392002106,
                    0.054548393934965134,
                    -0.040270768105983734,
                    0.07456271350383759,
                    -0.05458385497331619,
                    0.1877714842557907,
                    -0.04483223706483841,
                    0.010381272062659264,
                    0.1571703851222992,
                    0.018465334549546242,
                    0.0004210400802548975,
                    -0.2562970817089081,
                    -0.0642644539475441,
                    -0.20957429707050323,
                    -0.028557246550917625,
                    -0.052581969648599625,
                    0.07508238404989243,
                    0.07041487842798233,
                    -0.03291912004351616,
                    -0.05657537654042244,
                    0.039340339601039886,
                    0.04888720065355301,
                    0.022152015939354897,
                    -0.09721420705318451,
                    0.19452399015426636,
                    0.1052790954709053,
                    0.1499633640050888,
                    -0.058307111263275146,
                    0.02418428845703602,
                    -0.16271944344043732,
                    -0.16159969568252563,
                    -0.18008171021938324,
                    -0.1596326380968094,
                    -0.017064286395907402,
                    -0.10619655251502991,
                    0.08388324826955795,
                    -0.04876154661178589,
                    0.06025295704603195,
                    -0.029172878712415695,
                    0.12551939487457275,
                    0.014776710420846939,
                    0.10418501496315002,
                    -0.13358120620250702,
                    -0.1331070512533188,
                    0.1595163494348526,
                    -0.016468025743961334,
                    -0.07436936348676682,
                    0.07769450545310974,
                    -0.09730778634548187,
                    -0.1325804740190506,
                    0.12812405824661255,
                    -0.038717884570360184,
                    -0.05861824378371239,
                    0.011284992098808289,
                    -0.0703403428196907,
                    -0.1698191910982132,
                    -0.1535736322402954,
                    -0.0741790384054184,
                    0.14396190643310547,
                    -0.15195269882678986,
                    0.0019761326257139444,
                    -0.2602751851081848,
                    -0.14523157477378845,
                    0.006805619690567255,
                    -0.04016339033842087,
                    -0.005409594625234604,
                    -0.03523283824324608,
                    -0.005594921298325062,
                    0.2494630664587021,
                    0.15079911053180695,
                    -0.16565273702144623,
                    0.3259008526802063,
                    0.03388180211186409,
                    0.004714504815638065,
                    0.003630444873124361,
                    0.15071044862270355,
                    0.07575441896915436,
                    -0.10805035382509232,
                    0.14391110837459564,
                    -0.02222263440489769,
                    0.08234096318483353
                ],
                [
                    -0.0716775581240654,
                    -0.10395607352256775,
                    -0.04915532469749451,
                    -0.273830771446228,
                    -0.19115889072418213,
                    0.1074887365102768,
                    -0.2926032841205597,
                    -0.07580043375492096,
                    -0.03486335650086403,
                    0.009608972817659378,
                    0.03736668452620506,
                    0.047377269715070724,
                    0.171815887093544,
                    0.0021831358317285776,
                    0.0840032771229744,
                    0.14051605761051178,
                    0.04859086871147156,
                    0.00811578519642353,
                    -0.1773746907711029,
                    -0.0468934029340744,
                    -0.20426423847675323,
                    0.06947290897369385,
                    -0.024931414052844048,
                    0.019633423537015915,
                    0.4292864203453064,
                    0.4481107294559479,
                    0.20702195167541504,
                    -0.04856816306710243,
                    -0.09542977064847946,
                    0.009856557473540306,
                    0.2093277871608734,
                    0.257386177778244,
                    -0.03408573940396309,
                    0.14387398958206177,
                    -0.03279080614447594,
                    0.11832793056964874,
                    0.04441611096262932,
                    -0.12235439568758011,
                    -0.0986400917172432,
                    -0.010942289605736732,
                    -0.16407352685928345,
                    -0.2983315885066986,
                    0.1813075989484787,
                    0.4786580204963684,
                    0.1497112214565277,
                    0.01613086462020874,
                    0.04264651983976364,
                    -0.09744038432836533,
                    0.3409070074558258,
                    0.09438306838274002,
                    0.026820406317710876,
                    0.09103870391845703,
                    0.2632403075695038,
                    0.22298820316791534,
                    -0.01495376881211996,
                    -0.14963176846504211,
                    -0.364068865776062,
                    0.16903451085090637,
                    0.055171899497509,
                    -0.19388677179813385,
                    0.2671698033809662,
                    0.35537421703338623,
                    0.461402952671051,
                    -0.2588534355163574,
                    -0.400412380695343,
                    -0.25219470262527466,
                    -0.28319522738456726,
                    -0.30754783749580383,
                    -0.3593458831310272,
                    0.0006581406923942268,
                    -0.3003578186035156,
                    -0.2567204236984253,
                    -0.023040683940052986,
                    -0.09988074749708176,
                    0.1717468798160553,
                    0.008771244436502457,
                    0.09828663617372513,
                    -0.14043836295604706,
                    -0.02705768123269081,
                    0.15007638931274414,
                    -0.056353114545345306,
                    0.027160530909895897,
                    -0.08629214763641357,
                    0.01160555612295866,
                    -0.027485279366374016,
                    0.222080260515213,
                    0.17257188260555267,
                    0.007078977767378092,
                    0.04730260372161865,
                    0.06793154031038284
                ],
                [
                    0.024817436933517456,
                    0.12529881298542023,
                    -0.12498469650745392,
                    -0.3403337299823761,
                    -0.025729399174451828,
                    -0.051727402955293655,
                    -0.009511930868029594,
                    0.08049088716506958,
                    -0.13917791843414307,
                    0.08357203751802444,
                    0.1349184662103653,
                    0.11752589792013168,
                    0.10029143840074539,
                    0.17683075368404388,
                    -0.0320504792034626,
                    0.010507682338356972,
                    0.1632959097623825,
                    -0.150864377617836,
                    0.17148752510547638,
                    -0.18516597151756287,
                    -0.19120532274246216,
                    -0.07455406337976456,
                    0.08470688760280609,
                    -0.06569312512874603,
                    0.06885708123445511,
                    -0.01362299732863903,
                    -0.18524086475372314,
                    0.15198862552642822,
                    -0.03895707428455353,
                    0.1162307932972908,
                    0.09147416055202484,
                    -0.21890011429786682,
                    -0.008987357839941978,
                    0.2323860228061676,
                    0.0004587653384078294,
                    0.08383119851350784,
                    0.00123498123139143,
                    -0.046672333031892776,
                    -0.13292822241783142,
                    0.24916158616542816,
                    0.047865111380815506,
                    -0.1994701772928238,
                    -0.049830883741378784,
                    -0.16332542896270752,
                    -0.25843700766563416,
                    0.4088097810745239,
                    -0.022310320287942886,
                    -0.20106099545955658,
                    0.37017980217933655,
                    -0.008462111465632915,
                    -0.20845164358615875,
                    0.07177679985761642,
                    -0.10322891920804977,
                    -0.08046399801969528,
                    0.12315975874662399,
                    0.022038472816348076,
                    0.046444445848464966,
                    0.27063271403312683,
                    0.12696896493434906,
                    -0.18325693905353546,
                    0.07020648568868637,
                    -0.259671688079834,
                    -0.28086158633232117,
                    0.2457951158285141,
                    -0.023006703704595566,
                    -0.10930822789669037,
                    0.08011949062347412,
                    -0.0773659273982048,
                    -0.3278355896472931,
                    0.31945154070854187,
                    -0.19522680342197418,
                    -0.4930601716041565,
                    -0.06859996914863586,
                    0.06145722419023514,
                    -0.16684503853321075,
                    -0.09318011999130249,
                    -0.21961325407028198,
                    -0.02233782596886158,
                    0.14537613093852997,
                    -0.13386328518390656,
                    -0.061898667365312576,
                    0.03277992084622383,
                    0.2506084740161896,
                    -0.0725206807255745,
                    0.0006067228387109935,
                    0.14085592329502106,
                    0.053669434040784836,
                    -0.04009724035859108,
                    0.14994581043720245,
                    -0.043126288801431656
                ],
                [
                    0.30502820014953613,
                    0.17062805593013763,
                    0.06638476252555847,
                    0.2318372130393982,
                    0.36791834235191345,
                    0.3118647336959839,
                    0.30871301889419556,
                    0.2566750645637512,
                    0.0417255163192749,
                    -0.17379139363765717,
                    -0.20048575103282928,
                    -0.15485845506191254,
                    -0.07896560430526733,
                    -0.1491994559764862,
                    -0.045092009007930756,
                    0.05700447037816048,
                    -0.05851173773407936,
                    0.005841045640408993,
                    -0.009478682652115822,
                    -0.130822092294693,
                    0.02265964075922966,
                    0.051244184374809265,
                    0.098020039498806,
                    -0.15308736264705658,
                    0.15591329336166382,
                    0.12100199609994888,
                    -0.2169775664806366,
                    -0.2653798758983612,
                    0.05554588511586189,
                    -0.13380838930606842,
                    0.11398486793041229,
                    0.06133739650249481,
                    0.050291649997234344,
                    0.047310199588537216,
                    -0.041124891489744186,
                    -0.04778576269745827,
                    -0.11535017192363739,
                    0.07533449679613113,
                    0.02505139261484146,
                    0.12739621102809906,
                    0.09958183765411377,
                    -0.07709799706935883,
                    0.15394116938114166,
                    0.019433967769145966,
                    -0.019009485840797424,
                    -0.27738192677497864,
                    -0.011295794509351254,
                    -0.19962178170681,
                    -0.34116479754447937,
                    -0.251303106546402,
                    -0.1675015389919281,
                    -0.30713507533073425,
                    -0.27324649691581726,
                    -0.14262884855270386,
                    -0.1729709357023239,
                    -0.04600667208433151,
                    0.011703398078680038,
                    -0.08613407611846924,
                    -0.20820105075836182,
                    0.14650291204452515,
                    0.07268120348453522,
                    0.17741809785366058,
                    -0.24938751757144928,
                    -0.10980768501758575,
                    -0.04663391783833504,
                    -0.03707291558384895,
                    -0.1844782680273056,
                    -0.09909936785697937,
                    -0.016301287338137627,
                    -0.21572165191173553,
                    -0.2146194875240326,
                    0.10034377872943878,
                    -0.15069155395030975,
                    0.0705629214644432,
                    -0.061395902186632156,
                    -0.2282513827085495,
                    -0.3080039620399475,
                    -0.3149840235710144,
                    0.09230469167232513,
                    -0.27836114168167114,
                    -0.009481062181293964,
                    0.08439100533723831,
                    -0.029361296445131302,
                    0.07072097063064575,
                    -0.05007072910666466,
                    0.006766609847545624,
                    0.15081758797168732,
                    -0.16568808257579803,
                    0.0819673165678978,
                    -0.04894834756851196
                ],
                [
                    -0.1513744443655014,
                    -0.12437471002340317,
                    0.023214075714349747,
                    -0.06354845315217972,
                    -0.0761682316660881,
                    -0.2609727382659912,
                    0.10771246999502182,
                    0.024236192926764488,
                    -0.26191040873527527,
                    -0.09824449568986893,
                    -0.028959279879927635,
                    0.17625638842582703,
                    0.11077246814966202,
                    -0.17011097073554993,
                    0.13742637634277344,
                    0.1775680035352707,
                    0.06075387820601463,
                    0.03712686151266098,
                    -0.08819505572319031,
                    0.21692383289337158,
                    -0.051086410880088806,
                    -0.0994487851858139,
                    0.003425749484449625,
                    -0.17699623107910156,
                    -0.032811034470796585,
                    -0.11718173325061798,
                    0.19880984723567963,
                    -0.0451662540435791,
                    -0.1460065394639969,
                    -0.09341908991336823,
                    -0.006230472587049007,
                    -0.04042060673236847,
                    0.17444613575935364,
                    0.07574474066495895,
                    -0.12837882339954376,
                    0.12014338374137878,
                    -0.06646528095006943,
                    0.10445420444011688,
                    0.022529806941747665,
                    -0.12733814120292664,
                    -0.13817138969898224,
                    0.05149799957871437,
                    -0.07737520337104797,
                    -0.13069188594818115,
                    0.13057883083820343,
                    -0.1824789196252823,
                    -0.029067300260066986,
                    0.05856599658727646,
                    -0.12059221416711807,
                    -0.005000925622880459,
                    0.08472152054309845,
                    -0.014907407574355602,
                    -0.10179419815540314,
                    0.39092114567756653,
                    -0.10767257958650589,
                    -0.17351028323173523,
                    0.24000999331474304,
                    0.10922926664352417,
                    -0.1081930547952652,
                    0.17073215544223785,
                    -0.2131699025630951,
                    -0.011990576982498169,
                    0.13996662199497223,
                    -0.2611565887928009,
                    0.07085723429918289,
                    0.013463613577187061,
                    -0.1398627907037735,
                    -0.03273497894406319,
                    -0.02941686101257801,
                    -0.24124093353748322,
                    -0.0357147678732872,
                    0.31481602787971497,
                    -0.29009440541267395,
                    0.1924186646938324,
                    0.005114449188113213,
                    -0.45712435245513916,
                    0.18746307492256165,
                    0.0738115981221199,
                    -0.05613312870264053,
                    0.05405142530798912,
                    0.04147951304912567,
                    -0.11308629810810089,
                    -0.09870226681232452,
                    -0.05222061276435852,
                    0.05953729897737503,
                    -0.008305168710649014,
                    0.15162687003612518,
                    -0.24291613698005676,
                    -0.23502002656459808,
                    -0.182150200009346
                ],
                [
                    -0.1480698138475418,
                    0.2154696136713028,
                    -0.018831713125109673,
                    0.08317825943231583,
                    0.06931428611278534,
                    0.0303186122328043,
                    -0.02771179936826229,
                    -0.029086308553814888,
                    -0.09778804332017899,
                    0.001855078968219459,
                    -0.09492480754852295,
                    0.13607892394065857,
                    0.07702984660863876,
                    -0.1953119933605194,
                    0.21119238436222076,
                    0.02431529387831688,
                    0.09412094205617905,
                    0.008165422827005386,
                    -0.04475300386548042,
                    0.11120934784412384,
                    -0.1864158660173416,
                    -0.01359985675662756,
                    -0.06756564229726791,
                    0.1369253695011139,
                    -0.08356181532144547,
                    0.11500858515501022,
                    -0.02334476076066494,
                    0.02628522925078869,
                    0.10207311064004898,
                    -0.03499629721045494,
                    0.0669383555650711,
                    0.1948239505290985,
                    -0.016552528366446495,
                    -0.12221059948205948,
                    -0.07842908799648285,
                    -0.08506892621517181,
                    0.08390364795923233,
                    -0.0998203381896019,
                    -0.07648136466741562,
                    -0.17567981779575348,
                    0.2087412178516388,
                    0.04081270843744278,
                    -0.11812105774879456,
                    -0.1196649894118309,
                    -0.024019934237003326,
                    -0.2615368962287903,
                    -0.006011090707033873,
                    0.07594211399555206,
                    0.15324242413043976,
                    0.01534215360879898,
                    -0.051244355738162994,
                    0.055951569229364395,
                    -0.1299237459897995,
                    0.11072882264852524,
                    0.008398782461881638,
                    -0.01972838118672371,
                    -0.05220282822847366,
                    0.025129079818725586,
                    -0.08827219903469086,
                    0.01453437190502882,
                    0.08840487897396088,
                    -0.12345771491527557,
                    -0.11192980408668518,
                    -0.010181969963014126,
                    -0.05231143534183502,
                    -0.16161389648914337,
                    -0.0013305271277204156,
                    -0.1794743835926056,
                    0.08020886033773422,
                    -0.18195407092571259,
                    0.002388681983575225,
                    0.11989586800336838,
                    0.023437827825546265,
                    -0.1340104639530182,
                    0.22222141921520233,
                    -0.1643345057964325,
                    0.1236925944685936,
                    0.19120006263256073,
                    -0.1936413198709488,
                    -0.13216565549373627,
                    -0.05253516882658005,
                    -0.1143910214304924,
                    -0.11675697565078735,
                    0.062052249908447266,
                    -0.23351718485355377,
                    0.01765652932226658,
                    0.05768324434757233,
                    -0.022060640156269073,
                    0.04886779934167862,
                    0.06550165265798569
                ],
                [
                    0.0837395191192627,
                    0.002115063602104783,
                    0.19693908095359802,
                    0.06915595382452011,
                    -0.1750887632369995,
                    -0.15271613001823425,
                    0.06294168531894684,
                    -0.0009488598443567753,
                    0.06460324674844742,
                    -0.09000357240438461,
                    -0.007924183271825314,
                    -0.1781110316514969,
                    0.03595621883869171,
                    0.16231368482112885,
                    0.16405712068080902,
                    -0.19056810438632965,
                    0.013147098943591118,
                    0.1280909776687622,
                    -0.17228083312511444,
                    -0.07723111659288406,
                    -0.1716223657131195,
                    -0.02500939927995205,
                    -0.1517219841480255,
                    0.09660297632217407,
                    -0.022638311609625816,
                    -0.0006572187412530184,
                    0.0962877869606018,
                    0.15615017712116241,
                    -0.08823409676551819,
                    0.029106931760907173,
                    -0.10948067158460617,
                    -0.050993725657463074,
                    -0.09543763846158981,
                    0.11252733319997787,
                    0.018143856897950172,
                    -0.011853238567709923,
                    -0.06677166372537613,
                    -0.0013955235481262207,
                    -0.017377447336912155,
                    -0.04757361486554146,
                    -0.01862797513604164,
                    0.10958629846572876,
                    0.04401781037449837,
                    -0.11992944031953812,
                    0.0716824010014534,
                    0.05103129893541336,
                    0.04493416100740433,
                    -0.25073835253715515,
                    -0.19804495573043823,
                    -0.06166182458400726,
                    0.04131374880671501,
                    -0.007228510454297066,
                    -0.11479929089546204,
                    -0.04213141277432442,
                    -0.13923895359039307,
                    0.06437597423791885,
                    -0.17487500607967377,
                    0.07853556424379349,
                    0.09057733416557312,
                    -0.006656695157289505,
                    -0.13793881237506866,
                    -0.3217063844203949,
                    -0.0035497662611305714,
                    -0.23977114260196686,
                    -0.01988901011645794,
                    -0.15232346951961517,
                    -0.08735302835702896,
                    0.018259963020682335,
                    -0.015352784655988216,
                    -0.06334076076745987,
                    0.06366489082574844,
                    0.004916925448924303,
                    0.0371331162750721,
                    -0.2712620496749878,
                    0.0629391074180603,
                    0.06355466693639755,
                    -0.14091640710830688,
                    0.03495573252439499,
                    0.06967924535274506,
                    0.13186761736869812,
                    0.1725016087293625,
                    0.02441558986902237,
                    -0.005199525039643049,
                    -0.10047266632318497,
                    0.06260280311107635,
                    -0.09146588295698166,
                    -0.008614396676421165,
                    -0.19722706079483032,
                    0.2150428742170334,
                    0.03359084948897362
                ]
            ],
            "kernel_width": 3,
            "kernel_height": 3,
            "kernel_stride_x": 1,
            "kernel_stride_y": 1,
            "pad_x": 0,
            "pad_y": 0,
            "biases": [
                -0.02889469638466835,
                -0.12043982744216919,
                -0.07274162024259567,
                -0.7711671590805054,
                -0.08465452492237091,
                -0.0017931103939190507,
                -0.4787456691265106,
                -0.052539169788360596,
                -0.0206960067152977,
                0.22374121844768524,
                -0.4198361337184906,
                -0.12752555310726166,
                0.44313764572143555,
                0.011410665698349476,
                -0.1070059984922409,
                -0.09718690067529678,
                -0.16860553622245789,
                -0.12877127528190613,
                0.10161874443292618,
                0.20622417330741882
            ]
        },
        {
            "name": "pool2",
            "type": "LAYER_MAXPOOL",
            "pool_width": 2,
            "pool_height": 2,
            "pool_stride_x": 2,
            "pool_stride_y": 2
        },
        {
            "name": "out",
            "type": "LAYER_FULLY_CONNECTED",
            "units": 10,
            "weight": [
                [
                    -0.021055644378066063,
                    -0.014882616698741913,
                    -0.0678006038069725,
                    -0.013803642243146896,
                    -0.049929991364479065,
                    0.010406277142465115,
                    -0.0448940172791481,
                    -0.013188596814870834,
                    -0.032035261392593384,
                    0.03124411217868328,
                    -0.012806344777345657,
                    -0.005454439669847488,
                    -0.0010773424291983247,
                    -0.020256290212273598,
                    -0.062379106879234314,
                    -0.0182234738022089,
                    -0.04181165248155594,
                    -0.019507188349962234,
                    -0.061846889555454254,
                    -0.00010007541277445853,
                    -0.016945887356996536,
                    -0.024048594757914543,
                    0.025204693898558617,
                    0.018461786210536957,
                    0.03926717862486839,
                    0.023489605635404587,
                    0.02247224748134613,
                    -0.017871402204036713,
                    -0.017604028806090355,
                    0.013996004126966,
                    -0.08559828251600266,
                    -0.04973744601011276,
                    -0.05116976797580719,
                    0.006520097143948078,
                    -0.03161705657839775,
                    -0.0031256612855941057,
                    0.011707296594977379,
                    0.0035660455469042063,
                    0.01509347464889288,
                    0.03234619274735451,
                    0.010477510280907154,
                    -0.0064939712174236774,
                    -0.035776376724243164,
                    0.03462940454483032,
                    -0.09497755020856857,
                    -0.05332290753722191,
                    -0.048668909817934036,
                    -0.03743871673941612,
                    -0.06335974484682083,
                    0.02406429313123226,
                    -0.007867672480642796,
                    0.010951165109872818,
                    0.001883246935904026,
                    0.03994840011000633,
                    0.05077466368675232,
                    0.014253439381718636,
                    -0.05282403156161308,
                    0.008146697655320168,
                    -0.10520552098751068,
                    -0.03560132905840874,
                    -0.10842876136302948,
                    -0.007684319745749235,
                    -0.015372658148407936,
                    -0.013747787103056908,
                    0.0024480530992150307,
                    0.03490037843585014,
                    0.021020974963903427,
                    0.01026816014200449,
                    0.024438271299004555,
                    0.001304662087932229,
                    -0.04066586121916771,
                    -0.00672401487827301,
                    -0.08553369343280792,
                    -0.013686226680874825,
                    -0.08488432317972183,
                    0.03571595996618271,
                    0.0033214548602700233,
                    0.017150405794382095,
                    0.04458565637469292,
                    -0.022634169086813927,
                    0.030908839777112007,
                    0.012953123077750206,
                    0.03544854372739792,
                    -0.0005449183518067002,
                    -0.03131893277168274,
                    0.005567321088165045,
                    -0.11510079354047775,
                    -0.034568507224321365,
                    -0.10067172348499298,
                    -0.01578870601952076,
                    0.03041064366698265,
                    -0.017443591728806496,
                    0.029075058177113533,
                    0.00669713644310832,
                    0.007759064435958862,
                    0.0033497235272079706,
                    0.023095009848475456,
                    0.018196187913417816,
                    -0.013663863763213158,
                    0.030175261199474335,
                    -0.06394104659557343,
                    -0.042341094464063644,
                    -0.110020212829113,
                    0.03224138915538788,
                    0.027849437668919563,
                    0.0176316499710083,
                    -0.0008939565159380436,
                    0.0013766619376838207,
                    -0.005627769511193037,
                    0.0011290933471173048,
                    0.018133221194148064,
                    0.01779104955494404,
                    -0.030922869220376015,
                    0.020197754725813866,
                    -0.027754023671150208,
                    0.022100910544395447,
                    -0.0737251341342926,
                    0.009665937162935734,
                    0.047831058502197266,
                    0.04017750918865204,
                    0.01901610754430294,
                    0.002645152620971203,
                    -0.01772950030863285,
                    0.020695261657238007,
                    0.008593125268816948,
                    0.0019237537635490298,
                    -0.05990156903862953,
                    -0.030033152550458908,
                    -0.04606534168124199,
                    0.01445399783551693,
                    -0.04406018182635307,
                    -0.003901196178048849,
                    0.06194863095879555,
                    0.05479511246085167,
                    0.018365222960710526,
                    0.013621775433421135,
                    0.0015308826696127653,
                    0.04321182891726494,
                    0.005285418592393398,
                    0.015338125638663769,
                    -0.0052047655917704105,
                    -0.025931956246495247,
                    -0.047675780951976776,
                    -0.0178935918956995,
                    0.030256161466240883,
                    -0.01960381120443344,
                    0.033431705087423325,
                    0.05687538906931877,
                    0.004356411751359701,
                    -0.0262621883302927,
                    -0.008514583110809326,
                    -0.020801842212677002,
                    -0.019052641466259956,
                    0.003651878796517849,
                    -0.032435063272714615,
                    -0.008398173376917839,
                    -0.05461832508444786,
                    -0.027964387089014053,
                    0.001959786284714937,
                    -0.05573147162795067,
                    -0.05541425198316574,
                    0.009499553591012955,
                    0.001170679577626288,
                    -0.00709230313077569,
                    -0.020253414288163185,
                    -0.05812523886561394,
                    -0.01935587078332901,
                    -0.021833650767803192,
                    -0.012569262646138668,
                    0.036114826798439026,
                    -0.033785417675971985,
                    -0.016458740457892418,
                    -0.03193008154630661,
                    0.08795158565044403,
                    0.03618944063782692,
                    0.04149279743432999,
                    0.017261596396565437,
                    -0.0019213445484638214,
                    0.012574723921716213,
                    -0.02995770424604416,
                    0.009170924313366413,
                    0.008943678811192513,
                    -0.05602390319108963,
                    -0.01412016712129116,
                    0.016591407358646393,
                    -0.01729203574359417,
                    -0.06336010247468948,
                    0.002323930151760578,
                    0.02386113628745079,
                    -0.01440843753516674,
                    -0.04061406850814819,
                    -0.05443054810166359,
                    -0.030767561867833138,
                    -0.024830451235175133,
                    0.006649816874414682,
                    -0.0020020767115056515,
                    -0.025797054171562195,
                    0.005242497194558382,
                    -0.057137466967105865,
                    -0.022324299439787865,
                    -0.050781361758708954,
                    0.013817261904478073,
                    -0.029353560879826546,
                    -0.08926132321357727,
                    -0.02581314742565155,
                    -0.006485825404524803,
                    -0.029428165405988693,
                    -0.027412988245487213,
                    -0.006317521445453167,
                    -0.01892705075442791,
                    -0.013178955763578415,
                    0.01830638013780117,
                    -0.017843447625637054,
                    -0.025475449860095978,
                    0.00991103332489729,
                    0.005587145686149597,
                    -0.024643609300255775,
                    -0.03395102918148041,
                    -0.0329124815762043,
                    -0.03255195915699005,
                    -0.014651326462626457,
                    -0.023724794387817383,
                    0.03974394127726555,
                    0.01669285073876381,
                    0.0012560137547552586,
                    0.013784441165626049,
                    -0.031322598457336426,
                    -0.039402980357408524,
                    0.0004034042649436742,
                    0.0076883891597390175,
                    -0.05296401306986809,
                    0.007785241585224867,
                    -0.0017898641526699066,
                    0.021608028560876846,
                    -0.03922005370259285,
                    0.0071983798407018185,
                    -0.012531503103673458,
                    0.010188675485551357,
                    0.008340627886354923,
                    0.01769961789250374,
