{
  "labels": [
      "teh hijau",
      "sirsak",
      "sirih",
      "pegagang",
      "mengkudu",
      "mahoni",
      "kumis kucing",
      "jeruk",
      "jambu biji",
      "bayam merah"
  ],
  "layers": [
      {
          "name": "image",
          "type": "LAYER_INPUT",
          "width": 64,
          "height": 64,
          "depth": 3
      },
      {
          "name": "conv1",
          "type": "LAYER_CONV",
          "units": 10,
          "weight": [
              [
                  0.03083011694252491,
                  -0.27754658460617065,
                  0.22186097502708435,
                  -0.10339679569005966,
                  -0.014328370802104473,
                  -0.13284897804260254,
                  -0.06056661903858185,
                  0.09814487397670746,
                  -0.06981538236141205,
                  -0.07357704639434814,
                  -0.09847430884838104,
                  -0.004558239597827196,
                  0.15228772163391113,
                  0.06228625029325485,
                  -0.12238363921642303,
                  0.10185704380273819,
                  0.011436869390308857,
                  -0.022510716691613197,
                  -0.10013878345489502,
                  0.011671946384012699,
                  -0.10979655385017395,
                  -0.10291590541601181,
                  -0.25577011704444885,
                  -0.07849153131246567,
                  0.06380496919155121,
                  -0.10915521532297134,
                  -0.11300419270992279,
                  -0.23136422038078308,
                  0.16271008551120758,
                  0.02346482127904892,
                  0.004350494593381882,
                  -0.046470481902360916,
                  0.17040061950683594,
                  0.12332337349653244,
                  0.049937617033720016,
                  -0.0737176313996315,
                  0.12878556549549103,
                  0.05335702747106552,
                  -0.08708037436008453,
                  0.037780214101076126,
                  0.034419573843479156,
                  0.12828651070594788,
                  -0.0029888134449720383,
                  0.05634595826268196,
                  0.04288354888558388,
                  0.13263092935085297,
                  0.04953382536768913,
                  -0.05747039616107941,
                  -0.052682437002658844,
                  0.09972450882196426,
                  -0.07742113620042801,
                  -0.008403339423239231,
                  0.004360651597380638,
                  0.19155633449554443,
                  0.11442583799362183,
                  -0.061453163623809814,
                  0.04659885913133621,
                  0.058783046901226044,
                  0.1212783083319664,
                  0.023444602265954018,
                  -0.16094952821731567,
                  0.1631171852350235,
                  0.11443979293107986,
                  0.14226576685905457,
                  0.3288053870201111,
                  -0.15598651766777039,
                  0.08976151794195175,
                  0.12961113452911377,
                  -0.015761209651827812,
                  -0.13750335574150085,
                  0.09882577508687973,
                  -0.07619993388652802,
                  -0.35698866844177246,
                  0.13277164101600647,
                  -0.12441467493772507
              ],
              [
                  0.2177247554063797,
                  -0.0335974395275116,
                  -0.025695351883769035,
                  0.23102696239948273,
                  0.1975257694721222,
                  -0.3003358542919159,
                  0.029003754258155823,
                  0.0006419258425012231,
                  0.0366336964070797,
                  0.3250855803489685,
                  0.0743345245718956,
                  -0.11898745596408844,
                  0.03323223069310188,
                  0.08466599136590958,
                  -0.15463656187057495,
                  -0.13018837571144104,
                  -0.08605896681547165,
                  0.05475986748933792,
                  0.01306324265897274,
                  0.12949645519256592,
                  -0.11592983454465866,
                  -0.04636513441801071,
                  -0.2159382551908493,
                  0.0940811038017273,
                  -0.04996852949261665,
                  -0.2715078592300415,
                  -0.26466119289398193,
                  0.15789391100406647,
                  0.06415380537509918,
                  0.07659389823675156,
                  0.043156154453754425,
                  -0.1546989381313324,
                  0.2591381072998047,
                  -0.02651413343846798,
                  0.17506180703639984,
                  -0.2110995650291443,
                  0.007400124333798885,
                  0.002078909892588854,
                  0.17078949511051178,
                  -0.16474975645542145,
                  -0.039374589920043945,
                  -0.034995317459106445,
                  -0.09753859788179398,
                  0.14077027142047882,
                  0.09987829625606537,
                  -0.17175568640232086,
                  -0.3022380471229553,
                  0.07029122859239578,
                  -0.16198581457138062,
                  0.03839091956615448,
                  0.07573840022087097,
                  0.18447083234786987,
                  0.1057153195142746,
                  0.21393828094005585,
                  0.2637464106082916,
                  -0.0560167171061039,
                  0.03100539743900299,
                  0.18827539682388306,
                  0.04670766741037369,
                  0.1581910401582718,
                  0.006491909734904766,
                  -0.17161379754543304,
                  0.05649213865399361,
                  0.2564087212085724,
                  0.11080128699541092,
                  -0.10349223762750626,
                  0.17307373881340027,
                  -0.10680294781923294,
                  0.19717365503311157,
                  0.20066878199577332,
                  0.1954466700553894,
                  -0.12333524227142334,
                  0.14716291427612305,
                  0.28022900223731995,
                  0.16476617753505707
              ],
              [
                  0.16434818506240845,
                  0.10401125997304916,
                  0.1267423927783966,
                  -0.059419047087430954,
                  0.22368010878562927,
                  -0.03240879252552986,
                  0.1533832550048828,
                  -0.15492253005504608,
                  -0.06372635811567307,
                  0.09024438261985779,
                  -0.2565014958381653,
                  0.2435377687215805,
                  0.15145179629325867,
                  0.09480060636997223,
                  -0.005126837641000748,
                  0.00882970355451107,
                  -0.13065001368522644,
                  -0.04412347078323364,
                  -0.012579625472426414,
                  -0.16462190449237823,
                  0.06938869506120682,
                  -0.3077852725982666,
                  0.00362426252104342,
                  0.028742576017975807,
                  -0.06135907769203186,
                  -0.18412208557128906,
                  0.026672787964344025,
                  0.01323561742901802,
                  -0.16619661450386047,
                  0.03614794835448265,
                  0.05206785723567009,
                  0.05928487330675125,
                  -0.2052624523639679,
                  -0.11142302304506302,
                  0.10714436322450638,
                  0.1064680889248848,
                  0.14088965952396393,
                  -0.021461376920342445,
                  -0.00559248449280858,
                  0.13486459851264954,
                  0.13787302374839783,
                  -0.2305983603000641,
                  -0.018847789615392685,
                  -0.10119509696960449,
                  -0.08531317859888077,
                  0.033526696264743805,
                  -0.17596806585788727,
                  -0.07957123965024948,
                  -0.27863311767578125,
                  -0.1525336503982544,
                  0.02584736980497837,
                  -0.10448578745126724,
                  0.09674696624279022,
                  0.24487163126468658,
                  -0.12154795974493027,
                  -0.034257497638463974,
                  0.011021043173968792,
                  0.1276106834411621,
                  0.13081081211566925,
                  0.2065049707889557,
                  0.14628304541110992,
                  0.057047564536333084,
                  0.05619562789797783,
                  -0.1845274716615677,
                  0.17892864346504211,
                  0.23454667627811432,
                  -0.05579793080687523,
                  0.031673431396484375,
                  -0.04238414764404297,
                  0.08159822970628738,
                  -0.09029032289981842,
                  -0.06596944481134415,
                  0.21061940491199493,
                  0.16065306961536407,
                  -0.06550972163677216
              ],
              [
                  -0.031421028077602386,
                  0.0750790685415268,
                  -0.06364082545042038,
                  0.08287011086940765,
                  -0.12101776897907257,
                  0.018750624731183052,
                  -0.12046710401773453,
                  0.20562131702899933,
                  -0.16375435888767242,
                  0.17314626276493073,
                  -0.025475485250353813,
                  -0.003472857177257538,
                  0.11590828001499176,
                  0.025315318256616592,
                  0.043389804661273956,
                  0.12806162238121033,
                  -0.12591716647148132,
                  -0.048007991164922714,
                  0.09584155678749084,
                  0.0882645845413208,
                  -0.020977508276700974,
                  0.2620324492454529,
                  0.06938055902719498,
                  -0.019647832959890366,
                  0.012167640961706638,
                  0.09705372154712677,
                  -0.27854233980178833,
                  0.020584145560860634,
                  -0.06348320096731186,
                  0.13539783656597137,
                  0.03985174000263214,
                  -0.148034930229187,
                  -0.08588076382875443,
                  0.12172611802816391,
                  -0.07640770822763443,
                  -0.0329778753221035,
                  0.03176205977797508,
                  -0.028678881004452705,
                  -0.02570810541510582,
                  0.07495414465665817,
                  0.10368739068508148,
                  -0.12463216483592987,
                  -0.02260780520737171,
                  -0.0008904627757146955,
                  0.12214626371860504,
                  -0.008491447195410728,
                  -0.2354019582271576,
                  0.007950355298817158,
                  0.07819146662950516,
                  0.12405098974704742,
                  0.03380094841122627,
                  -0.04355204105377197,
                  0.10439876466989517,
                  0.12087589502334595,
                  0.18246781826019287,
                  0.09330467134714127,
                  -0.042962316423654556,
                  0.09811042249202728,
                  0.2557710111141205,
                  0.22863976657390594,
                  0.0204093586653471,
                  0.04933471977710724,
                  0.027079954743385315,
                  0.16475805640220642,
                  0.15514053404331207,
                  0.21886126697063446,
                  -0.029809514060616493,
                  0.08796042948961258,
                  0.08498694747686386,
                  0.0721074566245079,
                  0.1411695033311844,
                  0.16955308616161346,
                  -0.08807086199522018,
                  0.0755922719836235,
                  0.07630762457847595
              ],
              [
                  0.0025632320903241634,
                  -0.05369405448436737,
                  0.15305471420288086,
                  -0.07170655578374863,
                  0.039234843105077744,
                  -0.11759264022111893,
                  -0.0379922017455101,
                  0.04517047852277756,
                  0.23621486127376556,
                  0.013160714879631996,
                  0.06858700513839722,
                  -0.03663162514567375,
                  -0.00424385629594326,
                  0.06640183180570602,
                  0.02279958501458168,
                  -0.2518957853317261,
                  0.07151135802268982,
                  0.0625382736325264,
                  0.022722966969013214,
                  0.08821610361337662,
                  -0.0931701734662056,
                  -0.08674302697181702,
                  0.22185660898685455,
                  0.1616884022951126,
                  0.08217614889144897,
                  0.06829041242599487,
                  -0.08917646110057831,
                  -0.15987326204776764,
                  0.02309590019285679,
                  0.03995347395539284,
                  -0.1752372682094574,
                  -0.2787298858165741,
                  0.05677008628845215,
                  0.13532471656799316,
                  0.09181641042232513,
                  0.028765732422471046,
                  0.1895742565393448,
                  -0.08425485342741013,
                  -0.033804766833782196,
                  0.3493054509162903,
                  -0.12608617544174194,
                  0.16160842776298523,
                  -0.19311782717704773,
                  0.17916066944599152,
                  0.05442412570118904,
                  -0.015723852440714836,
                  -0.036743830889463425,
                  0.029934031888842583,
                  -0.12446772307157516,
                  0.14761115610599518,
                  0.009717154316604137,
                  -0.12070083618164062,
                  -0.04574103653430939,
                  0.0807807445526123,
                  0.05308479070663452,
                  0.028348393738269806,
                  -0.08875669538974762,
                  0.059540510177612305,
                  0.11016552150249481,
                  0.17536062002182007,
                  0.0007021073251962662,
                  0.1268518716096878,
                  -0.08085142821073532,
                  0.12220729142427444,
                  0.18929752707481384,
                  0.06947885453701019,
                  -0.14989905059337616,
                  -0.14965438842773438,
                  0.11126402765512466,
                  -0.1969919353723526,
                  0.05958893895149231,
                  -0.05429989844560623,
                  0.1370127648115158,
                  0.1946897953748703,
                  0.05521751940250397
              ],
              [
                  0.09780039638280869,
                  0.1940726637840271,
                  -0.013870099559426308,
                  0.19163839519023895,
                  -0.22448742389678955,
                  -0.003528658766299486,
                  0.1378709077835083,
                  -0.113777756690979,
                  -0.08563166856765747,
                  0.015402469784021378,
                  -0.019629305228590965,
                  0.13904714584350586,
                  -0.062415242195129395,
                  -0.09041599184274673,
                  0.055955033749341965,
                  0.046298932284116745,
                  0.03954337537288666,
                  -0.17154580354690552,
                  0.02857755310833454,
                  0.0040873135440051556,
                  -0.02875460870563984,
                  -0.08367017656564713,
                  -0.01458113081753254,
                  0.06019534915685654,
                  0.10992487519979477,
                  0.06631452590227127,
                  -0.0021274182945489883,
                  0.18246617913246155,
                  0.05774058401584625,
                  -0.18245062232017517,
                  0.07285702228546143,
                  0.028313323855400085,
                  -0.20062001049518585,
                  -0.2620202600955963,
                  -0.05602655187249184,
                  0.05042252689599991,
                  -0.18391694128513336,
                  0.06440656632184982,
                  0.06686966121196747,
                  -0.015166131779551506,
                  0.028220150619745255,
                  0.04271852225065231,
                  0.005375111475586891,
                  -0.03919757902622223,
                  -0.19198784232139587,
                  0.03753894194960594,
                  -0.10957947373390198,
                  0.16774266958236694,
                  0.014855075627565384,
                  -0.02037958614528179,
                  0.14567036926746368,
                  0.20383478701114655,
                  0.16672304272651672,
                  0.16746987402439117,
                  0.2103269249200821,
                  0.05056266114115715,
                  0.21586382389068604,
                  -0.11366294324398041,
                  -0.04597010463476181,
                  0.09699112176895142,
                  0.12500055134296417,
                  0.1372167319059372,
                  0.07265911251306534,
                  -0.12446385622024536,
                  -0.021174095571041107,
                  0.2609195113182068,
                  0.24386927485466003,
                  0.22150501608848572,
                  -0.0882766917347908,
                  -0.036207668483257294,
                  0.18101154267787933,
                  -0.0362919382750988,
                  -0.06792416423559189,
                  -0.006992357783019543,
                  0.07486662268638611
              ],
              [
                  -0.3241035044193268,
                  0.148972749710083,
                  0.16735689342021942,
                  -0.012899699620902538,
                  0.030187351629137993,
                  -0.08062563091516495,
                  0.06616446375846863,
                  -0.1992434561252594,
                  -0.07923489809036255,
                  0.08035141974687576,
                  0.11730565875768661,
                  0.23139473795890808,
                  -0.08752062171697617,
                  -0.025848617777228355,
                  0.10592280328273773,
                  -0.006572313141077757,
                  -0.17479261755943298,
                  0.030480794608592987,
                  0.1369170844554901,
                  -0.0973968356847763,
                  0.03765891119837761,
                  -0.05699421837925911,
                  -0.1450750231742859,
                  -0.11417434364557266,
                  0.13675908744335175,
                  0.017880510538816452,
                  0.06780461966991425,
                  -0.29741641879081726,
                  -0.14655651152133942,
                  -0.11228413879871368,
                  0.13846877217292786,
                  0.048268456012010574,
                  -0.05393889173865318,
                  -0.09920783340930939,
                  -0.001289285602979362,
                  0.08311408758163452,
                  0.07016570121049881,
                  0.037667836993932724,
                  -0.19366556406021118,
                  -0.011533252894878387,
                  -0.06647904962301254,
                  0.10874110460281372,
                  -0.01223339419811964,
                  -0.3553914725780487,
                  0.18843750655651093,
                  -0.015992633998394012,
                  -0.19761118292808533,
                  -0.07897968590259552,
                  -0.015952423214912415,
                  0.2304709553718567,
                  0.010413155891001225,
                  0.1873445063829422,
                  0.14124374091625214,
                  -0.08273112028837204,
                  -0.13030187785625458,
                  -0.06076609343290329,
                  -0.11640091985464096,
                  -0.15571339428424835,
                  0.17394669353961945,
                  0.058519426733255386,
                  0.09854193776845932,
                  -0.1558745950460434,
                  -0.07406912744045258,
                  -0.08450260758399963,
                  0.06240120157599449,
                  -0.08271992206573486,
                  -0.03564637899398804,
                  0.00393166346475482,
                  0.06463725119829178,
                  0.08692635595798492,
                  0.10834421217441559,
                  -0.3316262662410736,
                  -0.04156429320573807,
                  0.0985460951924324,
                  -0.1550372838973999
              ],
              [
                  0.010326696559786797,
                  -0.15285271406173706,
                  -0.0007160466630011797,
                  -0.14129944145679474,
                  0.07589080929756165,
                  -0.01113859936594963,
                  -0.023633791133761406,
                  0.05406394228339195,
                  0.054750628769397736,
                  0.1760893017053604,
                  -0.08248855173587799,
                  -0.017739811912178993,
                  -0.11233066022396088,
                  -0.102859728038311,
                  -0.24229271709918976,
                  -0.037322744727134705,
                  0.027734151110053062,
                  0.14128583669662476,
                  0.02456761710345745,
                  0.04771154373884201,
                  0.10811463743448257,
                  -0.09863248467445374,
                  -0.1335117220878601,
                  0.10252339392900467,
                  -0.2336246371269226,
                  0.05708352103829384,
                  -0.20829923450946808,
                  0.017634030431509018,
                  -0.11863604933023453,
                  -0.027346372604370117,
                  0.07888712733983994,
                  -0.07496161013841629,
                  -0.031543292105197906,
                  -0.09200304001569748,
                  0.06115471571683884,
                  0.3063715696334839,
                  0.017757412046194077,
                  -0.02228454314172268,
                  -0.05838226154446602,
                  -0.011235736310482025,
                  -0.13811416923999786,
                  0.13261759281158447,
                  0.06243499368429184,
                  -0.14444369077682495,
                  -0.1483393758535385,
                  0.03380521759390831,
                  -0.06714668869972229,
                  0.1592656373977661,
                  -0.047663696110248566,
                  0.09173940122127533,
                  -0.08442530035972595,
                  0.005831318907439709,
                  0.12156420946121216,
                  -0.20501911640167236,
                  -0.04480208456516266,
                  -0.08380959928035736,
                  -0.008200540207326412,
                  0.14582891762256622,
                  -0.10694043338298798,
                  -0.0564737394452095,
                  -0.17685624957084656,
                  -0.053536418825387955,
                  -0.03507336601614952,
                  0.0339851938188076,
                  0.19991499185562134,
                  0.18208004534244537,
                  -0.01185383927077055,
                  -0.011030446738004684,
                  0.07846935838460922,
                  0.2341374009847641,
                  0.21500711143016815,
                  0.26598504185676575,
                  -0.17522048950195312,
                  -0.2757100462913513,
                  0.0025601473171263933
              ],
              [
                  -0.021122273057699203,
                  -0.049298569560050964,
                  -0.03754890710115433,
                  0.053323231637477875,
                  -0.12283173948526382,
                  0.019914189353585243,
                  -0.06925114244222641,
                  -0.2650079131126404,
                  0.152042955160141,
                  -0.22144994139671326,
                  -0.048589203506708145,
                  0.10518724471330643,
                  0.09854086488485336,
                  -0.07560524344444275,
                  -0.14102396368980408,
                  -0.04292066767811775,
                  0.12768743932247162,
                  -0.010457993485033512,
                  0.02254626713693142,
                  0.09977389127016068,
                  0.13894440233707428,
                  -0.03551000729203224,
                  -0.0021485236939042807,
                  -0.025801923125982285,
                  0.057047825306653976,
                  0.11353185027837753,
                  -0.04960158094763756,
                  -0.07991896569728851,
                  -0.0035254142712801695,
                  0.04162424057722092,
                  -0.021186670288443565,
                  -0.004681732039898634,
                  -0.050324492156505585,
                  -0.16216541826725006,
                  -0.03917929157614708,
                  0.2045051008462906,
                  0.09754270315170288,
                  -0.0115614403039217,
                  0.025747079402208328,
                  0.12758441269397736,
                  -0.014175844378769398,
                  -0.1450512558221817,
                  0.06203803792595863,
                  0.04840496554970741,
                  -0.08303625136613846,
                  -0.09674182534217834,
                  -0.1640147864818573,
                  0.046640876680612564,
                  -0.022871172055602074,
                  -0.05353359505534172,
                  -0.2302965223789215,
                  -0.05637703835964203,
                  0.04899618774652481,
                  0.0785006508231163,
                  -0.08505715429782867,
                  -0.10810745507478714,
                  -0.0153290294110775,
                  0.04200318828225136,
                  -0.11578983068466187,
                  0.20509923994541168,
                  -0.08218172937631607,
                  -0.01881449483335018,
                  0.24258077144622803,
                  -0.1575298309326172,
                  -0.052296124398708344,
                  0.010592238046228886,
                  -0.1415894776582718,
                  -0.12876351177692413,
                  0.028468580916523933,
                  0.0046198368072509766,
                  0.24577456712722778,
                  -0.24265439808368683,
                  -0.15024635195732117,
                  0.0002732954453676939,
                  -0.0049607111141085625
              ],
              [
                  0.2634854316711426,
                  0.1762186586856842,
                  0.0921364352107048,
                  0.15134665369987488,
                  -0.0015938574215397239,
                  0.14477971196174622,
                  0.0673559382557869,
                  0.2165309637784958,
                  0.03183698654174805,
                  0.06711838394403458,
                  -0.004794239066541195,
                  0.15199124813079834,
                  0.07024410367012024,
                  0.05027370527386665,
                  -0.05265243351459503,
                  0.07200195640325546,
                  0.17481203377246857,
                  0.05511387437582016,
                  0.07585607469081879,
                  0.09110181033611298,
                  0.20921336114406586,
                  0.10933957993984222,
                  0.2518104910850525,
                  0.01964736357331276,
                  -0.14495086669921875,
                  0.14958015084266663,
                  0.09100014716386795,
                  0.17082524299621582,
                  0.13734489679336548,
                  0.11242327094078064,
                  0.37113603949546814,
                  0.19841445982456207,
                  0.10576099157333374,
                  -0.09923643618822098,
                  0.005807152017951012,
                  -0.0015050474321469665,
                  0.03618231415748596,
                  0.18205557763576508,
                  -0.18400830030441284,
                  -0.09724876284599304,
                  0.03882952034473419,
                  0.06178884208202362,
                  0.004414911847561598,
                  -0.032921772450208664,
                  -0.030606327578425407,
                  0.30859318375587463,
                  0.11651789397001266,
                  -0.029287129640579224,
                  0.1982787549495697,
                  -0.19133228063583374,
                  -0.10306761413812637,
                  -0.1678396612405777,
                  -0.012659084051847458,
                  -0.08139429986476898,
                  -0.38796377182006836,
                  -0.16152527928352356,
                  -0.16568465530872345,
                  -0.2353275716304779,
                  -0.02103189378976822,
                  -0.34767892956733704,
                  0.003899513278156519,
                  -0.20964069664478302,
                  0.043753378093242645,
                  0.024552829563617706,
                  0.05998888611793518,
                  0.0700559914112091,
                  -0.1145174503326416,
                  0.07164207100868225,
                  -0.14096778631210327,
                  -0.2714730203151703,
                  -0.050589147955179214,
                  -0.16821211576461792,
                  -0.12097223848104477,
                  -0.04334256425499916,
                  -0.19655658304691315
              ]
          ],
          "kernel_width": 5,
          "kernel_height": 5,
          "kernel_stride_x": 1,
          "kernel_stride_y": 1,
          "pad_x": 0,
          "pad_y": 0,
          "biases": [
              -0.022713644430041313,
              -0.06668329983949661,
              0.039687320590019226,
              -0.04198995232582092,
              0.0020822896622121334,
              -0.19522377848625183,
              -0.05197182297706604,
              0.11750537157058716,
              0.05612799525260925,
              -0.125544935464859
          ]
      },
      {
          "name": "pool1",
          "type": "LAYER_MAXPOOL",
          "pool_width": 2,
          "pool_height": 2,
          "pool_stride_x": 2,
          "pool_stride_y": 2
      },
      {
          "name": "conv2",
          "type": "LAYER_CONV",
          "units": 20,
          "weight": [
              [
                  0.06586002558469772,
                  0.0977654829621315,
                  -0.13256017863750458,
                  -0.07185191661119461,
                  -0.04099729657173157,
                  0.028380317613482475,
                  0.10080009698867798,
                  0.08537112921476364,
                  0.14211183786392212,
                  -0.34155628085136414,
                  0.14541137218475342,
                  0.026661045849323273,
                  -0.0028532310388982296,
                  0.11008135229349136,
                  -0.10123338550329208,
                  0.04312842711806297,
                  -0.1346149444580078,
                  -0.10121973603963852,
                  -0.11689309030771255,
                  0.06716853380203247,
                  0.15594641864299774,
                  0.0003839891869574785,
                  -0.12370176613330841,
                  0.16724982857704163,
                  -0.16263192892074585,
                  0.07613510638475418,
                  0.009536495432257652,
                  0.08439268916845322,
                  0.026261858642101288,
                  -0.05507621541619301,
                  -0.04277479648590088,
                  0.11219582706689835,
                  -0.33559563755989075,
                  -0.08431658893823624,
                  0.11855529248714447,
                  0.05811900645494461,
                  -0.00421560974791646,
                  -0.21757306158542633,
                  0.01268863771110773,
                  0.1678248792886734,
                  0.03315424546599388,
                  -0.15792536735534668,
                  0.07732541859149933,
                  0.1524137407541275,
                  0.11946750432252884,
                  0.13566648960113525,
                  0.069859579205513,
                  0.04423918575048447,
                  0.008303732611238956,
                  -0.056399960070848465,
                  -0.02483377978205681,
                  -0.045348312705755234,
                  -0.03857659921050072,
                  0.07254349440336227,
                  0.028653932735323906,
                  -0.003984174691140652,
                  0.14075271785259247,
                  -0.09159684926271439,
                  -0.15703421831130981,
                  0.16668786108493805,
                  0.053101520985364914,
                  0.17618942260742188,
                  0.03406902775168419,
                  -0.2453564554452896,
                  0.20111043751239777,
                  -0.02624632976949215,
                  -0.10033116489648819,
                  0.042668815702199936,
                  0.00007449148688465357,
                  -0.008838402107357979,
                  -0.024799544364213943,
                  -0.1273188292980194,
                  -0.09983078390359879,
                  0.17398568987846375,
                  0.06969955563545227,
                  -0.07431740313768387,
                  0.03826672211289406,
                  -0.10192829370498657,
                  0.039420247077941895,
                  0.1036902517080307,
                  -0.0198480486869812,
                  0.01635112427175045,
                  0.20271560549736023,
                  0.11740360409021378,
                  0.07692640274763107,
                  0.2180337756872177,
                  -0.02562706731259823,
                  0.03782154992222786,
                  0.04337770491838455,
                  0.25304996967315674
              ],
              [
                  0.049298882484436035,
                  0.04594917222857475,
                  -0.0515267476439476,
                  -0.03744398057460785,
                  0.08139975368976593,
                  -0.044375400990247726,
                  0.0125072430819273,
                  -0.052601419389247894,
                  -0.06375724077224731,
                  -0.018804816529154778,
                  0.011161670088768005,
                  0.11537330597639084,
                  -0.05998018756508827,
                  -0.23884069919586182,
                  0.10109023749828339,
                  -0.08569718152284622,
                  -0.051137614995241165,
                  0.1362631618976593,
                  0.08587830513715744,
                  0.02026296965777874,
                  -0.011961904354393482,
                  0.02531871385872364,
                  0.04358316957950592,
                  0.059879232197999954,
                  -0.11754249036312103,
                  0.19228707253932953,
                  0.027746915817260742,
                  -0.012781001627445221,
                  0.10457907617092133,
                  -0.01146794855594635,
                  -0.02552323415875435,
                  -0.11027242243289948,
                  -0.09084529429674149,
                  0.018646372482180595,
                  0.013918783515691757,
                  0.08697562664747238,
                  0.15625756978988647,
                  -0.10220254212617874,
                  0.24487125873565674,
                  -0.19065572321414948,
                  0.03519948571920395,
                  0.018978603184223175,
                  -0.07034296542406082,
                  0.11935102194547653,
                  -0.08139482140541077,
                  0.197344109416008,
                  -0.06298932433128357,
                  -0.06604569405317307,
                  0.031000947579741478,
                  0.04514245688915253,
                  0.05537709221243858,
                  0.036530449986457825,
                  -0.14392735064029694,
                  -0.11129489541053772,
                  -0.08005291223526001,
                  0.036090828478336334,
                  0.06617968529462814,
                  0.2667880356311798,
                  0.08970896154642105,
                  0.09218128025531769,
                  -0.1389833241701126,
                  0.08230554312467575,
                  0.10411947965621948,
                  -0.152448832988739,
                  -0.21518883109092712,
                  0.07117093354463577,
                  -0.018923353403806686,
                  0.11569398641586304,
                  -0.05270761251449585,
                  -0.1339186578989029,
                  -0.05296070873737335,
                  -0.031603261828422546,
                  0.03729306161403656,
                  -0.01125793345272541,
                  0.09516576677560806,
                  0.0869944617152214,
                  -0.22378568351268768,
                  -0.14241671562194824,
                  -0.004892860073596239,
                  -0.12627559900283813,
                  -0.005331440828740597,
                  0.030436040833592415,
                  -0.08037014305591583,
                  0.07245618104934692,
                  0.22029532492160797,
                  0.1093839779496193,
                  0.17517685890197754,
                  0.036503564566373825,
                  0.14112195372581482,
                  0.12943634390830994
              ],
              [
                  0.01658010482788086,
                  -0.19903726875782013,
                  -0.06867528706789017,
                  0.010724648833274841,
                  0.03217010200023651,
                  0.10569680482149124,
                  0.2537485361099243,
                  0.19246576726436615,
                  0.09326986968517303,
                  0.007726593874394894,
                  -0.05122673884034157,
                  0.0913800597190857,
                  0.1975049376487732,
                  0.004290322307497263,
                  -0.069263756275177,
                  0.05259660631418228,
                  0.08956539630889893,
                  0.0031432313844561577,
                  -0.006390002090483904,
                  -0.18498818576335907,
                  -0.10669254511594772,
                  0.08138041943311691,
                  0.1949402540922165,
                  0.06032608449459076,
                  0.01162724755704403,
                  0.08463691174983978,
                  0.28350353240966797,
                  0.1615356057882309,
                  -0.167837455868721,
                  0.04296083003282547,
                  -0.024370115250349045,
                  0.08965451270341873,
                  -0.18153934180736542,
                  0.01077286247164011,
                  0.1746262162923813,
                  -0.08499900996685028,
                  0.0232410728931427,
                  0.042112208902835846,
                  -0.01896313764154911,
                  0.11600769311189651,
                  0.08008605241775513,
                  -0.06631011515855789,
                  0.015218020416796207,
                  0.05592486262321472,
                  -0.1691683530807495,
                  -0.018083542585372925,
                  -0.05212617665529251,
                  0.11209271103143692,
                  0.0122594702988863,
                  0.194351464509964,
                  -0.0548800490796566,
                  -0.17478425800800323,
                  0.023520631715655327,
                  0.19003714621067047,
                  0.08604058623313904,
                  -0.022601256147027016,
                  0.09438839554786682,
                  0.024600893259048462,
                  -0.0515144020318985,
                  -0.14656388759613037,
                  -0.13150762021541595,
                  0.06957022845745087,
                  0.06604666262865067,
                  -0.13351786136627197,
                  -0.06146318465471268,
                  0.08718932420015335,
                  0.0875374898314476,
                  0.013124438002705574,
                  0.2235315889120102,
                  -0.016191987320780754,
                  -0.10500619560480118,
                  -0.02749515324831009,
                  -0.01789424568414688,
                  -0.03510160744190216,
                  -0.08073317259550095,
                  -0.10469207912683487,
                  0.009243356063961983,
                  -0.17965224385261536,
                  -0.10612247884273529,
                  0.16719307005405426,
                  0.2076142430305481,
                  -0.04234690219163895,
                  -0.10601672530174255,
                  0.07535986602306366,
                  0.03720754384994507,
                  0.2051612138748169,
                  0.1321994811296463,
                  -0.05499332398176193,
                  -0.031536657363176346,
                  -0.06411585956811905
              ],
              [
                  -0.01763995550572872,
                  0.0436706468462944,
                  -0.04490874707698822,
                  0.06496447324752808,
                  0.08141327649354935,
                  -0.11220377683639526,
                  0.05978912487626076,
                  -0.048520997166633606,
                  0.16983363032341003,
                  0.004423243924975395,
                  0.2085086852312088,
                  0.05384813994169235,
                  0.17062535881996155,
                  0.14725646376609802,
                  0.016790835186839104,
                  0.04977881908416748,
                  0.1158941388130188,
                  0.04794326424598694,
                  0.11378315091133118,
                  -0.08381851762533188,
                  -0.01413728203624487,
                  -0.020251823589205742,
                  -0.03709404915571213,
                  -0.03084511309862137,
                  -0.18685315549373627,
                  -0.06398291885852814,
                  0.0056560104712843895,
                  0.01260087639093399,
                  -0.04529120773077011,
                  0.07957662642002106,
                  -0.04951220005750656,
                  -0.13560499250888824,
                  0.00011579701094888151,
                  0.0018753779586404562,
                  -0.10084348171949387,
                  -0.016958879306912422,
                  0.08450278639793396,
                  0.07326704263687134,
                  0.08457078784704208,
                  0.12559378147125244,
                  0.08360013365745544,
                  0.045548297464847565,
                  0.14560051262378693,
                  -0.021087339147925377,
                  0.09360865503549576,
                  -0.12780176103115082,
                  -0.025782469660043716,
                  -0.07545718550682068,
                  -0.09850993007421494,
                  -0.07152259349822998,
                  -0.0015140718314796686,
                  -0.16255907714366913,
                  -0.043031658977270126,
                  0.05500388517975807,
                  0.12446215003728867,
                  0.11653339862823486,
                  0.050044815987348557,
                  -0.06119769811630249,
                  0.046737149357795715,
                  -0.05356520041823387,
                  0.1601780205965042,
                  -0.08202814310789108,
                  0.12761864066123962,
                  0.29866787791252136,
                  0.1335706263780594,
                  -0.0361119881272316,
                  -0.08081316947937012,
                  -0.0534893274307251,
                  -0.12752372026443481,
                  -0.05908123403787613,
                  0.09674587845802307,
                  -0.07121247798204422,
                  -0.20314495265483856,
                  0.008286970667541027,
                  -0.024038041010499,
                  0.05368182808160782,
                  0.2190103381872177,
                  0.2533855438232422,
                  -0.10161558538675308,
                  -0.0598808154463768,
                  -0.0508185550570488,
                  -0.21008680760860443,
                  -0.04940690100193024,
                  -0.1391078382730484,
                  0.022768378257751465,
                  0.09827234596014023,
                  -0.1157221645116806,
                  0.14296957850456238,
                  0.08671323210000992,
                  -0.012897469103336334
              ],
              [
                  0.0008896915824152529,
                  -0.07404974102973938,
                  0.07044386118650436,
                  0.0826338455080986,
                  0.018720299005508423,
                  0.26204657554626465,
                  0.08801522850990295,
                  -0.06304113566875458,
                  0.09148456156253815,
                  0.09981878846883774,
                  -0.07890267670154572,
                  0.28994566202163696,
                  0.09463927894830704,
                  0.12198330461978912,
                  0.1811860203742981,
                  -0.14608101546764374,
                  0.32365113496780396,
                  0.2452850192785263,
                  0.04400723800063133,
                  0.26335686445236206,
                  0.17913660407066345,
                  -0.07976029813289642,
                  0.28489747643470764,
                  0.13541831076145172,
                  -0.06609335541725159,
                  0.05782786011695862,
                  0.1112293228507042,
                  -0.07058827579021454,
                  0.11099214851856232,
                  0.07525629550218582,
                  -0.2555885910987854,
                  0.1298210769891739,
                  0.11474139243364334,
                  -0.004677333869040012,
                  0.036265984177589417,
                  0.3475116789340973,
                  0.1351068764925003,
                  0.03866174817085266,
                  0.015050499700009823,
                  -0.0475555919110775,
                  0.001590046682395041,
                  0.13001574575901031,
                  -0.16733326017856598,
                  0.13637983798980713,
                  0.13931073248386383,
                  0.036477021872997284,
                  0.19229386746883392,
                  0.07970946282148361,
                  -0.14602793753147125,
                  -0.019021905958652496,
                  0.14286351203918457,
                  0.022409766912460327,
                  0.006577994208782911,
                  -0.1510024517774582,
                  -0.16768129169940948,
                  0.16532287001609802,
                  0.08083514124155045,
                  -0.13159966468811035,
                  0.09510769695043564,
                  -0.1623644232749939,
                  -0.07421010732650757,
                  -0.002272440120577812,
                  -0.007749836891889572,
                  -0.11551254987716675,
                  -0.051923058927059174,
                  -0.08223267644643784,
                  -0.12546654045581818,
                  0.0018119089072570205,
                  -0.11540129035711288,
                  -0.009438876062631607,
                  -0.03723252937197685,
                  0.043826624751091,
                  0.06517744809389114,
                  -0.042936354875564575,
                  0.04690975695848465,
                  -0.06056147441267967,
                  -0.01591864973306656,
                  -0.046479541808366776,
                  0.11705531179904938,
                  0.07809244096279144,
                  0.01103930827230215,
                  -0.09762381762266159,
                  -0.055398743599653244,
                  -0.22771452367305756,
                  0.035857945680618286,
                  0.08209652453660965,
                  -0.10590416193008423,
                  0.07384088635444641,
                  -0.24272021651268005,
                  -0.09953077882528305
              ],
              [
                  0.09997045993804932,
                  -0.24043287336826324,
                  0.2259700894355774,
                  0.17608262598514557,
                  -0.17799541354179382,
                  0.02949158288538456,
                  -0.19152335822582245,
                  -0.19056478142738342,
                  -0.005117497872561216,
                  -0.07249066233634949,
                  -0.16227294504642487,
                  0.012161954306066036,
                  -0.07683522254228592,
                  0.001279368414543569,
                  0.08982909470796585,
                  -0.08485598117113113,
                  -0.038172461092472076,
                  -0.055043406784534454,
                  -0.0040121241472661495,
                  -0.06654827296733856,
                  -0.2237003594636917,
                  0.019239729270339012,
                  -0.049056731164455414,
                  -0.18390265107154846,
                  0.003728981362655759,
                  -0.16691431403160095,
                  -0.09119454771280289,
                  0.19028626382350922,
                  -0.19247420132160187,
                  -0.038361892104148865,
                  0.037589944899082184,
                  -0.10402129590511322,
                  0.08639495819807053,
                  -0.05710984021425247,
                  -0.04535539075732231,
                  0.0469525009393692,
                  0.018579382449388504,
                  0.05541554465889931,
                  0.06238626688718796,
                  0.014750882051885128,
                  -0.14216287434101105,
                  0.042432721704244614,
                  0.14195451140403748,
                  0.05742500722408295,
                  -0.06336676329374313,
                  0.023701421916484833,
                  -0.13397687673568726,
                  0.055739808827638626,
                  0.029000958427786827,
                  -0.12113211303949356,
                  -0.05077992379665375,
                  -0.236874520778656,
                  0.1187371015548706,
                  -0.11516868323087692,
                  -0.1709297150373459,
                  -0.2066369652748108,
                  0.2004193514585495,
                  0.010306509211659431,
                  -0.06408967822790146,
                  0.14983904361724854,
                  -0.16310273110866547,
                  0.14653310179710388,
                  0.12005136162042618,
                  -0.07130300998687744,
                  -0.18806470930576324,
                  -0.13130994141101837,
                  -0.04355200380086899,
                  0.058127906173467636,
                  0.024735795333981514,
                  -0.1445094347000122,
                  0.1951095014810562,
                  0.025032740086317062,
                  0.07695017755031586,
                  -0.08419740945100784,
                  -0.10131111741065979,
                  -0.05239151418209076,
                  -0.04013953357934952,
                  0.12109197676181793,
                  0.10018005967140198,
                  0.06690916419029236,
                  0.17665672302246094,
                  0.002467468148097396,
                  -0.14340215921401978,
                  0.15163327753543854,
                  -0.16519762575626373,
                  -0.042676229029893875,
                  0.031310223042964935,
                  -0.1572057604789734,
                  0.12193424254655838,
                  -0.014430585317313671
              ],
              [
                  -0.2108639031648636,
                  -0.1020897626876831,
                  -0.05263222008943558,
                  -0.017037058249115944,
                  -0.029103003442287445,
                  -0.17264951765537262,
                  -0.13979370892047882,
                  0.26647886633872986,
                  0.03638206422328949,
                  0.12865346670150757,
                  -0.08786024898290634,
                  -0.07230862975120544,
                  0.04582339525222778,
                  -0.20650146901607513,
                  0.10024888813495636,
                  0.04185266047716141,
                  -0.14420410990715027,
                  0.18987968564033508,
                  0.05239255353808403,
                  -0.21408312022686005,
                  0.0842176079750061,
                  -0.030057160183787346,
                  -0.16316920518875122,
                  0.16110627353191376,
                  -0.10238702595233917,
                  0.07939168810844421,
                  -0.08316057920455933,
                  0.07188119739294052,
                  0.1567424088716507,
                  0.17137856781482697,
                  0.16959190368652344,
                  0.0678260400891304,
                  0.06320758163928986,
                  0.01821230910718441,
                  -0.07758771628141403,
                  -0.18619583547115326,
                  -0.04937468841671944,
                  -0.03754859417676926,
                  -0.26435092091560364,
                  -0.18166829645633698,
                  0.08530208468437195,
                  -0.18101613223552704,
                  -0.046225763857364655,
                  -0.2213422805070877,
                  -0.05708217993378639,
                  0.08606129139661789,
                  0.11101789772510529,
                  -0.026855502277612686,
                  0.05414193123579025,
                  -0.11917484551668167,
                  -0.18219736218452454,
                  -0.008602761663496494,
                  0.09181902557611465,
                  -0.18169137835502625,
                  0.029106272384524345,
                  -0.22581304609775543,
                  0.03386307135224342,
                  -0.04152190312743187,
                  0.02844877913594246,
                  0.17499442398548126,
                  0.0781380832195282,
                  0.018494701012969017,
                  -0.1516873985528946,
                  -0.15292854607105255,
                  -0.17758366465568542,
                  -0.032560840249061584,
                  -0.11842547357082367,
                  -0.043633364140987396,
                  0.06971680372953415,
                  0.002661330858245492,
                  0.08855132013559341,
                  -0.108612060546875,
                  0.053166355937719345,
                  -0.05973448604345322,
                  0.08586481213569641,
                  -0.059702832251787186,
                  -0.03290164843201637,
                  -0.027347922325134277,
                  0.0611448660492897,
                  0.14223609864711761,
                  0.13255523145198822,
                  0.11999974399805069,
                  -0.13349072635173798,
                  -0.15770715475082397,
                  0.015494920313358307,
                  -0.10901657491922379,
                  -0.01836012862622738,
                  -0.07908255606889725,
                  -0.0550026074051857,
                  0.011110851541161537
              ],
              [
                  -0.008629636839032173,
                  0.08466177433729172,
                  0.1188187226653099,
                  -0.008598634973168373,
                  0.1236385777592659,
                  -0.009843200445175171,
                  -0.03185248002409935,
                  0.04332030564546585,
                  -0.2058696150779724,
                  -0.06228594109416008,
                  0.09331860393285751,
                  0.11729779094457626,
                  0.01110023446381092,
                  -0.07480860501527786,
                  0.057024531066417694,
                  0.06464884430170059,
                  -0.002517907414585352,
                  0.04652600735425949,
                  -0.3166128695011139,
                  0.15432864427566528,
                  -0.029226811602711678,
                  0.00916498526930809,
                  -0.040194958448410034,
                  0.2457558810710907,
                  -0.10971314460039139,
                  -0.18341434001922607,
                  0.1606753170490265,
                  0.05508384853601456,
                  -0.1481797993183136,
                  0.16076363623142242,
                  -0.0022320186253637075,
                  0.07694617658853531,
                  0.11579174548387527,
                  0.08083328604698181,
                  0.06259182840585709,
                  0.1261492818593979,
                  0.29830750823020935,
                  -0.08535047620534897,
                  -0.10009939968585968,
                  -0.017783725634217262,
                  0.07042522728443146,
                  -0.05567532777786255,
                  0.1569375842809677,
                  0.0504692867398262,
                  -0.05906413495540619,
                  0.14733226597309113,
                  0.14855051040649414,
                  0.0055702924728393555,
                  -0.23021608591079712,
                  -0.10844657570123672,
                  0.005018241703510284,
                  -0.0702187567949295,
                  -0.014783891849219799,
                  0.015648705884814262,
                  -0.13347099721431732,
                  0.08089446276426315,
                  -0.03250403329730034,
                  -0.030059166252613068,
                  -0.047462575137615204,
                  0.01343721803277731,
                  0.054075054824352264,
                  0.07970067113637924,
                  -0.045306604355573654,
                  0.1061660498380661,
                  -0.07365023344755173,
                  -0.021679801866412163,
                  -0.1635144203901291,
                  0.10482200980186462,
                  -0.2803316116333008,
                  -0.003466606605798006,
                  -0.0607013963162899,
                  -0.12363170087337494,
                  0.030407804995775223,
                  0.034007228910923004,
                  0.16765788197517395,
                  0.08926378935575485,
                  0.17413967847824097,
                  -0.08075953274965286,
                  0.08194601535797119,
                  0.24478785693645477,
                  0.08689086884260178,
                  -0.11519572138786316,
                  -0.05568165332078934,
                  0.15299342572689056,
                  -0.11989396065473557,
                  -0.21649394929409027,
                  0.16167950630187988,
                  0.11196989566087723,
                  -0.005414134822785854,
                  0.047635212540626526
              ],
              [
                  0.04423503577709198,
                  0.056177325546741486,
                  -0.013270407915115356,
                  0.27936723828315735,
                  -0.06015275791287422,
                  -0.049270447343587875,
                  0.07459293305873871,
                  -0.2062995880842209,
                  0.07768294215202332,
                  -0.05075279623270035,
                  0.09135982394218445,
                  0.06618061661720276,
                  0.02997065708041191,
                  0.3143991529941559,
                  -0.02406667172908783,
                  0.04654208570718765,
                  0.008546016179025173,
                  -0.177777498960495,
                  -0.22425608336925507,
                  0.017218580469489098,
                  0.13971979916095734,
                  -0.03543143346905708,
                  -0.014593533240258694,
                  -0.010226286947727203,
                  -0.2105797529220581,
                  0.011876663193106651,
                  -0.005563921295106411,
                  0.015458459965884686,
                  0.09019536525011063,
                  0.11039435118436813,
                  0.20224890112876892,
                  0.0060850996524095535,
                  0.08593777567148209,
                  -0.0021546506322920322,
                  0.15635165572166443,
                  -0.09362594783306122,
                  0.13883551955223083,
                  0.18029136955738068,
                  -0.04359560087323189,
                  0.15848702192306519,
                  0.01668732613325119,
                  0.001767856301739812,
                  -0.14105749130249023,
                  -0.05871046707034111,
                  -0.03223058953881264,
                  0.074134461581707,
                  0.06363122165203094,
                  0.1276736557483673,
                  -0.08234801888465881,
                  0.09203041344881058,
                  -0.01967495121061802,
                  -0.02367008849978447,
                  0.1671394407749176,
                  0.041322238743305206,
                  -0.09934243559837341,
                  0.12347669154405594,
                  -0.013966795057058334,
                  -0.04611406475305557,
                  0.05091695114970207,
                  -0.011688323691487312,
                  0.02126259356737137,
                  0.12650562822818756,
                  0.11947009712457657,
                  -0.1685829758644104,
                  0.08241810649633408,
                  -0.04220428690314293,
                  -0.16679814457893372,
                  0.09140515327453613,
                  -0.0809725746512413,
                  0.010377959348261356,
                  0.10510846972465515,
                  -0.1854604035615921,
                  -0.11118343472480774,
                  -0.1820273995399475,
                  0.011469336226582527,
                  -0.2247224897146225,
                  0.11098974198102951,
                  0.030475178733468056,
                  0.060450877994298935,
                  -0.06678199023008347,
                  -0.03743318095803261,
                  0.02963212877511978,
                  0.1374521702528,
                  -0.2179436981678009,
                  -0.06475629657506943,
                  0.03935456648468971,
                  0.05444590747356415,
                  0.09075117856264114,
                  0.045569587498903275,
                  0.09805309027433395
              ],
              [
                  0.06501929461956024,
                  0.029488397762179375,
                  0.06638166308403015,
                  0.0496891587972641,
                  -0.15861715376377106,
                  0.0653853714466095,
                  -0.11659970134496689,
                  -0.027485202997922897,
                  0.11936964094638824,
                  0.026727160438895226,
                  0.08730654418468475,
                  0.21516573429107666,
                  0.14096803963184357,
                  0.09144622832536697,
                  -0.0431026890873909,
                  -0.0016541741788387299,
                  0.025633256882429123,
                  -0.009572630748152733,
                  0.06765075773000717,
                  -0.1512743979692459,
                  0.11066967993974686,
                  0.285325825214386,
                  -0.16576631367206573,
                  0.1660463958978653,
                  0.14930640161037445,
                  0.15135839581489563,
                  0.10836126655340195,
                  -0.09456837922334671,
                  0.1412286013364792,
                  0.16296251118183136,
                  0.01680057868361473,
                  0.004199983552098274,
                  0.02986677549779415,
                  -0.06120041385293007,
                  -0.0061682723462581635,
                  -0.08080469071865082,
                  0.10749465227127075,
                  -0.0753498375415802,
                  -0.0039034513756632805,
                  0.022194979712367058,
                  -0.009695039130747318,
                  -0.0027959425933659077,
                  0.0472690612077713,
                  -0.2601589262485504,
                  0.0007886496605351567,
                  0.04097231850028038,
                  0.30929383635520935,
                  0.1371670961380005,
                  0.07511836290359497,
                  0.12763936817646027,
                  -0.0056513636372983456,
                  -0.07328373193740845,
                  0.14897575974464417,
                  0.40073999762535095,
                  0.06525925546884537,
                  0.0423927865922451,
                  0.07214919477701187,
                  0.08525852113962173,
                  -0.07761655747890472,
                  0.08921866863965988,
                  -0.09177053719758987,
                  -0.09669963270425797,
                  0.00945659913122654,
                  0.07599244266748428,
                  0.006634443532675505,
                  0.23981371521949768,
                  -0.018469342961907387,
                  -0.03578856214880943,
                  0.02152779884636402,
                  0.019766494631767273,
                  0.17566315829753876,
                  0.046313535422086716,
                  -0.07019828259944916,
                  -0.10399316251277924,
                  -0.0764923021197319,
                  -0.03441029042005539,
                  -0.0690222680568695,
                  0.02666049636900425,
                  -0.20712262392044067,
                  -0.07674699276685715,
                  0.0359366312623024,
                  -0.042547557502985,
                  0.12059178203344345,
                  0.029562359675765038,
                  -0.09591370820999146,
                  -0.018173683434724808,
                  0.07581370323896408,
                  0.18481285870075226,
                  0.13722862303256989,
                  0.05868067219853401
              ],
              [
                  -0.04237460717558861,
                  -0.20175424218177795,
                  0.051455266773700714,
                  0.06356611102819443,
                  0.013380809687077999,
                  -0.05555044487118721,
                  0.08089280128479004,
                  0.002404965925961733,
                  -0.07777488976716995,
                  0.13352510333061218,
                  0.09514275193214417,
                  0.0161274503916502,
                  0.15245811641216278,
                  0.0049906037747859955,
                  0.0003207210684195161,
                  0.15588891506195068,
                  0.10179630666971207,
                  -0.057045791298151016,
                  -0.01814209669828415,
                  0.2617173492908478,
                  0.005033556371927261,
                  0.1441054344177246,
                  0.1634019911289215,
                  0.13759104907512665,
                  0.06429506838321686,
                  0.11710523068904877,
                  0.04855550825595856,
                  0.12604014575481415,
                  0.031064338982105255,
                  -0.014659599401056767,
                  0.1921769082546234,
                  0.09372413903474808,
                  -0.05820104107260704,
                  0.17840273678302765,
                  0.0007338158320635557,
                  -0.026325009763240814,
                  -0.01850079372525215,
                  0.0027165820356458426,
                  0.013806852512061596,
                  0.09254606813192368,
                  0.06825114786624908,
                  -0.009264583699405193,
                  0.14729101955890656,
                  0.01495331060141325,
                  -0.05426889285445213,
                  0.03810857608914375,
                  0.08501234650611877,
                  -0.12907524406909943,
                  0.09056353569030762,
                  0.23956605792045593,
                  0.14639663696289062,
                  -0.024279316887259483,
                  0.012011782266199589,
                  -0.18680597841739655,
                  0.09745330363512039,
                  0.023714233189821243,
                  0.07596206665039062,
                  0.0181706715375185,
                  0.06707759946584702,
                  0.06737696379423141,
                  0.16630768775939941,
                  -0.0350717194378376,
                  0.009865311905741692,
                  0.17116454243659973,
                  -0.09880834817886353,
                  0.020677924156188965,
                  0.039205580949783325,
                  0.0051824175752699375,
                  -0.062061768025159836,
                  0.023776497691869736,
                  0.16433824598789215,
                  0.04616757482290268,
                  -0.06563163548707962,
                  0.0656127780675888,
                  0.06084710732102394,
                  -0.14738871157169342,
                  -0.07764194905757904,
                  0.11021046340465546,
                  0.09952990710735321,
                  0.11970634758472443,
                  -0.037371885031461716,
                  -0.06135887652635574,
                  -0.14171096682548523,
                  -0.24572288990020752,
                  0.22518347203731537,
                  -0.08755891770124435,
                  -0.12035101652145386,
                  -0.1479799449443817,
                  -0.12329196184873581,
                  -0.13897614181041718
              ],
              [
                  -0.11985611915588379,
                  0.07617893815040588,
                  -0.014844975434243679,
                  -0.05159527808427811,
                  -0.0047035813331604,
                  -0.01701374538242817,
                  0.06926975399255753,
                  -0.03371603786945343,
                  -0.16268065571784973,
                  -0.1715136617422104,
                  -0.08476169407367706,
                  -0.0381067730486393,
                  0.09531372040510178,
                  0.09678727388381958,
                  -0.15572693943977356,
                  0.02088846266269684,
                  0.16083715856075287,
                  -0.03302843123674393,
                  -0.049815718084573746,
                  -0.06725922971963882,
                  0.15244559943675995,
                  0.12019380927085876,
                  -0.11190756410360336,
                  -0.17061394453048706,
                  -0.07854592055082321,
                  -0.011042755097150803,
                  -0.07736510038375854,
                  -0.004217865411192179,
                  -0.002447987673804164,
                  -0.11412280797958374,
                  -0.0023668052162975073,
                  -0.032440658658742905,
                  -0.042378269135951996,
                  -0.042923737317323685,
                  -0.0766703188419342,
                  -0.04784340783953667,
                  -0.12358187139034271,
                  0.04567876085639,
                  0.16723871231079102,
                  -0.09094807505607605,
                  0.05490956827998161,
                  0.10216452926397324,
                  -0.0036928472109138966,
                  -0.2135770320892334,
                  -0.11915891617536545,
                  -0.030083026736974716,
                  0.03210346773266792,
                  -0.1799468994140625,
                  -0.3064090311527252,
                  -0.043908338993787766,
                  0.2297648787498474,
                  0.015787798911333084,
                  -0.03971301019191742,
                  0.0516144260764122,
                  -0.06366536766290665,
                  0.09766948968172073,
                  -0.1900719851255417,
                  -0.1632131040096283,
                  0.11494922637939453,
                  0.18384313583374023,
                  -0.11394944041967392,
                  0.10403186082839966,
                  -0.09684687852859497,
                  0.04029323533177376,
                  0.03387557715177536,
                  0.019459063187241554,
                  -0.20750899612903595,
                  -0.013446268625557423,
                  0.15065672993659973,
                  -0.15667825937271118,
                  0.08975313603878021,
                  0.09902598708868027,
                  -0.03769051656126976,
                  -0.03068423829972744,
                  0.08662361651659012,
                  -0.006083248648792505,
                  -0.1383841633796692,
                  0.015222772024571896,
                  -0.03240329027175903,
                  0.09009841084480286,
                  0.07351843267679214,
                  0.08560176938772202,
                  0.09009167551994324,
                  0.19984212517738342,
                  0.013684585690498352,
                  0.27564695477485657,
                  0.16415993869304657,
                  0.20182938873767853,
                  0.012327970005571842,
                  -0.09991295635700226
              ],
              [
                  -0.11152508854866028,
                  -0.09861566126346588,
                  -0.1902717500925064,
                  -0.11224383115768433,
                  0.01312944944947958,
                  -0.09040886908769608,
                  -0.02798815444111824,
                  0.030409106984734535,
                  -0.10072821378707886,
                  0.028652286157011986,
                  -0.1417786031961441,
                  0.06064503267407417,
                  0.09711402654647827,
                  0.05385393276810646,
                  0.09826251864433289,
                  0.12906058132648468,
                  0.005169237963855267,
                  -0.0524013414978981,
                  0.042469289153814316,
                  0.12530264258384705,
                  -0.1327790915966034,
                  -0.04842006042599678,
                  0.045723896473646164,
                  0.0657012090086937,
                  -0.1361568719148636,
                  0.1492108404636383,
                  0.0011979095870628953,
                  0.05758066475391388,
                  0.07801675796508789,
                  -0.24097923934459686,
                  0.032349467277526855,
                  -0.12532323598861694,
                  -0.004342587199062109,
                  0.16987727582454681,
                  0.029535498470067978,
                  -0.17700983583927155,
                  0.0801144614815712,
                  -0.0010806303471326828,
                  -0.1940433531999588,
                  0.182270810008049,
                  0.006841509602963924,
                  -0.02866922877728939,
                  0.0034978401381522417,
                  -0.044963590800762177,
                  -0.08072478324174881,
                  0.020098572596907616,
                  0.03219522535800934,
                  -0.04466547071933746,
                  -0.016706429421901703,
                  0.04393657296895981,
                  0.0014913971535861492,
                  0.10298003256320953,
                  0.11888396739959717,
                  -0.16397278010845184,
                  0.08888871967792511,
                  -0.039926499128341675,
                  -0.009126320481300354,
                  -0.09144453704357147,
                  0.09035652875900269,
                  0.05098561570048332,
                  0.03290645778179169,
                  -0.03446665033698082,
                  0.02661452256143093,
                  0.03631582111120224,
                  -0.12066225707530975,
                  -0.034325938671827316,
                  -0.009964408352971077,
                  -0.03748048469424248,
                  -0.04872334748506546,
                  0.08813246339559555,
                  0.037892818450927734,
                  -0.1222555860877037,
                  0.07857676595449448,
                  -0.13620969653129578,
                  0.01962052658200264,
                  0.018289441242814064,
                  0.012578518129885197,
                  0.07482302933931351,
                  0.16492781043052673,
                  -0.10016324371099472,
                  0.058950912207365036,
                  0.150222510099411,
                  -0.0015494574327021837,
                  0.08358413726091385,
                  -0.0760398581624031,
                  0.0656893253326416,
                  0.06984160840511322,
                  -0.05613306909799576,
                  -0.012824218720197678,
                  0.20903684198856354
              ],
              [
                  0.029899979010224342,
                  -0.08417245745658875,
                  0.06397934257984161,
                  -0.0682191476225853,
                  -0.03837209939956665,
                  0.0021916560363024473,
                  -0.008008641190826893,
                  -0.14510394632816315,
                  -0.02573203481733799,
                  -0.11652451008558273,
                  0.0002477122179698199,
                  0.1262936294078827,
                  0.09225298464298248,
                  -0.10062819719314575,
                  -0.02116638422012329,
                  -0.020308610051870346,
                  0.05270924046635628,
                  -0.1765759140253067,
                  0.14336822926998138,
                  0.030829831957817078,
                  -0.02343960478901863,
                  -0.07817855477333069,
                  -0.13927967846393585,
                  -0.17157042026519775,
                  0.03318337723612785,
                  0.011920985765755177,
                  0.06613045185804367,
                  -0.16792693734169006,
                  0.16139604151248932,
                  -0.012221875600516796,
                  -0.025848589837551117,
                  -0.06263673305511475,
                  -0.008006634190678596,
                  -0.04150957614183426,
                  0.015439573675394058,
                  -0.09612119942903519,
                  -0.09371256828308105,
                  0.1506345570087433,
                  0.05080028623342514,
                  -0.08694428950548172,
                  -0.0729229673743248,
                  -0.14412598311901093,
                  -0.11646304279565811,
                  0.014907789416611195,
                  0.07400143891572952,
                  -0.009005035273730755,
                  0.004797997884452343,
                  -0.1445849984884262,
                  0.05137641727924347,
                  0.028309226036071777,
                  -0.1513991802930832,
                  0.00998185109347105,
                  0.010130146518349648,
                  -0.14171987771987915,
                  -0.016322115436196327,
                  0.19516558945178986,
                  0.2733781039714813,
                  0.07304611802101135,
                  -0.15344728529453278,
                  0.09125828742980957,
                  0.1618485152721405,
                  -0.21164265275001526,
                  -0.06211533397436142,
                  0.05314916744828224,
                  0.1212213858962059,
                  -0.21461667120456696,
                  -0.16249814629554749,
                  -0.15127792954444885,
                  0.06869267672300339,
                  0.1555875688791275,
                  -0.09615407884120941,
                  -0.07505246251821518,
                  0.041026968508958817,
                  0.036417990922927856,
                  -0.10494162142276764,
                  0.06494775414466858,
                  -0.012599117122590542,
                  -0.14233550429344177,
                  -0.05595529079437256,
                  0.0928761288523674,
                  -0.040006112307310104,
                  0.04748073220252991,
                  0.03096672333776951,
                  -0.010770032182335854,
                  -0.22421894967556,
                  -0.19491538405418396,
                  -0.07134699821472168,
                  0.044508855789899826,
                  -0.1778118759393692,
                  -0.05055651068687439
              ],
              [
                  -0.1275174915790558,
                  -0.03266308084130287,
                  0.011942862533032894,
                  0.07419697940349579,
                  -0.0399416908621788,
                  0.07782808691263199,
                  0.004610189236700535,
                  -0.01644899509847164,
                  -0.02183949574828148,
                  -0.003255375660955906,
                  0.08976127207279205,
                  -0.1066599190235138,
                  -0.003026565071195364,
                  -0.011447266675531864,
                  -0.08482974767684937,
                  0.03692528232932091,
                  -0.0384804904460907,
                  -0.1257430762052536,
                  0.13816805183887482,
                  -0.2405853271484375,
                  -0.033569276332855225,
                  0.08301793783903122,
                  0.08322399854660034,
                  -0.08056697249412537,
                  -0.04745286703109741,
                  -0.08340038359165192,
                  0.1746279001235962,
                  0.08610506355762482,
                  0.09280575811862946,
                  0.02418539859354496,
                  0.15529707074165344,
                  0.004009802360087633,
                  -0.13619379699230194,
                  -0.0771360918879509,
                  0.22180962562561035,
                  0.12677250802516937,
                  0.011570191010832787,
                  -0.05275839567184448,
                  0.10271023958921432,
                  -0.13818193972110748,
                  0.03714210167527199,
                  -0.23347677290439606,
                  -0.0693751648068428,
                  0.043355949223041534,
                  -0.16333456337451935,
                  -0.08174212276935577,
                  -0.02156347781419754,
                  0.053482744842767715,
                  0.02849481627345085,
                  -0.08470670133829117,
                  -0.197838693857193,
                  0.01895645074546337,
                  -0.020131297409534454,
                  0.08974806219339371,
                  0.13668519258499146,
                  0.13975006341934204,
                  -0.07269889861345291,
                  -0.03836467117071152,
                  0.1322108805179596,
                  -0.10363306105136871,
                  -0.11261282116174698,
                  -0.23171073198318481,
                  0.0062361168675124645,
                  0.04824976250529289,
                  -0.005770806688815355,
                  -0.07121044397354126,
                  0.10422912240028381,
                  -0.03651757165789604,
                  -0.11125247925519943,
                  0.10981065034866333,
                  0.20739157497882843,
                  0.12267593294382095,
                  -0.10387564450502396,
                  0.0853099450469017,
                  0.0751868262887001,
                  0.04609871655702591,
                  0.008240710012614727,
                  -0.20651501417160034,
                  -0.08671942353248596,
                  0.22005677223205566,
                  -0.021766500547528267,
                  -0.16283710300922394,
                  -0.04818163439631462,
                  0.10826931148767471,
                  0.06457926332950592,
                  -0.11154837906360626,
                  0.027564313262701035,
                  -0.053547054529190063,
                  -0.08086351305246353,
                  -0.09915873408317566
              ],
              [
                  0.1309928596019745,
                  0.11852464079856873,
                  -0.04078919440507889,
                  0.02674824930727482,
                  0.07149244844913483,
                  -0.06459921598434448,
                  0.13754180073738098,
                  -0.015240848995745182,
                  0.0313805527985096,
                  0.17325133085250854,
                  -0.029832914471626282,
                  -0.0441611222922802,
                  0.1632225066423416,
                  -0.02322484739124775,
                  -0.05075237900018692,
                  0.03974359855055809,
                  -0.08781107515096664,
                  -0.09782258421182632,
                  -0.03732864931225777,
                  0.057351887226104736,
                  -0.011570358648896217,
                  0.21983098983764648,
                  -0.11661789566278458,
                  0.0057308003306388855,
                  -0.009154906496405602,
                  -0.07618525624275208,
                  -0.12399548292160034,
                  -0.1834743171930313,
                  -0.05685883015394211,
                  0.023243991658091545,
                  0.05191538482904434,
                  -0.08419735729694366,
                  0.042138390243053436,
                  0.14650005102157593,
                  -0.20106105506420135,
                  0.13946793973445892,
                  -0.06546706706285477,
                  0.042232271283864975,
                  0.005884116981178522,
                  -0.06226427108049393,
                  0.046438198536634445,
                  -0.023603331297636032,
                  0.02688731998205185,
                  -0.01503228209912777,
                  -0.006424908526241779,
                  0.07372511923313141,
                  -0.09928174316883087,
                  -0.06379569321870804,
                  0.10857479274272919,
                  -0.0756189301609993,
                  0.08245988190174103,
                  0.04671592265367508,
                  -0.04631820693612099,
                  -0.08244496583938599,
                  -0.03365940973162651,
                  0.04623356834053993,
                  -0.12011542171239853,
                  -0.1408938318490982,
                  -0.14682316780090332,
                  0.05809001997113228,
                  -0.06372247636318207,
                  0.06424015760421753,
                  0.06634768098592758,
                  0.005792257841676474,
                  0.18278147280216217,
                  0.1253625601530075,
                  0.10116417706012726,
                  0.04132877662777901,
                  0.07128509134054184,
                  -0.09039326757192612,
                  0.13018479943275452,
                  0.11142400652170181,
                  -0.015653133392333984,
                  -0.14040981233119965,
                  0.20703016221523285,
                  0.005345851648598909,
                  -0.19789090752601624,
                  0.05730023235082626,
                  -0.1738431751728058,
                  0.0989827960729599,
                  0.015075142495334148,
                  0.02158781699836254,
                  -0.10365962982177734,
                  -0.01809740625321865,
                  0.02836247719824314,
                  -0.006989140994846821,
                  -0.06728880852460861,
                  -0.014995061792433262,
                  0.07864977419376373,
                  0.07262358069419861
              ],
              [
                  -0.07006145268678665,
                  -0.07401424646377563,
                  0.06659843027591705,
                  0.19003911316394806,
                  0.0681997686624527,
                  -0.16816100478172302,
                  0.14973312616348267,
                  0.12092112004756927,
                  0.039525263011455536,
                  0.047885701060295105,
                  0.04231540858745575,
                  -0.07449593394994736,
                  -0.017912933602929115,
                  0.11624380946159363,
                  0.3996274769306183,
                  0.03876345604658127,
                  -0.0738392248749733,
                  0.22474154829978943,
                  -0.038948409259319305,
                  -0.1281302273273468,
                  -0.11206412315368652,
                  -0.08766325563192368,
                  -0.06751210242509842,
                  -0.02320500835776329,
                  0.09364531189203262,
                  -0.021352684125304222,
                  0.10084963589906693,
                  -0.011562620289623737,
                  -0.05773530527949333,
                  0.05619393289089203,
                  0.18028579652309418,
                  0.24792343378067017,
                  0.03593742847442627,
                  -0.0103104617446661,
                  0.240866556763649,
                  0.12688583135604858,
                  0.019246386364102364,
                  0.004748987965285778,
                  0.18236064910888672,
                  -0.03205585852265358,
                  -0.13945327699184418,
                  0.271953284740448,
                  0.004315118305385113,
                  -0.10572022944688797,
                  0.04634520784020424,
                  0.030313991010189056,
                  0.15944728255271912,
                  0.22499728202819824,
                  -0.09133914858102798,
                  0.1030191034078598,
                  0.09061285108327866,
                  -0.026963742449879646,
                  -0.29972952604293823,
                  0.0680176392197609,
                  -0.04143013432621956,
                  0.021404817700386047,
                  -0.07386118918657303,
                  0.08039422333240509,
                  0.0582103431224823,
                  0.11898389458656311,
                  -0.027676882222294807,
                  0.07161741703748703,
                  0.04505174979567528,
                  0.06123510003089905,
                  -0.1560102105140686,
                  -0.03821997344493866,
                  0.016646936535835266,
                  -0.049021344631910324,
                  0.16494540870189667,
                  0.2083463817834854,
                  -0.036501605063676834,
                  0.14267049729824066,
                  0.13143830001354218,
                  -0.05715671926736832,
                  0.10666573792695999,
                  0.11647947877645493,
                  0.06685388833284378,
                  -0.04455957189202309,
                  0.06288240104913712,
                  0.12225612998008728,
                  0.06664763391017914,
                  -0.13129295408725739,
                  0.06824250519275665,
                  0.025847673416137695,
                  -0.17026495933532715,
                  -0.13637220859527588,
                  0.010758469812572002,
                  -0.13656915724277496,
                  0.1164492517709732,
                  -0.10509738326072693
              ],
              [
                  0.15196767449378967,
                  0.03319259360432625,
                  -0.0705220103263855,
                  0.036774784326553345,
                  0.03031018190085888,
                  0.08680276572704315,
                  0.0008298758766613901,
                  0.2293420433998108,
                  0.20281030237674713,
                  -0.02694164589047432,
                  -0.15153002738952637,
                  0.04936814680695534,
                  -0.01693618670105934,
                  0.03172964230179787,
                  -0.038526035845279694,
                  -0.01537246536463499,
                  -0.043898116797208786,
                  0.1439111828804016,
                  -0.02693961374461651,
                  0.06971455365419388,
                  0.10989248752593994,
                  -0.09543874859809875,
                  -0.08994913846254349,
                  0.0009725467534735799,
                  -0.06169282644987106,
                  -0.04453258216381073,
                  -0.06081562861800194,
                  -0.006645610090345144,
                  0.09315761178731918,
                  -0.04762658104300499,
                  -0.30621808767318726,
                  -0.07119099795818329,
                  -0.16179659962654114,
                  0.08604263514280319,
                  0.012684711255133152,
                  -0.06966584920883179,
                  -0.012500884011387825,
                  -0.010055344551801682,
                  0.2109055519104004,
                  -0.009132511913776398,
                  -0.1280563771724701,
                  -0.09310837090015411,
                  -0.009399903006851673,
                  -0.1552184671163559,
                  0.055660679936409,
                  -0.05667785555124283,
                  -0.030681120231747627,
                  -0.04661845788359642,
                  -0.08275928348302841,
                  -0.032343845814466476,
                  0.017609678208827972,
                  0.04624497890472412,
                  -0.14577394723892212,
                  -0.09996236860752106,
                  0.15944814682006836,
                  0.09953898191452026,
                  0.03969425708055496,
                  -0.11152837425470352,
                  -0.24339090287685394,
                  -0.06705702096223831,
                  0.11821198463439941,
                  0.002885205904021859,
                  0.0818403959274292,
                  -0.16059517860412598,
                  -0.07333684712648392,
                  0.04611385241150856,
                  0.16355381906032562,
                  -0.022044623270630836,
                  -0.2975848615169525,
                  -0.012239879928529263,
                  -0.24364636838436127,
                  0.03319088742136955,
                  0.033485691994428635,
                  -0.10269787907600403,
                  0.12097529321908951,
                  0.11354568600654602,
                  -0.10023654252290726,
                  -0.13374119997024536,
                  0.1368921846151352,
                  -0.13117745518684387,
                  0.14944586157798767,
                  0.056089725345373154,
                  -0.20447592437267303,
                  0.05066587030887604,
                  -0.024555541574954987,
                  0.06939159333705902,
                  0.09895796328783035,
                  0.10240543633699417,
                  -0.11710907518863678,
                  0.03959136828780174
              ],
              [
                  0.0039854347705841064,
                  -0.08527028560638428,
                  -0.10418020188808441,
                  -0.014178652316331863,
                  -0.014198576100170612,
                  0.024919766932725906,
                  -0.002014297293499112,
                  0.04866565763950348,
                  -0.14085915684700012,
                  0.12315504252910614,
                  0.01203942857682705,
                  0.08976196497678757,
                  0.1280679553747177,
                  -0.029695337638258934,
                  0.05667111277580261,
                  0.03922513127326965,
                  -0.08759082853794098,
                  -0.08185698091983795,
                  0.06299587339162827,
                  -0.08284450322389603,
                  -0.008282670751214027,
                  0.12845759093761444,
                  -0.13657192885875702,
                  -0.18883462250232697,
                  -0.007117026019841433,
                  0.13439543545246124,
                  -0.07800444960594177,
                  -0.02735627070069313,
                  0.1183735802769661,
                  -0.3130958676338196,
                  0.029603242874145508,
                  0.054662495851516724,
                  -0.051367390900850296,
                  -0.10401436686515808,
                  -0.03753374516963959,
                  0.11473289132118225,
                  0.0029849009588360786,
                  -0.03981313854455948,
                  -0.10555661469697952,
                  -0.025547267869114876,
                  0.0875512883067131,
                  0.19936667382717133,
                  -0.09284745156764984,
                  -0.04464706405997276,
                  -0.023434769362211227,
                  -0.08260226249694824,
                  0.17171774804592133,
                  -0.006441846955567598,
                  -0.044905032962560654,
                  -0.12432067841291428,
                  -0.06674745678901672,
                  -0.006595124024897814,
                  0.12304583936929703,
                  -0.06607670336961746,
                  0.06249015033245087,
                  0.16903896629810333,
                  0.06422742456197739,
                  0.03979376330971718,
                  -0.005181561689823866,
                  -0.15304230153560638,
                  -0.058025117963552475,
                  0.1643950492143631,
                  0.24464182555675507,
                  0.12431015819311142,
                  -0.07363683730363846,
                  0.013326135464012623,
                  0.03825293108820915,
                  -0.07194903492927551,
                  -0.004369413945823908,
                  -0.028161942958831787,
                  0.18613529205322266,
                  0.02625705488026142,
                  -0.08197341114282608,
                  0.045769430696964264,
                  0.015452607534825802,
                  -0.07265493273735046,
                  0.08052434772253036,
                  -0.005974701140075922,
                  -0.05549715459346771,
                  0.1475076675415039,
                  0.1272517591714859,
                  0.10624771565198898,
                  0.08727709203958511,
                  0.0038902664091438055,
                  -0.11729347705841064,
                  0.10707813501358032,
                  -0.16465435922145844,
                  0.05188444256782532,
                  -0.15413857996463776,
                  0.03324083238840103
              ],
              [
                  -0.0804797112941742,
                  -0.04232664033770561,
                  0.07568219304084778,
                  0.08370836079120636,
                  0.009048175066709518,
                  -0.10784852504730225,
                  -0.08764690905809402,
                  -0.01556889433413744,
                  0.009478166699409485,
